Layer 1 Weights:
-4.042474925518035889e-01,4.075298458337783813e-02,-2.641766369342803955e-01,-5.591228231787681580e-02,9.161918610334396362e-02,-1.251161247491836548e-01,1.508550643920898438e-01,8.631018549203872681e-02,-8.605351299047470093e-02,1.191036179661750793e-01,-1.079845130443572998e-01,1.304972022771835327e-01,-5.103341862559318542e-02,-1.122477930039167404e-02,1.196924131363630295e-02,7.864010334014892578e-02,-1.356551200151443481e-01,1.059275716543197632e-01,-9.037031978368759155e-02,7.035933434963226318e-02,-3.639994189143180847e-02,-1.362668722867965698e-01,-2.481077425181865692e-02,-1.436396688222885132e-01,1.614009439945220947e-01,6.825172901153564453e-02,-9.950024634599685669e-02,5.412908270955085754e-02,-1.336752474308013916e-01,4.391496479511260986e-01,1.078099980950355530e-01,-9.800250083208084106e-02,-1.275692135095596313e-02,-2.481390349566936493e-02,3.056649863719940186e-01,-2.253024093806743622e-02,2.474851347506046295e-02,1.033291742205619812e-01,1.503170430660247803e-01,4.169051349163055420e-02,4.070500377565622330e-03,2.045117616653442383e-01,1.683109104633331299e-01,8.358523249626159668e-02,2.418076992034912109e-01,1.436125040054321289e-01,-1.170775294303894043e-01,5.121724009513854980e-01,-1.750476658344268799e-01,1.343692541122436523e-01,-8.134727478027343750e-01,1.336653828620910645e-01,-7.122506387531757355e-03,-1.400416344404220581e-01,6.850589066743850708e-02,-2.257023304700851440e-01,-2.482554316520690918e-01,-4.147219285368919373e-02,-1.926446408033370972e-01,3.334808349609375000e-02,1.272652149200439453e-01,5.192763358354568481e-02,-1.444183886051177979e-01,-3.310593068599700928e-01,-5.448569729924201965e-02,1.051778197288513184e-01,-5.922885984182357788e-02,-3.501153783872723579e-03,1.425488889217376709e-01,-3.723433613777160645e-02,-4.776687175035476685e-02,-4.356434941291809082e-02,-1.023500878363847733e-02,7.472223788499832153e-02,-1.626138091087341309e-01,-1.623065210878849030e-02,1.241918876767158508e-01,-1.455806493759155273e-01,-1.519189774990081787e-01,1.603253632783889771e-01,-9.710125923156738281e-01,-5.882275849580764771e-02,-4.290191084146499634e-02,-1.192583814263343811e-01,6.897175312042236328e-02,-1.340801566839218140e-01,7.486165314912796021e-02,-2.848882973194122314e-01,4.475453868508338928e-02,9.584391117095947266e-02,1.230701617896556854e-02,-5.190040543675422668e-02,1.270692944526672363e-01,1.229448094964027405e-01,-6.791579723358154297e-02,-1.533588618040084839e-01,-6.523901224136352539e-01,8.662426471710205078e-02,-7.751765102148056030e-02,-1.366944015026092529e-01,-3.322713971138000488e-01,-1.005804017186164856e-01,1.743832081556320190e-01,2.522063553333282471e-01,-5.226197466254234314e-02,2.449710220098495483e-01,1.488089412450790405e-01,-5.360221117734909058e-02,1.002332717180252075e-01,2.590950429439544678e-01,-1.041283756494522095e-01,1.901613473892211914e-01,-1.189711876213550568e-02,2.161458581686019897e-01,-1.631236225366592407e-01,-5.359956622123718262e-02,-8.490745723247528076e-02,1.089674681425094604e-01,-1.039606556296348572e-01,1.137903481721878052e-01,-3.758883569389581680e-03,-1.466946750879287720e-01,-3.927760571241378784e-02,-1.950923800468444824e-01,-1.297309398651123047e-01,-1.061213314533233643e-01,-5.751536414027214050e-02,1.688114404678344727e-01,-3.831198811531066895e-02,3.196305930614471436e-01,-2.776808440685272217e-01,5.946014076471328735e-02,-4.882554709911346436e-02,-1.537406072020530701e-02,3.342847228050231934e-01,-1.946793496608734131e-01,7.174064218997955322e-02,1.915261447429656982e-01,-1.310024559497833252e-01,2.681605517864227295e-01,-6.537395715713500977e-02,2.040710449218750000e-01,-1.675309985876083374e-01,2.510670125484466553e-01,1.522451937198638916e-01,-1.503543257713317871e-01,-3.535028994083404541e-01,3.618985116481781006e-01,-6.110185384750366211e-02,-1.524066627025604248e-01,-5.552321672439575195e-01,1.716848164796829224e-01,-1.122705489397048950e-01,6.734126061201095581e-02,-1.299390196800231934e-01,3.095422871410846710e-02,7.192102074623107910e-02,1.422180831432342529e-01,5.706236511468887329e-02,2.395704239606857300e-01,9.101366624236106873e-03,-6.129373982548713684e-02,-6.173328310251235962e-02,-1.072036921977996826e-01,1.834849268198013306e-02,-5.732072144746780396e-02,-3.239235281944274902e-02,5.401320010423660278e-02,-5.466090887784957886e-02,1.607966125011444092e-01,1.423086822032928467e-01,1.383494734764099121e-01,-2.017870917916297913e-02,-1.358189135789871216e-01,1.262412071228027344e-01,-8.170726150274276733e-02,2.640570886433124542e-02,9.836146235466003418e-02,3.938633203506469727e-02,3.830986022949218750e-01,-4.647905007004737854e-02,1.699831523001194000e-02,-7.738923281431198120e-02,-1.508269011974334717e-01,7.833155989646911621e-02,-1.050982698798179626e-01,1.578403898747637868e-04,2.449420988559722900e-01,5.153288692235946655e-02,9.061854332685470581e-02,4.084873199462890625e-02,1.118671447038650513e-01,-6.684761494398117065e-02,-1.012133993208408356e-02,2.095462083816528320e-01,-1.069053858518600464e-01,-3.350584506988525391e-01,8.382972478866577148e-01,4.920076951384544373e-02,-1.393460035324096680e-01

Layer 2 Weights:
5.428203567862510681e-02,3.439348563551902771e-02,-6.823383271694183350e-02,-3.278444334864616394e-02,-3.820140659809112549e-02,1.237304210662841797e-01,4.608648642897605896e-02,-3.920363634824752808e-02,-7.000093907117843628e-02,-5.165878683328628540e-02,-3.574941679835319519e-02,-2.608338370919227600e-03,-5.076275020837783813e-02,-1.716021075844764709e-02,-1.443007960915565491e-02,-1.143480241298675537e-01,-3.920523822307586670e-02,-3.502601291984319687e-03,-5.540414527058601379e-02,2.754508331418037415e-02,3.488980606198310852e-02,-8.625568449497222900e-02,3.741869330406188965e-02,-1.961044035851955414e-02,-3.085986245423555374e-03,9.431079775094985962e-02,4.456755239516496658e-03,1.086924374103546143e-01,1.912313513457775116e-02,1.896554604172706604e-02,1.257664859294891357e-01,1.844803057610988617e-02,4.013949632644653320e-02,-1.157913357019424438e-01,1.250221729278564453e-01,1.686778068542480469e-01,-5.564492940902709961e-02,1.246050372719764709e-01,-1.127405539155006409e-01,2.406994998455047607e-01,5.276400968432426453e-02,2.153462618589401245e-01,1.155439168214797974e-01,1.682946681976318359e-01,1.020580083131790161e-01,-1.307697221636772156e-02,2.475938498973846436e-01,-2.277409890666604042e-03,9.774847328662872314e-02,-8.596979081630706787e-02,-9.253994375467300415e-02,-1.196258515119552612e-01,-2.111137956380844116e-01,-2.223732173442840576e-01,-1.291261985898017883e-02,-5.568891298025846481e-03,8.092735707759857178e-02,8.938542008399963379e-02,6.097618862986564636e-02,-3.049044311046600342e-01,7.492666691541671753e-02,9.753292798995971680e-02,-1.473773177713155746e-02,-1.009787768125534058e-01,1.025517936795949936e-02,-2.882881555706262589e-03,1.579270958900451660e-01,-7.852926850318908691e-03,9.193938225507736206e-02,1.067521795630455017e-01,-5.317744240164756775e-02,4.065516218543052673e-02,4.263363406062126160e-02,3.328931331634521484e-02,-3.269181400537490845e-02,8.602484315633773804e-02,-7.183618843555450439e-03,3.128885477781295776e-02,1.491472274065017700e-01,-4.427660629153251648e-02,-5.409937351942062378e-02,3.573607653379440308e-02,-4.233482107520103455e-02,-7.943977415561676025e-02,1.561698317527770996e-01,2.056342363357543945e-02,2.915407298132777214e-03,-9.414863586425781250e-02,5.986281484365463257e-02,3.100158274173736572e-02,-5.238316953182220459e-02,2.111809514462947845e-02,8.553363382816314697e-02,9.895797073841094971e-02,9.551667422056198120e-02,-5.152656510472297668e-02,-5.106813088059425354e-02,-3.939082846045494080e-02,5.297740176320075989e-02,2.106442116200923920e-02,-4.062885940074920654e-01,4.643408954143524170e-02,-3.280047699809074402e-02,-8.660774677991867065e-02,1.018267273902893066e-01,-9.676917456090450287e-03,8.113911747932434082e-02,-3.915497660636901855e-02,-2.859689891338348389e-01,-5.899356007575988770e-01,-7.644553482532501221e-02,2.453102320432662964e-01,5.862532556056976318e-02,-1.971277780830860138e-02,-8.551764488220214844e-02,-4.982046037912368774e-02,7.950061000883579254e-03,-6.064311787486076355e-02,-6.871996074914932251e-02,-1.911098957061767578e-01,-4.042953997850418091e-02,9.396433085203170776e-02,-1.512640565633773804e-01,4.799098148941993713e-02,-6.830502301454544067e-02,1.417405754327774048e-01,-4.901721701025962830e-02,-1.993318274617195129e-02,1.930375397205352783e-02,-2.684505879878997803e-01,-1.944278627634048462e-01,1.770491003990173340e-01,-1.160500198602676392e-01,-3.179340660572052002e-01,2.716301381587982178e-01,-6.827539298683404922e-03,5.025172233581542969e-02,-1.014943271875381470e-01,1.631492562592029572e-02,3.034508824348449707e-01,5.850488319993019104e-02,3.174834847450256348e-01,7.895906269550323486e-02,2.914001643657684326e-01,1.376302987337112427e-01,-2.581281773746013641e-02,-2.612817101180553436e-02,4.051213338971138000e-02,-9.093038737773895264e-02,-5.867430940270423889e-03,1.974579542875289917e-01,4.691169038414955139e-02,-1.740209013223648071e-01,-9.361397475004196167e-02,1.947445212863385677e-03,-4.637859016656875610e-02,8.265038579702377319e-02,-1.011323183774948120e-02,-2.251581996679306030e-01,-3.035129904747009277e-01,4.007828608155250549e-02,1.219235435128211975e-01,-1.299695670604705811e-01,-6.238026544451713562e-02,3.442675108090043068e-03,1.725941337645053864e-02,3.828866779804229736e-02,3.518756784615106881e-05,4.356917366385459900e-02,-6.329204887151718140e-02,8.091291785240173340e-02,-1.153342723846435547e-01,-7.205514609813690186e-02,-7.638227939605712891e-02,3.104911418631672859e-03,1.172500327229499817e-01,3.099766187369823456e-02,1.447450965642929077e-01,-2.346719615161418915e-02,-1.683759391307830811e-01,2.708392739295959473e-01,-2.186642587184906006e-02,-1.260942406952381134e-02,-7.446631789207458496e-02,9.270883351564407349e-02,-2.965016663074493408e-02,4.906319081783294678e-02,-2.194027453660964966e-01,-4.348529130220413208e-02,2.639562487602233887e-01,-6.681601703166961670e-02,1.550450325012207031e-01,-7.868257164955139160e-02,-2.215382270514965057e-02,7.749559730291366577e-02,-1.354266107082366943e-01,3.317265212535858154e-01,-7.920573651790618896e-02,1.494552101939916611e-02,2.032065764069557190e-02
-1.538784950971603394e-01,-8.381956815719604492e-02,-2.518294192850589752e-02,1.767329871654510498e-02,-4.067888110876083374e-02,-3.735382109880447388e-02,-4.460440576076507568e-02,1.469712425023317337e-02,-5.545505788177251816e-03,4.224546253681182861e-02,1.513470113277435303e-01,7.071273028850555420e-02,-3.717585280537605286e-02,1.244765445590019226e-01,2.186853624880313873e-02,-9.261626005172729492e-02,-2.022682130336761475e-02,1.040993258357048035e-01,-7.131822407245635986e-02,1.007585301995277405e-01,-2.795054577291011810e-02,-8.648015558719635010e-02,-1.830258220434188843e-02,-9.459091722965240479e-02,-6.744997575879096985e-03,6.514164805412292480e-02,-8.759916760027408600e-03,-5.204407498240470886e-02,1.208017021417617798e-01,-6.269492208957672119e-02,-1.183511912822723389e-01,1.141616106033325195e-01,8.617222309112548828e-02,-3.107546642422676086e-02,-2.565220929682254791e-02,-7.060222327709197998e-03,9.686295688152313232e-02,-2.704939432442188263e-02,-5.109584331512451172e-02,-7.583429664373397827e-02,4.766358807682991028e-02,6.370264291763305664e-02,-4.622004553675651550e-02,-1.215209905058145523e-02,2.185060083866119385e-02,5.802598223090171814e-02,5.669906362891197205e-02,-1.035305205732584000e-02,-6.602259725332260132e-02,-4.681748896837234497e-02,-2.453087456524372101e-02,-8.381819352507591248e-03,-1.073919758200645447e-01,6.801410764455795288e-02,-1.041960343718528748e-02,-6.610645353794097900e-02,1.116958819329738617e-02,-1.126878038048744202e-01,3.536668373271822929e-04,1.243803873658180237e-01,3.386508300900459290e-02,-1.644818633794784546e-01,5.619331076741218567e-02,8.390508592128753662e-02,7.856315933167934418e-03,-5.856288224458694458e-02,4.934276640415191650e-02,4.464334249496459961e-02,-3.167375549674034119e-02,8.389084786176681519e-02,2.891023270785808563e-02,-7.129859924316406250e-02,-3.450791537761688232e-02,-3.356569260358810425e-02,-4.728927090764045715e-02,5.773876979947090149e-02,-8.598517626523971558e-02,-1.552666164934635162e-02,-6.846170127391815186e-02,3.184096515178680420e-02,-8.152609691023826599e-03,4.308123514056205750e-02,-5.026933178305625916e-02,3.225313872098922729e-02,-3.252635151147842407e-02,1.130365952849388123e-02,2.797927334904670715e-02,1.251891404390335083e-01,4.205165058374404907e-02,1.700560003519058228e-02,3.992639854550361633e-02,1.083356793969869614e-03,-5.212320014834403992e-02,-1.058643907308578491e-01,-1.309574872720986605e-04,-7.089425809681415558e-03,1.042692959308624268e-01,6.228454411029815674e-02,3.420814871788024902e-02,9.224113076925277710e-03,7.436721585690975189e-03,5.045122653245925903e-02,-1.597254723310470581e-01,-1.317513640969991684e-02,6.902853399515151978e-02,-4.208892583847045898e-02,-2.775695547461509705e-02,8.388852328062057495e-02,1.892922073602676392e-01,-4.324215464293956757e-03,-3.677244484424591064e-02,1.033507138490676880e-01,1.217970699071884155e-01,-2.850168384611606598e-02,-8.763928711414337158e-02,-1.065139472484588623e-01,-3.842962533235549927e-02,8.836254477500915527e-02,1.363540440797805786e-01,-6.711937487125396729e-02,-3.317187726497650146e-02,-5.656974017620086670e-02,-5.250848457217216492e-02,1.802885159850120544e-02,8.316169679164886475e-02,4.586339369416236877e-02,3.627968952059745789e-02,-7.677238434553146362e-03,7.794517278671264648e-02,6.202967837452888489e-02,7.102165371179580688e-02,-6.970225274562835693e-02,4.743184149265289307e-02,3.505016118288040161e-02,-3.163569048047065735e-02,-7.371042389422655106e-03,1.875709369778633118e-02,-2.859039604663848877e-02,-4.053919017314910889e-02,-1.378503739833831787e-01,7.778998464345932007e-02,-2.309130504727363586e-02,2.133377641439437866e-02,-4.681028798222541809e-02,8.018709486350417137e-04,-6.448366492986679077e-02,-4.391864314675331116e-02,1.056864112615585327e-01,1.071880534291267395e-01,-5.275376141071319580e-02,1.373908482491970062e-02,1.100851744413375854e-01,1.028399690985679626e-01,1.481898408383131027e-02,-2.484157495200634003e-02,-2.786783687770366669e-02,1.977367885410785675e-02,8.780331909656524658e-02,3.515590354800224304e-02,-1.272554844617843628e-01,6.135409697890281677e-02,-3.617196902632713318e-02,1.417840644717216492e-02,4.781354591250419617e-02,5.378157645463943481e-02,-1.310452818870544434e-01,-1.520506478846073151e-02,2.181887030601501465e-01,-1.007706373929977417e-01,1.232892274856567383e-01,1.763178110122680664e-01,9.885253757238388062e-02,-3.771340847015380859e-02,2.635420300066471100e-02,-6.886607408523559570e-02,9.547044336795806885e-02,-1.021508593112230301e-02,5.693791806697845459e-02,1.809347653761506081e-03,1.022173762321472168e-01,-6.999401003122329712e-02,-7.716250419616699219e-02,-1.252030283212661743e-01,-7.137948274612426758e-02,-1.404974609613418579e-02,-5.009207502007484436e-02,3.293345496058464050e-02,-3.597487136721611023e-02,-9.764519520103931427e-03,-8.879911899566650391e-02,-4.746142774820327759e-02,1.495319884270429611e-02,1.147750616073608398e-01,-3.766382858157157898e-02,4.896085336804389954e-02,4.066329449415206909e-02,1.026018261909484863e-01,-1.955282315611839294e-02,-1.084392964839935303e-01,1.385101675987243652e-02
-2.691004192456603050e-03,-6.562206149101257324e-02,1.698859967291355133e-02,-5.401391908526420593e-02,-1.571780145168304443e-01,1.313407421112060547e-01,-5.063517764210700989e-02,2.083032950758934021e-02,-4.592283442616462708e-02,2.051330544054508209e-02,-5.206153541803359985e-02,8.776286616921424866e-03,3.304790705442428589e-02,1.050026863813400269e-01,-5.075949802994728088e-02,-6.452168524265289307e-02,9.254921972751617432e-02,-5.652041360735893250e-02,-1.707383990287780762e-02,-1.101073175668716431e-01,-5.039081443101167679e-03,-8.788301050662994385e-02,-8.006583899259567261e-02,-6.375104188919067383e-02,-2.507217228412628174e-02,4.390009492635726929e-02,6.689374800771474838e-03,5.267404392361640930e-02,8.757000416517257690e-02,9.504689276218414307e-02,2.449104189872741699e-01,-3.072225116193294525e-02,-9.293796122074127197e-02,2.952452050521969795e-03,-8.647188544273376465e-02,-6.372223794460296631e-02,-3.382225334644317627e-02,-4.402856156229972839e-02,5.771021544933319092e-02,-6.093529984354972839e-03,4.044027999043464661e-03,1.280479878187179565e-01,-8.878894895315170288e-02,4.799666255712509155e-02,2.025978267192840576e-02,8.738694339990615845e-02,1.305490434169769287e-01,1.217686682939529419e-01,1.155946105718612671e-01,1.016712039709091187e-01,-1.839553266763687134e-01,5.393275246024131775e-02,-1.786107122898101807e-01,-4.327933862805366516e-02,-2.873189374804496765e-02,2.053174674510955811e-01,-4.407709464430809021e-02,3.838795050978660583e-02,-1.133395433425903320e-01,2.595251798629760742e-02,4.041352868080139160e-02,1.560982409864664078e-02,-7.499814033508300781e-02,-6.679179146885871887e-03,-4.233106225728988647e-02,4.149223119020462036e-02,3.480226173996925354e-02,-9.664092212915420532e-02,1.765413209795951843e-02,-2.891040407121181488e-02,3.496064618229866028e-02,-8.999044448137283325e-02,-1.050678361207246780e-02,2.503026509657502174e-03,-1.268326789140701294e-01,1.288318424485623837e-03,-4.518667981028556824e-02,-1.500113010406494141e-01,-5.258323159068822861e-03,-2.624707110226154327e-02,-1.435412913560867310e-01,6.493709236383438110e-02,-7.931847125291824341e-02,-3.780531510710716248e-02,1.627227850258350372e-02,-4.287439584732055664e-02,-8.150852471590042114e-02,3.180044889450073242e-02,-6.144580617547035217e-02,5.449244007468223572e-02,-1.562999375164508820e-02,3.624290600419044495e-02,3.564656525850296021e-02,-5.651493556797504425e-03,5.892946943640708923e-02,1.580027788877487183e-01,-1.089586764574050903e-01,-2.049238048493862152e-02,-6.696513295173645020e-02,-1.379875838756561279e-01,7.618937641382217407e-02,-1.182020157575607300e-01,-9.639488160610198975e-02,-4.937780275940895081e-02,-1.416828483343124390e-02,1.544376136735081673e-03,-4.838284105062484741e-02,1.315534207969903946e-02,4.104293137788772583e-02,5.398372188210487366e-02,-5.337085947394371033e-02,-5.692443624138832092e-02,-9.610690176486968994e-02,-1.294383704662322998e-01,-1.834394186735153198e-01,2.629454061388969421e-02,4.395793750882148743e-02,-8.692049980163574219e-02,-1.181527003645896912e-01,-7.093164324760437012e-02,6.933841109275817871e-02,6.141637917608022690e-03,-8.384295552968978882e-02,-9.369967132806777954e-02,-1.894722925499081612e-03,-4.947517812252044678e-02,2.559942901134490967e-01,-8.057466149330139160e-02,4.707237705588340759e-02,3.178277611732482910e-02,1.078639477491378784e-01,-2.366799302399158478e-02,-6.792920082807540894e-02,1.135988160967826843e-01,5.970517173409461975e-02,4.072952643036842346e-02,-1.008261069655418396e-01,-1.214620424434542656e-03,-2.117233164608478546e-02,4.662402719259262085e-02,-2.287015132606029510e-02,-5.358840152621269226e-02,-4.962582886219024658e-02,1.228762269020080566e-01,-1.217331662774085999e-01,-3.799961879849433899e-02,9.660687297582626343e-02,-5.988867580890655518e-02,-5.519446730613708496e-02,-1.233749929815530777e-02,2.036273106932640076e-02,3.062620200216770172e-02,-8.935935795307159424e-02,-1.591509953141212463e-02,-3.006952628493309021e-02,8.750076591968536377e-02,-1.794684678316116333e-02,7.018184661865234375e-02,-6.109569966793060303e-02,5.061519891023635864e-02,1.166935041546821594e-01,-1.353443076368421316e-04,5.885700508952140808e-02,9.792195260524749756e-02,6.732783466577529907e-02,7.338817231357097626e-03,1.092328354716300964e-01,2.193810604512691498e-02,-2.340458892285823822e-02,-1.756713911890983582e-02,-1.425279397517442703e-02,-6.854671239852905273e-02,-8.604719489812850952e-02,-6.163988728076219559e-03,-1.841828785836696625e-02,-1.229096576571464539e-01,2.117637731134891510e-02,-1.121110916137695312e-01,3.685270994901657104e-02,1.287531405687332153e-01,1.397621631622314453e-01,-3.621068596839904785e-02,-9.757374413311481476e-03,3.844190388917922974e-03,4.614853486418724060e-02,4.527726769447326660e-02,6.774589419364929199e-02,-4.101091995835304260e-02,-1.803956627845764160e-01,6.947848014533519745e-03,-4.912222176790237427e-02,-3.975364565849304199e-02,2.408157475292682648e-02,1.902420222759246826e-01,1.246387790888547897e-02,6.963685154914855957e-05,1.984026879072189331e-01,2.025901228189468384e-01,1.664282009005546570e-02,5.343064665794372559e-02
2.276071347296237946e-02,-3.740936890244483948e-02,-1.071041449904441833e-01,-1.554698944091796875e-01,-8.882482349872589111e-02,-2.200426906347274780e-02,-9.495066851377487183e-02,-7.366635650396347046e-02,-1.825653463602066040e-01,-2.571170628070831299e-01,7.592689990997314453e-02,-4.387943446636199951e-02,-2.405339851975440979e-02,-1.303570717573165894e-01,1.319855730980634689e-02,-4.128310084342956543e-02,2.524258382618427277e-02,1.184980478137731552e-02,-2.668303251266479492e-02,5.388148128986358643e-02,5.040396749973297119e-02,-8.754247426986694336e-02,-8.789347112178802490e-02,-2.631532400846481323e-02,1.410084776580333710e-02,5.593895167112350464e-02,6.251879781484603882e-02,6.320683658123016357e-02,-6.517259031534194946e-02,5.435155332088470459e-02,-2.570257894694805145e-02,-7.676918059587478638e-02,8.123696595430374146e-02,-1.928447559475898743e-02,-5.842749774456024170e-02,-5.098138749599456787e-02,-1.493920236825942993e-01,-9.155503660440444946e-02,-7.280647754669189453e-02,3.511301428079605103e-02,-3.056447952985763550e-02,3.318233415484428406e-02,6.039957702159881592e-02,-1.002373844385147095e-01,-4.604083299636840820e-02,7.187215238809585571e-02,3.143204748630523682e-01,1.867515742778778076e-01,-1.787448488175868988e-02,7.914429157972335815e-02,-2.779574990272521973e-01,4.363860562443733215e-02,-3.364707231521606445e-01,-7.863730937242507935e-02,8.234854042530059814e-02,-1.156077906489372253e-01,-1.527495980262756348e-01,1.937379129230976105e-02,-5.651906132698059082e-02,-2.143397927284240723e-01,-5.306818708777427673e-02,-4.971948638558387756e-02,-9.916307777166366577e-02,-1.834169030189514160e-01,1.002017855644226074e-01,5.996475368738174438e-02,2.988742291927337646e-02,-1.127828657627105713e-02,-2.979540452361106873e-02,-1.623478233814239502e-01,9.763953834772109985e-02,-1.494007185101509094e-02,-3.479251405224204063e-03,-2.236273512244224548e-02,-3.380525857210159302e-02,6.487989425659179688e-02,1.149721592664718628e-01,-7.871849834918975830e-02,4.209700599312782288e-02,-1.415713969618082047e-02,-4.317148029804229736e-01,-1.162418201565742493e-01,-5.765947047621011734e-03,-1.488349400460720062e-03,1.071513593196868896e-01,-1.156511902809143066e-02,7.554563134908676147e-02,-7.463192194700241089e-02,-5.252917110919952393e-02,-1.433992874808609486e-03,7.385584525763988495e-03,-2.388298064470291138e-01,-4.943312704563140869e-02,-1.550239771604537964e-01,1.280409842729568481e-02,-1.717111654579639435e-02,2.417554855346679688e-01,-6.030389294028282166e-02,8.788669481873512268e-03,-2.999075315892696381e-02,-6.820329930633306503e-03,-6.484403461217880249e-02,-2.468189448118209839e-01,-1.043159738183021545e-01,-3.275841474533081055e-02,-1.809127479791641235e-01,-7.620423287153244019e-02,-1.092360541224479675e-02,-6.032835692167282104e-02,-1.752104461193084717e-01,1.097784265875816345e-01,-1.152137070894241333e-01,-6.083818525075912476e-02,-1.888057291507720947e-01,9.810612536966800690e-03,-4.468841012567281723e-03,-1.738782227039337158e-01,-1.301851272583007812e-01,-1.668107360601425171e-01,-1.429044008255004883e-01,4.173067212104797363e-02,-5.090842023491859436e-02,-8.199258893728256226e-02,1.001448407769203186e-01,-9.446655400097370148e-03,2.273850701749324799e-02,-7.162223011255264282e-02,-4.878349974751472473e-02,-8.776129037141799927e-02,-2.031266130506992340e-02,1.250931024551391602e-01,-4.187912680208683014e-03,-1.115179583430290222e-01,-6.084140390157699585e-02,-2.695620805025100708e-02,-6.736990809440612793e-02,2.856330573558807373e-02,-1.746581494808197021e-02,9.495713561773300171e-02,-2.025778591632843018e-01,-1.654397696256637573e-01,1.171513553708791733e-02,-5.346772447228431702e-02,3.951313719153404236e-02,-2.149381488561630249e-02,4.154332727193832397e-02,1.487837880849838257e-01,-1.168438000604510307e-03,1.617208421230316162e-01,-7.713921368122100830e-02,-1.169174611568450928e-01,-8.298026770353317261e-02,-2.411019653081893921e-01,-7.337372004985809326e-02,-1.143676787614822388e-01,-1.148902550339698792e-01,5.818880349397659302e-02,-2.640681713819503784e-02,-7.344095408916473389e-02,-2.296876907348632812e-01,-1.016550138592720032e-01,-1.958889514207839966e-01,-6.272610276937484741e-03,-4.521404206752777100e-02,-6.284076371230185032e-04,3.891156241297721863e-02,-1.801934838294982910e-01,-9.987356513738632202e-02,-1.482753902673721313e-01,-5.145661160349845886e-02,-9.926184266805648804e-02,4.469695687294006348e-02,1.054923757910728455e-01,-5.912426486611366272e-02,-5.986247956752777100e-02,2.486186474561691284e-02,5.833861231803894043e-02,-6.652404367923736572e-02,-5.646071955561637878e-02,4.759280011057853699e-02,8.628117293119430542e-02,-7.728961110115051270e-02,7.010439783334732056e-02,-1.231898181140422821e-02,-4.664491862058639526e-02,3.958585485816001892e-02,4.043816775083541870e-02,-5.830838158726692200e-02,-2.336188405752182007e-02,-9.792039543390274048e-02,-3.587638214230537415e-02,-5.626282095909118652e-02,4.014611616730690002e-02,-3.093956038355827332e-02,3.324773162603378296e-03,-7.352559827268123627e-03,3.041205704212188721e-01,5.512867867946624756e-02,-7.027874886989593506e-02,1.014807447791099548e-02
-3.977282345294952393e-02,1.178614795207977295e-02,-5.237515270709991455e-02,1.821700185537338257e-01,1.199080646038055420e-01,2.157891727983951569e-02,-6.364908069372177124e-02,-6.138389930129051208e-02,6.598258763551712036e-02,-3.564928844571113586e-02,1.108028590679168701e-01,1.267287135124206543e-01,-5.693767964839935303e-02,-3.660472109913825989e-02,1.484626065939664841e-02,-2.714436501264572144e-02,-9.799184277653694153e-03,-4.792651906609535217e-02,7.204368710517883301e-02,-8.955195546150207520e-02,-6.750415265560150146e-02,6.952354311943054199e-02,-7.152429968118667603e-02,-3.150393068790435791e-02,1.670031063258647919e-02,1.368949711322784424e-01,4.472123086452484131e-02,2.082124352455139160e-02,-8.195867761969566345e-03,-8.479887247085571289e-02,8.190644532442092896e-02,4.157099500298500061e-02,2.320819906890392303e-02,3.798290342092514038e-02,-1.007351204752922058e-01,6.606513261795043945e-02,-1.008453778922557831e-02,-1.344816237688064575e-01,6.374865770339965820e-02,-2.701204828917980194e-02,-4.706987738609313965e-02,3.240934014320373535e-02,-4.370369389653205872e-02,-1.237104684114456177e-01,2.926754765212535858e-02,-3.004558384418487549e-02,2.067254483699798584e-02,-7.190011441707611084e-03,-6.100223585963249207e-02,-6.080029532313346863e-02,5.076252296566963196e-02,-6.155751273036003113e-02,8.526130765676498413e-02,-6.958551704883575439e-02,-9.766294620931148529e-03,2.662573941051959991e-02,9.551508352160453796e-03,1.493708044290542603e-01,-8.157276548445224762e-03,-2.032506838440895081e-02,3.400650620460510254e-02,-2.072337083518505096e-03,2.187996171414852142e-02,1.211568936705589294e-01,-9.483040869235992432e-02,3.928796388208866119e-03,-6.095374934375286102e-03,2.541371155530214310e-03,-6.462889164686203003e-02,-1.708008721470832825e-02,2.181330695748329163e-02,1.056186333298683167e-01,1.392037868499755859e-01,1.096583902835845947e-01,-2.651836350560188293e-02,-1.293570734560489655e-02,8.912891149520874023e-02,-2.135787904262542725e-02,-6.238876283168792725e-02,-3.412918886169791222e-03,-3.995090350508689880e-02,5.000087246298789978e-02,7.740116864442825317e-02,-5.790644139051437378e-02,-1.010009422898292542e-01,-9.480622410774230957e-02,3.706272691488265991e-02,-4.101007431745529175e-02,1.579534448683261871e-02,-1.046012267470359802e-01,-8.948321640491485596e-02,-9.342660754919052124e-02,3.317188099026679993e-02,1.173150260001420975e-02,-4.411859810352325439e-02,8.523891866207122803e-02,-3.431300818920135498e-02,2.166493423283100128e-02,-1.588834449648857117e-02,2.030956745147705078e-02,-8.446790277957916260e-02,1.291014254093170166e-01,-4.493839666247367859e-02,8.674251288175582886e-02,7.966230064630508423e-02,7.280849665403366089e-02,-8.380809426307678223e-02,8.385626226663589478e-02,3.069086186587810516e-02,1.104176416993141174e-02,-1.053740233182907104e-01,-8.076147176325321198e-03,5.563696473836898804e-02,-2.057117596268653870e-02,-4.265211150050163269e-02,-1.467092931270599365e-01,2.306063659489154816e-02,1.828404143452644348e-02,1.076037585735321045e-01,-7.857792079448699951e-02,2.404068596661090851e-03,-7.718703150749206543e-02,-5.254651233553886414e-02,2.402118965983390808e-02,-3.066580928862094879e-02,-3.696947917342185974e-02,-9.355474263429641724e-03,5.944865569472312927e-02,7.737195584923028946e-03,-5.863123014569282532e-02,1.192254722118377686e-01,-7.516263425350189209e-02,2.772354520857334137e-02,-7.972230017185211182e-02,5.715690925717353821e-02,-5.453143641352653503e-02,9.783142805099487305e-02,2.905807085335254669e-02,-9.098460525274276733e-02,-1.928715556859970093e-01,-5.732386559247970581e-02,-5.038066953420639038e-02,6.142545863986015320e-02,2.436189353466033936e-02,-3.105540014803409576e-02,2.235000580549240112e-02,5.395145714282989502e-02,3.296243026852607727e-02,-8.702847361564636230e-02,-5.879503488540649414e-02,1.354842167347669601e-02,5.637667141854763031e-03,-1.704694330692291260e-01,1.318991780281066895e-01,1.331025660037994385e-01,5.623412877321243286e-02,-7.744130492210388184e-02,-3.385929390788078308e-02,-8.237548917531967163e-02,6.486938148736953735e-02,-1.130874678492546082e-01,1.259922087192535400e-01,1.778761111199855804e-02,-6.753890216350555420e-02,-2.902106568217277527e-02,5.272193811833858490e-03,2.860877849161624908e-02,-8.327343314886093140e-02,-2.930122241377830505e-02,-1.140416637063026428e-01,-2.550264820456504822e-02,-8.946258574724197388e-03,-1.081935688853263855e-02,-1.882899738848209381e-02,-2.497864514589309692e-02,-8.968057483434677124e-02,1.560535132884979248e-01,-1.638706773519515991e-01,5.346500128507614136e-02,2.058172412216663361e-02,5.518280901014804840e-03,9.794636070728302002e-02,3.524009510874748230e-02,-1.595241203904151917e-02,1.380753982812166214e-02,5.198440700769424438e-02,4.218683764338493347e-02,-6.285998225212097168e-02,-5.386780202388763428e-02,-8.866983652114868164e-02,-4.476708173751831055e-02,7.536271214485168457e-02,-2.703884057700634003e-02,8.251441270112991333e-02,1.686398833990097046e-01,7.076473534107208252e-02,-2.523270808160305023e-02,-2.507547102868556976e-02,-1.863884390331804752e-03,1.255936771631240845e-01
8.799874782562255859e-02,-6.076771393418312073e-02,-2.777119874954223633e-01,-1.062900796532630920e-01,-4.138062358833849430e-04,-7.359744608402252197e-02,-1.092408671975135803e-01,-1.413993653841316700e-03,-7.167603075504302979e-02,8.232587575912475586e-02,-4.377805814146995544e-02,-6.412560492753982544e-02,2.522146678529679775e-04,3.825919330120086670e-02,-9.275466948747634888e-02,-1.864698715507984161e-02,-1.505482569336891174e-02,3.190400451421737671e-02,4.913929849863052368e-02,2.532079815864562988e-02,8.483669161796569824e-02,7.616190612316131592e-02,-9.362661838531494141e-02,-1.290151625871658325e-01,2.030952274799346924e-02,-1.299726776778697968e-03,7.004261016845703125e-03,1.427494734525680542e-01,-8.663608878850936890e-02,2.070320546627044678e-01,1.750256419181823730e-01,-8.774984627962112427e-02,2.339205704629421234e-02,1.442652754485607147e-02,7.931268960237503052e-02,-9.495601803064346313e-02,4.377323389053344727e-02,-2.227133512496948242e-02,1.018067239783704281e-03,-5.636179074645042419e-02,1.106701716780662537e-01,3.867602348327636719e-02,-7.026114035397768021e-03,2.414527116343379021e-03,-8.517085760831832886e-02,9.717494249343872070e-02,2.692071795463562012e-01,1.682163476943969727e-01,7.814027369022369385e-02,-4.107495769858360291e-02,-2.629017531871795654e-01,-2.796977944672107697e-02,-1.175423413515090942e-01,-8.070586621761322021e-02,1.277916412800550461e-02,-1.815895587205886841e-01,-1.910326927900314331e-01,-1.259469836950302124e-01,-9.496257454156875610e-02,-1.594596207141876221e-01,2.780267782509326935e-02,-1.762824058532714844e-01,-4.363318905234336853e-02,-9.061355143785476685e-02,3.494837880134582520e-02,-3.941904008388519287e-02,3.810274600982666016e-02,8.227159827947616577e-02,1.036818102002143860e-01,-6.163508445024490356e-02,1.532126367092132568e-01,2.709718979895114899e-02,7.942700386047363281e-02,-4.492691718041896820e-03,-1.022539958357810974e-01,5.332250148057937622e-02,-7.470637559890747070e-02,-1.341722458600997925e-01,-9.018713235855102539e-02,-1.799026876688003540e-01,-4.232429563999176025e-01,-1.017016470432281494e-01,1.774556189775466919e-02,-1.990077197551727295e-01,4.017197713255882263e-02,-1.070267930626869202e-01,6.455615162849426270e-02,-1.167022511363029480e-01,-3.063755482435226440e-02,-9.321977943181991577e-02,-1.824865341186523438e-01,-2.683405578136444092e-01,3.532830253243446350e-02,-9.873582981526851654e-03,-1.309308707714080811e-01,-2.414420545101165771e-01,-8.818644098937511444e-03,-1.086292937397956848e-01,6.172571796923875809e-03,-2.047467418015003204e-02,-2.497886493802070618e-02,-1.376676652580499649e-02,3.858261182904243469e-02,-9.183918684720993042e-02,4.806265351362526417e-04,-3.236818015575408936e-01,-1.120415627956390381e-01,2.745895460247993469e-02,-4.139943048357963562e-02,-1.019218936562538147e-01,-2.624069806188344955e-03,-3.947798162698745728e-02,-4.285073839128017426e-03,-2.048279345035552979e-01,-9.502688050270080566e-02,-7.678434997797012329e-02,-2.122386358678340912e-03,-2.624460496008396149e-02,4.296241328120231628e-03,2.745052240788936615e-02,-1.809187792241573334e-02,1.574669592082500458e-02,9.445847244933247566e-04,-2.517356537282466888e-02,8.315954357385635376e-02,4.348681867122650146e-02,7.598382979631423950e-02,1.028575226664543152e-01,-3.672374784946441650e-02,5.599650740623474121e-02,7.802070677280426025e-02,-1.140596643090248108e-01,-9.919319301843643188e-02,1.317732501775026321e-02,-6.026138737797737122e-02,-1.288360059261322021e-01,-1.309578716754913330e-01,-6.176711618900299072e-02,4.058010876178741455e-02,3.352436423301696777e-02,1.166775375604629517e-01,-8.545622974634170532e-02,-5.112437531352043152e-03,-3.232419490814208984e-02,-2.943991124629974365e-02,4.498989135026931763e-02,1.448426693677902222e-01,-4.823330789804458618e-02,6.998642813414335251e-03,1.190415769815444946e-02,6.766688078641891479e-02,-3.181160241365432739e-02,-1.516168713569641113e-01,-1.266542226076126099e-01,1.999126002192497253e-02,-8.240416646003723145e-02,-1.236587762832641602e-01,-1.022698506712913513e-01,2.333483658730983734e-02,4.916126281023025513e-02,-4.512990266084671021e-02,-5.061092227697372437e-02,-8.061715215444564819e-02,-2.284747548401355743e-02,-1.559834182262420654e-01,1.628396660089492798e-01,1.478782296180725098e-01,6.077524274587631226e-02,-1.151022017002105713e-01,2.092550136148929596e-02,-2.047525905072689056e-02,7.422131299972534180e-02,-3.209622949361801147e-02,1.667473614215850830e-01,1.042105630040168762e-01,3.383446112275123596e-02,3.407857194542884827e-02,1.034682802855968475e-02,1.217800937592983246e-02,8.450218476355075836e-03,1.862131208181381226e-01,-8.805882930755615234e-02,5.132051929831504822e-02,-6.541536003351211548e-02,2.590666711330413818e-02,-3.601945703849196434e-03,-1.358600985258817673e-02,6.355893611907958984e-02,3.454001247882843018e-02,-1.460755243897438049e-02,-6.394740194082260132e-02,1.264326274394989014e-01,-2.704362757503986359e-02,7.706893980503082275e-02,-2.451085858047008514e-02,1.883657462894916534e-02,3.343646228313446045e-01,1.211406067013740540e-01,-4.217340424656867981e-02,2.548466250300407410e-02
2.421057671308517456e-01,8.511843532323837280e-02,-8.021416515111923218e-02,1.167830452322959900e-01,-5.181055888533592224e-02,-5.461820587515830994e-02,-3.940717503428459167e-02,8.249871432781219482e-02,3.381960839033126831e-02,1.811616271734237671e-01,4.152255505323410034e-02,-7.066193222999572754e-02,4.963662847876548767e-02,7.685836404561996460e-02,-6.709808111190795898e-02,-5.530373379588127136e-02,-9.851424396038055420e-02,-8.837957680225372314e-02,-6.391036510467529297e-02,-3.842239826917648315e-02,3.063003532588481903e-02,-7.614529132843017578e-02,1.349482238292694092e-01,7.726477086544036865e-02,-5.345431715250015259e-02,6.108558550477027893e-02,-6.384646892547607422e-02,7.548964023590087891e-02,1.560300886631011963e-01,5.280919745564460754e-02,1.997927874326705933e-01,4.108380526304244995e-02,5.260537564754486084e-02,-1.488163173198699951e-01,-3.096004715189337730e-03,8.807450532913208008e-03,6.994030624628067017e-02,3.918731585144996643e-02,-1.605776511132717133e-02,-1.178062893450260162e-02,-7.172851264476776123e-02,-8.348459005355834961e-02,-4.562947899103164673e-02,-3.285747393965721130e-02,-1.566974520683288574e-01,1.341050416231155396e-01,3.134850561618804932e-01,1.500781029462814331e-01,4.150276631116867065e-02,6.295017153024673462e-02,5.587040446698665619e-03,3.701555728912353516e-02,5.082255601882934570e-02,7.939079403877258301e-02,-2.598841488361358643e-02,-1.323380321264266968e-01,-1.548743993043899536e-01,-3.647509589791297913e-02,-9.339329786598682404e-03,1.563469618558883667e-01,-3.952782973647117615e-02,-4.651403054594993591e-02,-1.839441061019897461e-02,4.153826832771301270e-02,-1.556505262851715088e-02,-1.451300829648971558e-01,1.658242642879486084e-01,2.173694036900997162e-02,-1.907470636069774628e-02,-1.473918557167053223e-01,-6.477651000022888184e-02,-7.814932614564895630e-03,4.408994317054748535e-02,-1.556129660457372665e-02,-3.564562648534774780e-02,-6.567799299955368042e-02,3.355747833847999573e-02,-8.676902204751968384e-02,-1.172687858343124390e-01,4.533027485013008118e-02,-7.694832980632781982e-02,-2.203211747109889984e-02,-1.247729212045669556e-01,-3.509149327874183655e-02,-1.696284674108028412e-02,-7.987796515226364136e-02,1.390310376882553101e-02,-1.346110552549362183e-01,5.733070522546768188e-02,-8.049580454826354980e-02,6.847458332777023315e-02,-6.176624447107315063e-02,1.457815021276473999e-01,-1.364256441593170166e-02,4.381851479411125183e-02,1.023286581039428711e-02,9.867982566356658936e-02,-6.330399960279464722e-02,5.014489218592643738e-02,7.109132409095764160e-02,3.292790055274963379e-02,-7.818941026926040649e-02,-5.508066341280937195e-02,-5.719928443431854248e-02,-7.575031369924545288e-02,-4.912295192480087280e-02,-1.532655060291290283e-01,1.813051551580429077e-01,-4.321954771876335144e-02,-3.553637862205505371e-02,9.642216376960277557e-03,-5.009650439023971558e-02,-5.348528921604156494e-02,-8.165711909532546997e-02,-1.038241013884544373e-02,-2.878086408600211143e-03,1.447891257703304291e-02,-8.514717966318130493e-02,-7.611804455518722534e-02,1.151833310723304749e-02,8.121202699840068817e-04,2.895120717585086823e-02,-1.340504884719848633e-01,2.621388435363769531e-02,3.135861828923225403e-02,1.352969408035278320e-01,2.898919954895973206e-02,-1.175618916749954224e-01,-1.410895735025405884e-01,-9.916209429502487183e-02,1.564907878637313843e-01,-1.083622053265571594e-01,-1.130850464105606079e-01,5.082922056317329407e-02,-1.818301528692245483e-02,8.408063650131225586e-02,-8.957181870937347412e-02,-3.057363792322576046e-04,3.504115715622901917e-02,-7.679248601198196411e-02,1.925426768139004707e-03,-1.106581091880798340e-01,-9.035332128405570984e-03,-4.481334984302520752e-02,-5.538431927561759949e-02,-2.525492198765277863e-02,-3.328149393200874329e-02,-3.168910369277000427e-02,9.020227007567882538e-03,5.173064023256301880e-02,1.558354198932647705e-01,-3.235229104757308960e-02,-5.729274824261665344e-02,8.190593868494033813e-02,-1.057469397783279419e-01,-4.791377857327461243e-02,-9.088544547557830811e-02,-4.457717388868331909e-02,-1.093020811676979065e-01,1.310496032238006592e-01,6.464578956365585327e-02,-1.374746579676866531e-02,-6.555681675672531128e-02,-9.904388338327407837e-02,2.747799456119537354e-02,-8.994711935520172119e-02,-1.087091043591499329e-01,-8.649034798145294189e-02,-2.993839606642723083e-02,2.872240962460637093e-03,7.128088176250457764e-02,-7.241256535053253174e-02,-7.956437766551971436e-02,-2.467941120266914368e-02,5.949238687753677368e-02,-1.041492223739624023e-01,1.217163801193237305e-01,-9.774406999349594116e-02,3.519237414002418518e-02,-6.700024753808975220e-02,5.217771977186203003e-03,-8.268471062183380127e-02,-4.319213330745697021e-03,1.292012445628643036e-02,1.294846087694168091e-01,-1.568948477506637573e-02,-5.591863021254539490e-02,5.322323413565754890e-04,-2.101901918649673462e-02,-1.728609018027782440e-02,-1.071751862764358521e-02,7.128162682056427002e-02,-2.717994898557662964e-02,-1.249795481562614441e-01,-8.420336060225963593e-03,4.546888172626495361e-03,1.708886027336120605e-01,1.309894472360610962e-01,-5.389741808176040649e-02,-1.694306880235671997e-01
-6.678638048470020294e-03,5.336973071098327637e-02,6.538102030754089355e-02,7.651967555284500122e-02,9.273075312376022339e-02,-4.886372014880180359e-02,7.092854380607604980e-02,-1.738659664988517761e-02,4.734446480870246887e-02,-4.209144413471221924e-02,9.471396915614604950e-03,-3.525394573807716370e-02,4.278728365898132324e-02,-1.809229142963886261e-02,-5.362491309642791748e-02,-5.144376307725906372e-02,-1.106057614088058472e-01,-3.670458123087882996e-02,-4.047613590955734253e-02,-9.085406363010406494e-02,-4.078664816915988922e-03,3.143886849284172058e-02,4.517295211553573608e-02,4.715594649314880371e-02,1.061773896217346191e-01,8.478545583784580231e-03,5.647613853216171265e-02,8.110971190035343170e-03,-2.240130305290222168e-02,1.771836876869201660e-01,-4.241717979311943054e-02,7.832640781998634338e-03,-8.011063188314437866e-02,5.587017908692359924e-02,-1.599111706018447876e-01,8.658435195684432983e-02,-1.066531762480735779e-01,-1.006070747971534729e-01,1.771682128310203552e-02,8.689962327480316162e-02,-3.054551780223846436e-03,1.656909286975860596e-01,-6.691935658454895020e-02,-4.148558713495731354e-03,1.559121906757354736e-02,-3.223704919219017029e-02,-3.786430507898330688e-02,5.047265440225601196e-02,-6.023084372282028198e-02,9.302126616239547729e-02,-1.103410348296165466e-01,4.665302485227584839e-02,-3.118864633142948151e-02,-1.512599922716617584e-02,2.757394127547740936e-02,-1.222699284553527832e-01,-5.650863796472549438e-02,-1.140326038002967834e-01,3.109418600797653198e-02,6.613912433385848999e-02,9.781805425882339478e-02,2.209812216460704803e-02,5.442081391811370850e-02,-2.466446720063686371e-02,2.960022911429405212e-02,-1.517046689987182617e-01,-6.205797195434570312e-02,3.861143812537193298e-02,1.665401086211204529e-02,-1.972560957074165344e-02,-1.421313732862472534e-02,5.626742169260978699e-02,-8.603116869926452637e-02,-7.798587530851364136e-02,1.135619357228279114e-01,4.872353747487068176e-02,1.928569972515106201e-01,-7.728080451488494873e-02,-4.669811110943555832e-03,9.499944746494293213e-02,-2.952861227095127106e-02,-2.478933520615100861e-02,-8.514906279742717743e-03,1.163093298673629761e-01,9.185584634542465210e-02,-2.323149889707565308e-02,-4.076752066612243652e-02,-4.344728961586952209e-02,1.261942833662033081e-02,1.389810591936111450e-01,-5.014342069625854492e-02,-5.477950721979141235e-02,4.376519471406936646e-03,-6.267501413822174072e-02,4.341416805982589722e-02,-5.645469948649406433e-02,2.580986730754375458e-02,1.187711134552955627e-01,1.460896432399749756e-01,-4.819270595908164978e-02,3.948828205466270447e-02,-6.002863124012947083e-02,1.659761555492877960e-02,-9.815804660320281982e-02,-1.052051112055778503e-01,-5.347779393196105957e-02,3.420080989599227905e-02,-5.907291546463966370e-02,-3.993697091937065125e-02,6.297320127487182617e-02,-1.283415853977203369e-01,3.382472693920135498e-02,-1.991730555891990662e-02,1.868117973208427429e-02,3.250361606478691101e-02,-7.960461080074310303e-02,-3.033011406660079956e-02,-2.054811269044876099e-02,-1.285149902105331421e-02,1.326479315757751465e-01,-4.685787484049797058e-02,-1.050339490175247192e-01,2.710700407624244690e-02,-5.132346972823143005e-02,1.483014971017837524e-01,-1.068095788359642029e-01,1.115294098854064941e-01,3.153167665004730225e-02,1.086026281118392944e-01,2.087207697331905365e-02,9.655931033194065094e-03,1.498890109360218048e-02,1.160080451518297195e-02,5.965700000524520874e-02,1.171501446515321732e-02,1.106063053011894226e-01,1.977697312831878662e-01,-1.379988994449377060e-02,-6.084360182285308838e-03,3.103199787437915802e-02,7.518015801906585693e-02,-3.474173322319984436e-02,5.632061883807182312e-02,-1.163486093282699585e-01,-3.207457065582275391e-02,1.096010953187942505e-01,-3.202141821384429932e-02,-3.475639224052429199e-02,-2.869468927383422852e-02,1.594188958406448364e-01,1.438597589731216431e-02,1.395921409130096436e-01,2.054863795638084412e-02,-2.023486979305744171e-02,-7.557836174964904785e-02,2.349061518907546997e-02,-8.388715237379074097e-02,9.915281087160110474e-03,-1.329953968524932861e-01,-2.484323456883430481e-02,4.102050140500068665e-02,4.370476678013801575e-02,-8.190271258354187012e-02,-2.239620126783847809e-02,-9.157516062259674072e-02,9.648855775594711304e-03,-5.125160515308380127e-02,1.049800589680671692e-02,-3.906825929880142212e-02,6.089754775166511536e-02,-5.453541874885559082e-02,5.436570197343826294e-02,1.142890192568302155e-03,-5.964789539575576782e-02,-2.438726276159286499e-02,-4.021251946687698364e-02,4.055402055382728577e-02,7.721236348152160645e-02,8.055798709392547607e-02,7.213335484266281128e-02,-3.863997384905815125e-02,5.101633816957473755e-02,2.455703727900981903e-02,4.891103506088256836e-02,6.243037804961204529e-02,8.803403936326503754e-03,1.180726364254951477e-01,3.372886683791875839e-03,-1.022809930145740509e-02,2.709777094423770905e-02,-1.416457593441009521e-01,1.272828727960586548e-01,-4.667958989739418030e-02,6.506173312664031982e-02,-4.088809341192245483e-02,7.778505235910415649e-02,-6.053932383656501770e-02,-4.541357979178428650e-02,4.788019880652427673e-02,5.623609200119972229e-02
1.409353688359260559e-02,5.658070743083953857e-02,-1.224532444030046463e-02,-3.578153625130653381e-02,5.201192200183868408e-02,-1.825076341629028320e-01,-4.525557905435562134e-02,5.346230417490005493e-02,5.225263908505439758e-02,-3.752672672271728516e-02,-3.362367628142237663e-03,-4.144776239991188049e-02,-1.324118971824645996e-01,3.867223113775253296e-02,3.877758979797363281e-02,-8.709149807691574097e-02,6.186927203088998795e-03,-5.245976615697145462e-03,-1.110685020685195923e-01,2.073633670806884766e-02,-5.513625964522361755e-02,8.446295559406280518e-02,-5.920422077178955078e-02,5.495872348546981812e-02,8.991999551653862000e-03,8.771705627441406250e-02,2.113299444317817688e-02,8.586886525154113770e-02,-1.119126006960868835e-02,2.984491176903247833e-02,9.199057705700397491e-03,-1.354688555002212524e-01,-3.844015765935182571e-03,-1.027158228680491447e-03,4.751844704151153564e-02,2.668433636426925659e-02,-7.023691385984420776e-02,-7.826234214007854462e-03,-1.453479081392288208e-01,1.190356537699699402e-01,5.206868052482604980e-02,-2.133926935493946075e-02,3.329317644238471985e-02,-3.419598937034606934e-02,-7.263608276844024658e-02,7.034075260162353516e-02,1.584064215421676636e-01,1.468516290187835693e-01,-4.200251027941703796e-02,-6.575284153223037720e-02,-1.098901629447937012e-01,-2.145915292203426361e-02,1.156452391296625137e-02,7.918877899646759033e-02,-6.597089022397994995e-02,-7.870927453041076660e-03,-1.221723780035972595e-01,-5.018739495426416397e-03,-1.766629070043563843e-01,-1.757678762078285217e-02,3.503191098570823669e-02,-1.173935979604721069e-01,-7.045118603855371475e-03,-1.069860830903053284e-01,4.328473657369613647e-02,-3.154178149998188019e-03,-4.431180655956268311e-02,-3.532806038856506348e-02,-7.153926789760589600e-02,4.872133582830429077e-02,-3.277257829904556274e-02,-1.206495892256498337e-02,-5.352666974067687988e-02,-5.605908855795860291e-02,1.045981496572494507e-01,-7.031083106994628906e-02,-5.251539498567581177e-02,-3.609010577201843262e-02,-3.788225352764129639e-02,4.768188670277595520e-02,-7.085456699132919312e-02,6.937474012374877930e-02,1.562909781932830811e-02,-6.749861687421798706e-02,7.824452966451644897e-02,-8.092795312404632568e-02,-2.912468276917934418e-02,-4.004944488406181335e-02,-2.143267728388309479e-02,-1.919399760663509369e-02,-1.731103360652923584e-01,-2.720361202955245972e-02,-5.091799423098564148e-02,1.772462278604507446e-01,-7.369501143693923950e-02,-1.097011342644691467e-01,-2.308880910277366638e-02,-2.254074960947036743e-01,-7.585263997316360474e-02,-6.389599293470382690e-02,9.042470157146453857e-02,-1.396657526493072510e-01,-6.784648448228836060e-02,-4.283951222896575928e-02,2.822200395166873932e-02,4.473725333809852600e-02,4.628594964742660522e-02,-1.113450154662132263e-02,-1.924699246883392334e-01,-1.276617646217346191e-01,-4.227877035737037659e-02,-3.231319412589073181e-02,1.131294444203376770e-01,-9.464722126722335815e-02,1.606003046035766602e-01,-1.167076826095581055e-01,-1.468198746442794800e-01,4.912982694804668427e-03,3.279113769531250000e-02,-1.355898529291152954e-01,-9.067172557115554810e-02,-5.877792462706565857e-02,-3.227782249450683594e-02,3.373143821954727173e-02,8.463488519191741943e-02,-2.804605662822723389e-02,-6.422755122184753418e-02,-1.856659948825836182e-01,-2.956769242882728577e-02,-1.052082926034927368e-01,9.163524210453033447e-02,4.586772248148918152e-02,8.752872049808502197e-02,-4.240895505063235760e-04,6.368695199489593506e-02,-3.344218432903289795e-02,-1.130634024739265442e-01,-3.938361629843711853e-02,5.153640359640121460e-02,-6.680795550346374512e-02,-1.261502206325531006e-01,2.044821903109550476e-02,-5.447351932525634766e-02,1.210943907499313354e-01,-7.762384414672851562e-02,-9.725225716829299927e-02,1.644478887319564819e-01,-4.064531624317169189e-02,-5.789281427860260010e-02,-2.706988528370857239e-02,1.023205667734146118e-01,2.668513171374797821e-02,-1.539229303598403931e-01,6.765247136354446411e-02,-1.305186599493026733e-01,-3.923368826508522034e-02,-9.624418616294860840e-02,-4.991536960005760193e-02,-8.443151600658893585e-03,6.669463124126195908e-03,8.446471393108367920e-02,-7.372708618640899658e-02,-4.069287702441215515e-02,-4.891938716173171997e-02,3.619423508644104004e-02,6.488191429525613785e-03,3.141173720359802246e-02,3.418699651956558228e-02,5.518317967653274536e-02,-1.464572101831436157e-01,-4.385277256369590759e-02,-9.558833390474319458e-02,5.919848382472991943e-02,-7.896006852388381958e-02,-1.124681904911994934e-03,1.962105371057987213e-02,-4.448883235454559326e-02,3.247952088713645935e-02,3.471494466066360474e-02,8.860001713037490845e-02,4.916530847549438477e-02,-9.815336018800735474e-02,-1.046526432037353516e-01,-3.345453366637229919e-02,-1.779936254024505615e-02,-1.310240384191274643e-02,5.032650008797645569e-02,-1.458181906491518021e-02,-6.976640224456787109e-02,8.202498406171798706e-02,8.215423673391342163e-02,3.832736611366271973e-02,3.522684797644615173e-02,1.034166216850280762e-01,-1.111361477524042130e-02,5.926688387989997864e-02,1.500663608312606812e-01,1.522056162357330322e-01,-2.042536735534667969e-01,8.604693412780761719e-02
-1.215595528483390808e-01,7.234788686037063599e-02,-1.738608777523040771e-01,-2.168688178062438965e-01,4.020551592111587524e-02,-8.516326546669006348e-02,-6.950419396162033081e-02,-7.241211831569671631e-02,-4.866579547524452209e-02,-9.090521931648254395e-02,-5.849177390336990356e-02,-8.245036005973815918e-02,-1.167288199067115784e-01,-1.608620434999465942e-01,3.585994942113757133e-03,1.219476293772459030e-02,-7.530791312456130981e-02,2.234464278444647789e-03,1.710010319948196411e-02,-4.455878213047981262e-02,-4.778527095913887024e-02,-5.358157679438591003e-02,-1.006756648421287537e-01,-5.299550015479326248e-03,2.072006836533546448e-02,-5.236181989312171936e-02,-5.392284691333770752e-02,1.073600500822067261e-01,1.257858276367187500e-01,5.522401630878448486e-02,-2.050400897860527039e-02,1.937451586127281189e-02,-1.237548422068357468e-02,-5.317280814051628113e-02,4.626803845167160034e-02,-1.863060146570205688e-02,1.626615785062313080e-02,-1.523699909448623657e-01,-9.914726763963699341e-02,-2.015493065118789673e-01,5.713303014636039734e-02,-8.079896867275238037e-02,7.513719052076339722e-02,-1.140997651964426041e-02,-1.253962144255638123e-02,-5.413072928786277771e-02,3.360674977302551270e-01,3.336460292339324951e-01,-1.021545939147472382e-02,6.744188815355300903e-02,-3.346773386001586914e-01,9.406381845474243164e-02,-2.268497645854949951e-01,-1.924463063478469849e-01,1.038816422224044800e-01,-6.741543114185333252e-02,-1.999605596065521240e-01,-2.142744051525369287e-04,-1.660158038139343262e-01,-1.054590195417404175e-01,8.810054510831832886e-02,-6.001767143607139587e-02,4.247826710343360901e-02,-9.164755046367645264e-02,-2.628223411738872528e-02,4.338011145591735840e-02,6.388130784034729004e-02,-8.698859065771102905e-02,-3.501130267977714539e-02,-9.254711866378784180e-02,-1.216943934559822083e-01,-4.920773953199386597e-02,1.385747641324996948e-01,1.148434728384017944e-01,9.921527653932571411e-02,4.222086071968078613e-02,3.871397674083709717e-02,-1.718324124813079834e-01,1.442250907421112061e-01,1.058448478579521179e-01,-3.934996128082275391e-01,-1.946923285722732544e-01,-7.881826162338256836e-02,-6.922350823879241943e-02,7.142238784581422806e-03,-7.719064503908157349e-02,-4.980514571070671082e-02,-1.451024711132049561e-01,5.867097526788711548e-03,2.112749405205249786e-02,-2.374316751956939697e-02,-1.595303118228912354e-01,1.758075132966041565e-02,-9.817191213369369507e-02,-2.933982908725738525e-01,2.401589043438434601e-02,2.429404295980930328e-02,-1.901632174849510193e-02,-6.025742366909980774e-02,-8.594082295894622803e-02,5.012581124901771545e-02,1.366662140935659409e-02,-1.109462976455688477e-01,-1.610120683908462524e-01,5.599277839064598083e-02,-2.412896752357482910e-01,-2.375780344009399414e-01,1.097869779914617538e-02,-3.482021624222397804e-03,-3.055355846881866455e-01,9.489142335951328278e-03,-1.427028235048055649e-02,5.483377724885940552e-02,-1.329281032085418701e-01,8.041843771934509277e-02,2.665666304528713226e-02,-6.383407115936279297e-02,-1.656273156404495239e-01,-4.390415921807289124e-02,-1.753642596304416656e-02,4.916446283459663391e-02,2.552430145442485809e-02,9.464970231056213379e-02,-2.485117502510547638e-02,6.950013339519500732e-02,-4.849534854292869568e-02,-1.711344867944717407e-01,-1.319530457258224487e-01,1.213085278868675232e-02,1.027550399303436279e-01,9.039951115846633911e-02,-1.098593175411224365e-01,-6.927493959665298462e-02,7.722602784633636475e-02,7.980540394783020020e-02,3.538517281413078308e-02,-1.438239682465791702e-02,-1.041057407855987549e-01,3.046874701976776123e-02,7.098565250635147095e-02,-9.804037213325500488e-02,-8.932439610362052917e-03,-7.540357857942581177e-02,-5.170695018023252487e-03,1.773258857429027557e-02,-6.863564252853393555e-02,1.908900141716003418e-01,-1.309909671545028687e-01,-7.845456898212432861e-02,1.011172011494636536e-01,-7.566666603088378906e-02,5.986316129565238953e-02,-9.476362168788909912e-02,-7.718069106340408325e-02,5.372306331992149353e-02,-1.166750267148017883e-01,-7.210213690996170044e-02,-5.548812914639711380e-03,-1.050241589546203613e-01,-8.136601001024246216e-02,-9.942781180143356323e-03,-1.117047294974327087e-01,-9.192914515733718872e-02,-1.447155177593231201e-01,9.829968214035034180e-02,-1.434512436389923096e-02,3.010498918592929840e-02,1.852495409548282623e-02,-1.113548725843429565e-01,3.438467159867286682e-02,1.466602087020874023e-02,4.738296195864677429e-02,8.558013290166854858e-02,5.384840443730354309e-02,-3.892425820231437683e-02,-1.574402153491973877e-01,2.947896346449851990e-02,7.337995618581771851e-02,5.508144944906234741e-02,2.077575027942657471e-02,8.816990256309509277e-02,-1.062879711389541626e-01,1.157761812210083008e-01,-1.605739295482635498e-01,-3.158750012516975403e-02,-2.649570442736148834e-02,-1.602551341056823730e-01,-1.044343635439872742e-01,-1.085454747080802917e-01,1.293424069881439209e-01,-6.789357960224151611e-02,-4.791700467467308044e-02,1.605280488729476929e-02,-3.041436709463596344e-02,3.923715278506278992e-02,-9.760463237762451172e-02,4.255854487419128418e-01,1.603888720273971558e-01,-9.229083545506000519e-03,7.033630460500717163e-02
7.522724103182554245e-03,-8.739827573299407959e-02,-9.987936168909072876e-02,-2.619566023349761963e-02,1.460594832897186279e-01,1.125158444046974182e-01,-4.542973265051841736e-02,-2.298107370734214783e-03,-2.074333140626549721e-03,6.813316047191619873e-02,-4.283833503723144531e-02,4.468400776386260986e-02,6.019070744514465332e-02,7.245237380266189575e-02,-4.183189943432807922e-02,-1.274324953556060791e-03,-1.413151621818542480e-01,3.329943865537643433e-02,1.636273972690105438e-02,-4.098024964332580566e-02,1.248964741826057434e-01,-6.787174195051193237e-02,-3.552639484405517578e-02,6.133662164211273193e-02,5.204825103282928467e-02,-6.488491594791412354e-02,-6.569040566682815552e-02,-1.009181290864944458e-01,1.853756047785282135e-02,-1.833364926278591156e-02,-3.070234507322311401e-02,-7.847359403967857361e-03,-1.657429039478302002e-01,-5.293691903352737427e-02,-6.512068212032318115e-02,-3.012647293508052826e-02,1.053105071187019348e-01,-3.263295441865921021e-02,-5.137297883629798889e-02,2.663834765553474426e-02,4.840550571680068970e-02,-9.696924686431884766e-02,6.884709745645523071e-02,4.816088359802961349e-03,-1.537598073482513428e-01,8.136881887912750244e-02,3.948809206485748291e-02,2.372088097035884857e-02,-3.127818927168846130e-02,5.551021546125411987e-02,-5.159870162606239319e-02,-1.046307682991027832e-01,-1.771894469857215881e-02,-5.622256547212600708e-02,-7.531821727752685547e-02,6.302230060100555420e-02,1.274381019175052643e-02,-6.091852486133575439e-02,-5.183975771069526672e-02,-1.216192729771137238e-02,8.324111998081207275e-02,-3.923818841576576233e-02,-7.144531607627868652e-02,-7.253456860780715942e-02,9.963893890380859375e-02,7.304631173610687256e-02,7.742068264633417130e-03,4.240911081433296204e-02,2.368243597447872162e-02,-1.202351078391075134e-01,-1.009742319583892822e-01,-1.703772321343421936e-02,-9.105060994625091553e-02,-3.119688481092453003e-02,3.224984183907508850e-02,3.992185741662979126e-02,5.948904529213905334e-02,4.450709093362092972e-04,-1.413147523999214172e-02,-2.476013265550136566e-02,-2.716583758592605591e-02,-7.859406061470508575e-03,2.022733390331268311e-01,3.378973156213760376e-02,-7.449849694967269897e-02,9.974212944507598877e-02,-1.515091657638549805e-01,-3.374559432268142700e-02,7.637242227792739868e-02,1.377089917659759521e-01,-4.032374918460845947e-02,1.378273218870162964e-02,3.877220675349235535e-02,-7.834054529666900635e-02,-1.107951849699020386e-01,-1.316218674182891846e-01,-4.456924274563789368e-02,-1.591818593442440033e-02,3.288035467267036438e-02,5.303241685032844543e-02,-1.701155304908752441e-02,-7.831226289272308350e-02,6.878300756216049194e-02,2.361661195755004883e-02,3.897410817444324493e-03,9.923612698912620544e-03,-2.883800119161605835e-02,-3.057318739593029022e-03,-4.083364084362983704e-02,6.513092666864395142e-02,9.503018856048583984e-02,-1.534538995474576950e-02,8.235702663660049438e-02,9.342805296182632446e-02,2.432584017515182495e-02,8.274502307176589966e-02,1.623688638210296631e-02,-7.533625699579715729e-03,6.527116894721984863e-02,-2.164965420961380005e-01,1.234257668256759644e-01,-7.708078622817993164e-02,-6.208650022745132446e-02,-2.914048545062541962e-02,8.846025913953781128e-02,5.874919518828392029e-02,1.809987425804138184e-02,-7.658328860998153687e-02,-6.406134366989135742e-02,9.283946454524993896e-02,-3.762083873152732849e-02,-4.301154986023902893e-02,-2.057595364749431610e-02,-2.900547906756401062e-02,1.411829888820648193e-01,-7.437224686145782471e-02,-1.777340844273567200e-02,-2.403429895639419556e-02,-7.228492945432662964e-02,-6.457609683275222778e-02,4.156562313437461853e-02,-6.719959527254104614e-02,4.848664253950119019e-02,-1.913178712129592896e-02,-2.750779315829277039e-02,-6.842501461505889893e-02,3.192131966352462769e-02,4.493238776922225952e-02,-1.359975188970565796e-01,-3.241044282913208008e-02,-4.698281735181808472e-02,-3.942288458347320557e-02,-1.042025759816169739e-01,2.055371180176734924e-02,-2.751874178647994995e-02,2.414042502641677856e-02,8.611048758029937744e-02,-8.928953111171722412e-02,-9.406740963459014893e-02,2.155807614326477051e-02,-4.541224241256713867e-02,1.058179698884487152e-02,2.664746157824993134e-02,4.559279233217239380e-02,2.665760181844234467e-02,-1.336309760808944702e-01,1.049480810761451721e-01,-5.029048305004835129e-03,-1.545162200927734375e-01,1.200045496225357056e-01,-7.763976603746414185e-02,-2.393150515854358673e-02,8.009175211191177368e-02,-1.010158732533454895e-01,-2.544610761106014252e-03,3.526744991540908813e-02,8.146338164806365967e-03,2.142434939742088318e-02,4.909636825323104858e-02,4.398417845368385315e-02,-8.047165721654891968e-02,8.894528448581695557e-02,1.066060960292816162e-01,7.804412394762039185e-02,-1.415554620325565338e-02,-1.035395115613937378e-01,6.287889182567596436e-02,2.489973418414592743e-02,-4.623120278120040894e-02,-6.977258622646331787e-02,1.571149826049804688e-01,-4.124123603105545044e-02,9.626077115535736084e-02,-2.147145010530948639e-02,6.593275070190429688e-02,5.666065961122512817e-02,-5.107293277978897095e-02,-1.800622791051864624e-02,4.558202624320983887e-02,-7.581068575382232666e-02
9.511730819940567017e-02,-5.275679379701614380e-02,1.540336571633815765e-02,5.004151165485382080e-02,-1.824802160263061523e-02,3.702768683433532715e-02,-4.824326559901237488e-02,-1.253282651305198669e-02,9.239270538091659546e-02,5.893411580473184586e-03,-5.457358062267303467e-02,-1.191923245787620544e-01,-1.720708310604095459e-01,-3.016894496977329254e-02,5.428231507539749146e-02,-1.050547603517770767e-02,-4.827265068888664246e-02,-3.346901014447212219e-02,4.690967872738838196e-02,3.149486705660820007e-02,-3.736482188105583191e-02,-1.727496460080146790e-02,6.970852613449096680e-02,-1.840583421289920807e-02,1.255405507981777191e-02,6.707444787025451660e-02,9.972883854061365128e-04,9.685500711202621460e-02,3.545064479112625122e-02,4.097906127572059631e-02,-3.978429362177848816e-02,-1.196066439151763916e-01,-2.923964336514472961e-02,5.407591350376605988e-03,1.467932909727096558e-01,1.164772585034370422e-01,-2.142722904682159424e-02,5.397725850343704224e-03,5.833519622683525085e-02,-7.142276503145694733e-03,3.333278000354766846e-02,6.628190726041793823e-02,2.834452502429485321e-02,1.685584522783756256e-02,8.371686935424804688e-02,9.278383105993270874e-02,4.027208685874938965e-01,5.076384916901588440e-02,-1.416315585374832153e-01,-3.067094460129737854e-02,-7.122527062892913818e-02,1.655689626932144165e-02,-1.023724451661109924e-01,6.039446219801902771e-03,-2.674359641969203949e-02,1.293021291494369507e-01,-3.541906550526618958e-02,9.108775295317173004e-03,-5.697589367628097534e-02,5.875974893569946289e-02,3.479884006083011627e-03,-1.122872754931449890e-01,-3.952839970588684082e-02,-4.540356621146202087e-02,-9.136674553155899048e-02,-1.548877730965614319e-02,8.384834975004196167e-02,8.631865493953227997e-03,5.833261832594871521e-02,-1.490563750267028809e-01,-3.979688882827758789e-02,2.681869640946388245e-02,3.516048565506935120e-02,-3.181161731481552124e-02,-3.425081074237823486e-02,-2.877466380596160889e-02,-1.555818170309066772e-01,-8.069580793380737305e-02,9.934075176715850830e-02,1.162898093461990356e-01,-1.093105599284172058e-01,-1.007759049534797668e-01,1.671533659100532532e-02,3.435752540826797485e-02,6.572613120079040527e-02,1.020038947463035583e-01,-2.967394702136516571e-02,-1.348582208156585693e-01,7.275804877281188965e-02,-6.474455818533897400e-03,-9.883593767881393433e-02,-1.589660048484802246e-01,4.561217501759529114e-02,-6.676876544952392578e-02,-1.744407415390014648e-01,-6.652281433343887329e-02,1.311596930027008057e-01,-2.585578896105289459e-02,1.524278372526168823e-01,-1.354955881834030151e-01,7.081639766693115234e-02,-1.627109362743794918e-03,-9.357845038175582886e-02,-7.140266895294189453e-02,-9.952478576451539993e-04,3.839514777064323425e-02,-1.089170351624488831e-01,2.517255255952477455e-03,5.780996009707450867e-02,2.832652255892753601e-02,-2.031771279871463776e-02,-2.660810053348541260e-01,-6.477255374193191528e-02,-1.073266938328742981e-01,-1.517158895730972290e-01,-8.915346115827560425e-02,1.721211895346641541e-02,-5.218477174639701843e-02,-2.642361260950565338e-02,-2.517472580075263977e-02,7.637061923742294312e-02,-1.012275889515876770e-01,-1.689433306455612183e-02,2.536344528198242188e-02,4.399361461400985718e-02,7.006075978279113770e-02,-1.956639997661113739e-02,-1.663655042648315430e-02,-2.301547490060329437e-02,1.035761013627052307e-01,6.967747956514358521e-02,-6.113020703196525574e-02,-1.656338386237621307e-02,-1.180901154875755310e-01,-8.291207998991012573e-02,-8.157725632190704346e-02,-7.195146381855010986e-02,-6.870541721582412720e-02,-1.309005427174270153e-03,6.904118508100509644e-02,-1.741009652614593506e-01,-9.721039980649948120e-02,3.042865544557571411e-02,-5.286774784326553345e-02,-4.873070865869522095e-02,-8.806033432483673096e-02,3.329777345061302185e-02,-1.767849475145339966e-01,3.095505572855472565e-02,4.911756142973899841e-02,-1.441280841827392578e-01,-8.486825227737426758e-02,-1.115462630987167358e-01,1.558670494705438614e-02,-1.572749465703964233e-01,7.111795246601104736e-02,1.086739008314907551e-03,4.062121268361806870e-03,2.471444196999073029e-02,8.060798794031143188e-02,6.883132457733154297e-02,2.979999408125877380e-02,6.380689330399036407e-03,-5.583371967077255249e-02,-8.158345520496368408e-02,1.576004549860954285e-02,-3.055232763290405273e-02,3.191999346017837524e-02,-4.384054243564605713e-02,-9.194961190223693848e-02,-1.138973161578178406e-01,-3.034910559654235840e-02,-1.480645686388015747e-01,-6.017913296818733215e-02,3.565279394388198853e-02,5.406637676060199738e-03,-7.433856278657913208e-02,7.128067780286073685e-03,1.357632577419281006e-01,1.643691658973693848e-01,1.046264618635177612e-01,-4.186179861426353455e-02,-9.239745140075683594e-02,-4.693600162863731384e-02,8.893988281488418579e-02,-8.365724235773086548e-02,-1.922802180051803589e-01,7.355283200740814209e-02,7.185278832912445068e-02,-3.777678310871124268e-02,-3.991213068366050720e-02,-5.511494353413581848e-03,-9.413745254278182983e-02,-1.338843838311731815e-03,2.807557210326194763e-02,1.690264046192169189e-01,3.984754383563995361e-01,-4.064348060637712479e-03,4.640914872288703918e-02,-2.451129443943500519e-02
2.029324695467948914e-02,1.309797465801239014e-01,-1.104925107210874557e-02,-1.266458723694086075e-02,-8.670703321695327759e-02,4.212326928973197937e-02,3.919794224202632904e-03,-5.538742616772651672e-02,-5.199677310883998871e-03,2.085972018539905548e-02,4.508364945650100708e-02,4.221087694168090820e-02,1.011129468679428101e-01,3.760397806763648987e-02,-3.222820162773132324e-02,1.161145195364952087e-01,-5.476562306284904480e-02,3.654396533966064453e-02,5.970695987343788147e-02,-9.275163710117340088e-02,3.242548182606697083e-02,1.158261373639106750e-01,5.271207913756370544e-02,-4.375302046537399292e-02,3.141194581985473633e-02,5.984490364789962769e-02,-3.517441824078559875e-02,5.304706096649169922e-02,-2.415694668889045715e-02,-4.879742115736007690e-02,-1.763743534684181213e-02,2.716575749218463898e-02,-6.266754865646362305e-02,-2.506453171372413635e-02,4.818156361579895020e-02,6.738720089197158813e-02,5.929324775934219360e-02,-1.868471689522266388e-02,2.095349133014678955e-02,1.336061060428619385e-01,-1.530145257711410522e-01,-5.463637039065361023e-02,-6.817100942134857178e-02,1.414267905056476593e-02,-5.968304723501205444e-02,-3.543298318982124329e-02,4.284248501062393188e-02,-3.822515532374382019e-02,6.073704361915588379e-02,-1.179472431540489197e-01,-9.880589321255683899e-03,6.939717382192611694e-02,-8.485560864210128784e-02,7.959050708450376987e-04,-9.315358474850654602e-03,9.095177799463272095e-02,7.545028626918792725e-02,-6.077116727828979492e-02,-6.997425854206085205e-02,5.729965493083000183e-02,-5.098083987832069397e-02,-7.395980507135391235e-02,1.721957884728908539e-02,5.105808377265930176e-02,1.718776077032089233e-01,8.007511496543884277e-02,7.621307671070098877e-02,-2.628780901432037354e-02,-5.428657680749893188e-02,-6.703338772058486938e-02,1.773067982867360115e-03,-1.031764447689056396e-01,-3.881234303116798401e-02,-1.409345269203186035e-01,1.439417004585266113e-01,4.169572144746780396e-02,-2.693903259932994843e-02,-3.745191916823387146e-02,6.644939538091421127e-03,1.144461985677480698e-02,7.291048020124435425e-02,-1.833256334066390991e-02,1.073770821094512939e-01,-6.516941636800765991e-02,-7.386507466435432434e-03,-5.302809178829193115e-02,1.139580756425857544e-01,1.278792172670364380e-01,5.877451598644256592e-02,-1.603000238537788391e-02,-5.612830817699432373e-02,-1.093400269746780396e-01,8.455247431993484497e-02,-2.888610213994979858e-02,2.439582347869873047e-02,1.020016297698020935e-01,-1.383770555257797241e-01,-4.941520094871520996e-02,1.649922505021095276e-02,-3.964442294090986252e-03,-2.120963856577873230e-02,7.829666137695312500e-02,-1.171539425849914551e-01,-9.987239539623260498e-02,-1.151306033134460449e-01,-3.569155931472778320e-02,-3.089363873004913330e-02,1.998656243085861206e-02,1.081310026347637177e-02,3.031182661652565002e-02,-2.320351265370845795e-02,-1.714599728584289551e-01,-6.242595240473747253e-02,5.028847977519035339e-02,9.482336044311523438e-02,1.814965344965457916e-02,6.580546498298645020e-02,-7.161094248294830322e-02,-4.403673112392425537e-03,-5.658530443906784058e-02,-2.282189950346946716e-02,8.720006048679351807e-02,-4.637039452791213989e-02,4.656210914254188538e-02,-4.082836955785751343e-02,3.736410290002822876e-02,-9.163372963666915894e-02,6.938047707080841064e-02,1.121515184640884399e-01,1.164161562919616699e-01,6.464898586273193359e-02,6.919642537832260132e-02,-3.031854704022407532e-02,1.958133652806282043e-02,-7.683054357767105103e-02,8.767028152942657471e-02,5.699692666530609131e-02,1.699758023023605347e-01,1.805230788886547089e-02,5.062315240502357483e-02,6.915406882762908936e-02,5.103944242000579834e-02,-1.805766373872756958e-01,4.164934623986482620e-03,-6.002332642674446106e-02,-6.795202195644378662e-02,2.799926884472370148e-02,-5.703431367874145508e-02,4.720897600054740906e-02,1.395728886127471924e-01,-5.290205776691436768e-02,1.534035615622997284e-02,-5.288340151309967041e-02,1.818682439625263214e-02,6.945019960403442383e-02,-3.876784467138350010e-04,7.817269861698150635e-02,-4.533954337239265442e-02,8.638807386159896851e-02,-6.680946797132492065e-02,-2.881785482168197632e-02,2.557335235178470612e-02,-3.702623769640922546e-02,2.701094746589660645e-02,-7.264677435159683228e-02,4.002812877297401428e-02,2.470653504133224487e-02,9.047781676054000854e-02,-7.475987821817398071e-02,-1.130246967077255249e-01,4.675646126270294189e-02,-1.995495520532131195e-02,-1.136385742574930191e-02,-7.930915057659149170e-02,-6.978169083595275879e-03,8.321997709572315216e-03,-6.303664296865463257e-02,1.068199351429939270e-01,-1.296288818120956421e-01,-6.186254695057868958e-02,-1.733352802693843842e-02,1.013671979308128357e-01,2.425862476229667664e-04,-3.667450696229934692e-02,3.306761384010314941e-02,-1.987398788332939148e-02,1.455601491034030914e-02,2.994742989540100098e-02,-1.562645584344863892e-01,2.950020825664978474e-05,-1.316260825842618942e-02,1.721690595149993896e-01,3.077705390751361847e-02,7.810387015342712402e-02,7.424435764551162720e-02,6.981043517589569092e-02,6.230114027857780457e-03,1.035402044653892517e-01,-1.454354077577590942e-02,-7.204818725585937500e-02
3.694013506174087524e-02,-1.347704976797103882e-01,-6.283643841743469238e-02,5.264870077371597290e-02,-9.895856492221355438e-03,-8.195289969444274902e-02,-8.696974813938140869e-02,-2.692674100399017334e-02,-9.537433087825775146e-02,-9.687540680170059204e-02,-6.685936450958251953e-02,-3.508528694510459900e-02,1.180992200970649719e-01,-1.875606924295425415e-02,-3.686674311757087708e-02,4.361406713724136353e-02,-4.385666549205780029e-02,8.489773608744144440e-03,5.717812478542327881e-02,-5.124994739890098572e-02,1.056297644972801208e-01,1.427966356277465820e-01,6.065469235181808472e-02,-1.385117415338754654e-02,-1.164576411247253418e-02,1.376939564943313599e-01,-8.463488519191741943e-02,-1.199605688452720642e-01,-2.851958572864532471e-02,-6.945984810590744019e-02,-1.008478999137878418e-01,-2.303170785307884216e-02,3.127353265881538391e-02,-2.399036474525928497e-02,-4.160336405038833618e-02,4.428358003497123718e-02,-9.547571092844009399e-02,8.293542265892028809e-02,2.648417465388774872e-02,-1.143430843949317932e-01,1.587038934230804443e-01,-1.603014618158340454e-01,1.244970411062240601e-02,-6.472615897655487061e-02,-3.655336797237396240e-02,6.965787708759307861e-02,8.854649215936660767e-02,5.418836604803800583e-03,-1.312002837657928467e-01,8.869057148694992065e-02,-1.600343585014343262e-01,1.073492094874382019e-01,4.716452583670616150e-02,-1.039569228887557983e-01,2.803699858486652374e-02,-9.973985701799392700e-02,-1.217622458934783936e-01,1.002710312604904175e-02,1.064552143216133118e-01,-1.248827427625656128e-01,1.423930190503597260e-02,-1.413344591856002808e-01,2.477941103279590607e-02,-1.534713804721832275e-01,-3.216769255232065916e-05,1.166331395506858826e-02,-6.869783252477645874e-02,-4.890020936727523804e-02,-1.875226385891437531e-02,-6.602882593870162964e-02,-6.160228326916694641e-02,4.041690379381179810e-02,-2.960016019642353058e-02,-4.421796649694442749e-02,1.389142274856567383e-01,6.691821664571762085e-02,1.690921634435653687e-01,4.521062225103378296e-02,-7.247049361467361450e-02,4.127836227416992188e-02,-1.083002891391515732e-02,-8.081470429897308350e-02,-4.384749010205268860e-02,2.776320790871977806e-03,7.563371676951646805e-03,-3.533376380801200867e-02,6.969998776912689209e-02,-7.687202095985412598e-02,2.189683169126510620e-02,-1.346791088581085205e-01,4.092118889093399048e-02,-1.072865352034568787e-01,-5.624406784772872925e-02,5.699170753359794617e-02,7.617150992155075073e-02,-3.080658614635467529e-02,9.992412477731704712e-02,2.424228563904762268e-02,-9.600456058979034424e-02,-1.331132370978593826e-03,8.868616074323654175e-02,1.214700415730476379e-01,-1.220020726323127747e-01,-1.319964975118637085e-01,2.313977666199207306e-02,-2.190923094749450684e-01,-8.258091658353805542e-02,-6.715410202741622925e-02,9.912564605474472046e-02,-2.700898237526416779e-02,-5.966501310467720032e-02,-1.011635959148406982e-01,-1.470107287168502808e-01,-2.856220901012420654e-01,-3.699992224574089050e-02,1.657106727361679077e-02,-9.224922955036163330e-02,-7.878208160400390625e-02,3.882488980889320374e-02,-1.625156588852405548e-02,8.801390230655670166e-02,4.431137070059776306e-02,-6.201585754752159119e-02,1.571134477853775024e-01,-7.548695802688598633e-02,1.496741315349936485e-03,-8.170576393604278564e-02,-5.694582685828208923e-02,-2.082820236682891846e-02,-1.147160083055496216e-01,7.636297494173049927e-02,-3.061954304575920105e-02,-6.130826193839311600e-03,3.737643733620643616e-02,1.236671581864356995e-02,1.363329589366912842e-03,-3.138951957225799561e-02,-6.918916106224060059e-02,2.149121277034282684e-02,-8.405249565839767456e-02,-3.964400663971900940e-02,-1.265339851379394531e-01,4.884449020028114319e-02,2.243114635348320007e-03,-8.133522421121597290e-02,-1.532571613788604736e-01,1.364608854055404663e-01,7.883379608392715454e-02,-4.495117813348770142e-02,6.045752018690109253e-02,-6.094881682656705379e-04,-8.771864324808120728e-02,1.596774533390998840e-02,-1.641447842121124268e-01,-7.116306573152542114e-02,1.397579815238714218e-02,-9.534183144569396973e-02,-1.393464975990355015e-03,-5.999295413494110107e-02,2.204254735261201859e-03,1.201690062880516052e-01,6.893181055784225464e-02,3.146271780133247375e-02,4.808417335152626038e-02,-8.798554190434515476e-04,8.817483484745025635e-02,7.184103131294250488e-02,1.076612472534179688e-01,-1.843446306884288788e-02,-4.011362418532371521e-02,-2.979588136076927185e-02,-5.044516921043395996e-02,-8.563286066055297852e-02,-1.960211433470249176e-02,6.069043278694152832e-02,9.927747771143913269e-03,-7.589069753885269165e-02,-5.389350280165672302e-02,2.772308140993118286e-02,-2.957369014620780945e-02,2.961859107017517090e-03,8.176881074905395508e-02,-6.361432373523712158e-02,-8.430767059326171875e-02,-3.029430517926812172e-03,-1.657994240522384644e-01,3.781711310148239136e-02,3.699043020606040955e-02,6.609715521335601807e-03,-8.022578060626983643e-02,-6.009426712989807129e-02,-1.271414458751678467e-01,1.487794667482376099e-01,-5.354687198996543884e-02,-2.985072322189807892e-02,-4.439904540777206421e-02,2.461812794208526611e-01,1.109909415245056152e-01,2.485756762325763702e-02,5.699125677347183228e-02
2.275349386036396027e-02,-9.489349089562892914e-03,2.095114737749099731e-01,-7.096244022250175476e-03,-1.782895624637603760e-02,-2.219908870756626129e-02,6.349625438451766968e-02,1.002263743430376053e-03,8.684665709733963013e-02,3.562040627002716064e-02,-1.602794602513313293e-02,-5.483777821063995361e-02,1.570310741662979126e-01,6.403487920761108398e-02,-9.601676464080810547e-02,-3.950946033000946045e-02,1.228993088006973267e-01,-3.808824717998504639e-02,-7.093445956707000732e-02,2.916812524199485779e-02,-1.477818936109542847e-02,-7.341448217630386353e-04,6.330053508281707764e-02,-5.201221257448196411e-02,-3.195843100547790527e-02,-1.632360816001892090e-01,1.682859361171722412e-01,2.177510410547256470e-02,-2.608720958232879639e-02,-2.236194163560867310e-02,4.316794127225875854e-02,-1.079407185316085815e-01,4.815884679555892944e-02,-3.910722956061363220e-02,-3.178621828556060791e-02,-1.196527108550071716e-01,-4.907725844532251358e-03,-3.207413107156753540e-02,1.314011029899120331e-02,-1.164162531495094299e-01,-6.071427837014198303e-02,1.156410351395606995e-01,3.563275188207626343e-02,5.541929975152015686e-02,2.716906927525997162e-02,8.224268257617950439e-02,-6.104198098182678223e-02,3.717226441949605942e-03,-7.679826766252517700e-02,8.269727230072021484e-03,-2.284098230302333832e-02,2.495092339813709259e-02,6.970498710870742798e-02,-9.573417156934738159e-02,1.548764202743768692e-02,-4.284925013780593872e-02,-1.132867485284805298e-01,-6.950992345809936523e-02,-3.725965041667222977e-03,-4.253459349274635315e-02,5.010348558425903320e-02,-1.098329350352287292e-01,-3.622771427035331726e-02,1.155382171273231506e-01,-6.568144261837005615e-02,1.853254437446594238e-02,-3.329509496688842773e-02,-7.882940769195556641e-02,-5.754548311233520508e-02,2.037474699318408966e-02,1.236017197370529175e-01,-7.452744245529174805e-02,2.716044336557388306e-02,-9.610636159777641296e-03,-3.544914349913597107e-02,6.253068149089813232e-02,4.451416060328483582e-02,-4.212625324726104736e-02,1.170618310570716858e-01,-3.839831426739692688e-02,3.819634392857551575e-02,2.071570046246051788e-02,-5.691096931695938110e-02,4.100358858704566956e-02,-4.095117747783660889e-02,-3.025798872113227844e-02,4.575991258025169373e-02,4.561928659677505493e-02,5.548835173249244690e-02,2.176540344953536987e-02,1.834619790315628052e-02,-7.748097181320190430e-02,3.354826197028160095e-02,5.837618373334407806e-03,-9.505040943622589111e-02,-6.169681996107101440e-02,-6.812428124248981476e-03,-6.282186508178710938e-02,3.152936324477195740e-02,1.798802316188812256e-01,-2.778943069279193878e-02,4.440165311098098755e-02,-3.048479743301868439e-02,1.215606033802032471e-01,4.784902930259704590e-02,3.587247803807258606e-02,-1.499869395047426224e-02,5.291339941322803497e-03,1.277321577072143555e-02,-6.985466927289962769e-02,-5.331515520811080933e-02,1.427552383393049240e-02,-4.617182910442352295e-02,1.108711063861846924e-01,1.136044338345527649e-01,8.048666268587112427e-02,6.514437496662139893e-03,-8.015730977058410645e-02,1.599751412868499756e-02,-5.157738924026489258e-02,6.435602158308029175e-02,-5.170590803027153015e-02,-1.692087352275848389e-01,1.158668696880340576e-01,-1.156104728579521179e-02,-5.285518616437911987e-02,-9.057779610157012939e-02,-9.881916642189025879e-02,1.442610025405883789e-01,1.993004605174064636e-02,1.891083456575870514e-02,4.870923236012458801e-02,-2.849401906132698059e-03,-3.867505863308906555e-02,6.782780587673187256e-02,-1.111728772521018982e-01,1.480476260185241699e-01,2.264253050088882446e-02,-4.184186458587646484e-02,1.632007658481597900e-01,-1.050752177834510803e-01,-1.394303292036056519e-01,-2.285595610737800598e-02,6.666292250156402588e-02,-1.459957659244537354e-01,1.407396793365478516e-02,-8.362717926502227783e-02,-5.307198502123355865e-03,-1.127720717340707779e-02,-3.812920302152633667e-02,-1.103460788726806641e-01,-5.949356034398078918e-02,-9.236562997102737427e-02,-8.526231162250041962e-03,1.021939069032669067e-01,1.322686076164245605e-01,-1.325211226940155029e-01,-4.328923672437667847e-02,2.226638607680797577e-02,1.507411152124404907e-01,8.676286041736602783e-02,-1.222363859415054321e-01,-7.199402153491973877e-02,-6.064816936850547791e-02,4.258919507265090942e-03,-6.786448508501052856e-02,-5.309887975454330444e-02,6.292604375630617142e-03,-2.658590674400329590e-02,1.806934922933578491e-02,8.448623120784759521e-02,1.299484670162200928e-01,-7.819104194641113281e-02,-5.627665668725967407e-02,5.260933935642242432e-02,1.478124409914016724e-02,-3.995706513524055481e-02,6.984027475118637085e-02,-6.524515897035598755e-02,-5.799307301640510559e-02,-3.867131099104881287e-02,-4.665202274918556213e-02,-2.140105329453945160e-02,-2.094709128141403198e-02,-6.918220221996307373e-02,-1.135895401239395142e-02,1.848326250910758972e-02,2.091455087065696716e-02,3.947364911437034607e-02,-2.979114279150962830e-02,3.551548346877098083e-02,-6.338988896459341049e-03,4.695747420191764832e-02,-2.504534833133220673e-02,-3.951120749115943909e-02,5.597551912069320679e-02,-7.364550977945327759e-02,-7.468336261808872223e-03,-2.715122886002063751e-02,-4.417053982615470886e-02
7.389210909605026245e-02,9.250307828187942505e-02,-5.248979851603507996e-02,6.002132222056388855e-02,-9.236253798007965088e-03,-5.703905224800109863e-02,-9.643182903528213501e-02,-1.790312863886356354e-02,-3.344317898154258728e-02,1.055227033793926239e-02,1.347231864929199219e-01,3.535467013716697693e-02,-1.277967989444732666e-01,7.293337583541870117e-02,-2.538305148482322693e-02,9.134650230407714844e-03,-1.144355908036231995e-01,2.843587473034858704e-02,-5.950463563203811646e-02,-3.919150680303573608e-02,3.921206295490264893e-02,2.166737802326679230e-02,-9.718085080385208130e-02,2.477564290165901184e-02,4.508995637297630310e-02,-6.688255071640014648e-02,1.759160310029983521e-02,6.497389078140258789e-02,-7.147325575351715088e-02,-6.387858651578426361e-03,1.041025742888450623e-01,-6.324204802513122559e-02,8.948812261223793030e-03,-3.476794809103012085e-02,1.023391541093587875e-02,-9.793914854526519775e-02,5.661362409591674805e-02,5.754839628934860229e-02,-6.108430773019790649e-02,-2.576442621648311615e-02,1.974638924002647400e-02,5.379799287766218185e-03,-1.966191083192825317e-02,2.992285788059234619e-02,-1.694385427981615067e-03,-9.405342489480972290e-02,1.398729812353849411e-02,-1.427992247045040131e-02,-5.411361902952194214e-02,8.535337448120117188e-02,1.107236891984939575e-01,-3.396085649728775024e-02,-7.784771919250488281e-02,-8.869498968124389648e-03,-5.218262970447540283e-02,1.048326399177312851e-02,6.973477546125650406e-03,-7.382370531558990479e-02,1.003777831792831421e-01,6.685280799865722656e-02,-7.865870743989944458e-02,5.785491783171892166e-03,3.996581211686134338e-02,7.048838585615158081e-02,7.181793451309204102e-02,1.090958267450332642e-01,-1.109918951988220215e-01,-6.476823240518569946e-02,2.174751646816730499e-02,1.577520519495010376e-01,-5.067092366516590118e-03,-2.997948601841926575e-02,7.732092402875423431e-03,-1.081187278032302856e-03,-2.771399542689323425e-02,-7.225733995437622070e-02,-2.357055991888046265e-02,-9.961243718862533569e-02,-1.078213527798652649e-01,-8.565820753574371338e-03,8.002223074436187744e-02,-1.142206192016601562e-01,3.808563947677612305e-02,-1.118304803967475891e-01,-5.979509279131889343e-02,-1.878222972154617310e-01,-2.087736278772354126e-01,8.298311382532119751e-02,1.316722929477691650e-01,-1.332710534334182739e-01,7.299296557903289795e-03,7.963411509990692139e-03,-3.250800073146820068e-03,1.300990348681807518e-03,9.199307300150394440e-03,-2.727562375366687775e-02,1.318706665188074112e-02,7.490000128746032715e-02,-1.635228097438812256e-02,-1.374606788158416748e-01,1.103523820638656616e-01,-1.337482631206512451e-01,-3.159140795469284058e-02,7.518002390861511230e-02,9.910462424159049988e-03,3.120108693838119507e-02,1.798622775822877884e-03,5.023188516497612000e-02,8.815377950668334961e-03,1.398518099449574947e-03,-7.502445578575134277e-02,-6.995831429958343506e-02,-1.509636193513870239e-01,1.316559463739395142e-01,-8.765714615583419800e-02,-1.322347670793533325e-02,-1.042431890964508057e-01,2.528228238224983215e-02,-2.869573235511779785e-02,-8.091774582862854004e-02,2.143342234194278717e-02,5.263042822480201721e-02,1.521656569093465805e-02,4.027062281966209412e-02,-1.699504442512989044e-02,-9.942093491554260254e-02,1.508013065904378891e-02,-9.168000519275665283e-02,1.063162647187709808e-02,-7.964644581079483032e-02,-2.880020625889301300e-02,-4.114734753966331482e-02,1.759027317166328430e-02,-1.274122744798660278e-01,-3.150502592325210571e-02,-8.350793272256851196e-02,-3.563505411148071289e-02,3.522077947854995728e-02,-1.934652030467987061e-02,-1.869562827050685883e-02,-1.981869153678417206e-02,-1.044375263154506683e-02,-1.351501233875751495e-02,-2.982766367495059967e-02,1.390109062194824219e-01,4.132127016782760620e-02,-5.755757912993431091e-02,-2.336743986234068871e-03,-7.436408847570419312e-02,8.549615740776062012e-02,-6.772454828023910522e-02,6.806429475545883179e-02,6.457935553044080734e-03,1.518124621361494064e-02,-7.133574783802032471e-02,1.659180670976638794e-01,3.039676509797573090e-02,5.844025686383247375e-02,-1.568286716938018799e-01,4.631531611084938049e-02,2.407218702137470245e-02,9.199745021760463715e-03,7.196293026208877563e-02,1.419381350278854370e-01,9.282387793064117432e-02,7.220213860273361206e-02,-8.366931974887847900e-02,1.450286898761987686e-02,2.835877239704132080e-03,-3.993261139839887619e-03,-2.190847322344779968e-02,3.183682262897491455e-02,4.858504980802536011e-04,7.030775770545005798e-03,-1.739242672920227051e-02,-1.563550159335136414e-02,-9.535931795835494995e-02,2.839221991598606110e-02,-2.565332129597663879e-02,-3.334329277276992798e-02,1.849054358899593353e-02,2.928884513676166534e-02,-1.434392109513282776e-02,-1.289983242750167847e-01,-1.255628764629364014e-01,4.887802526354789734e-02,6.872709095478057861e-02,1.764092221856117249e-02,1.366999559104442596e-02,6.169504299759864807e-02,-2.781743183732032776e-02,1.317638009786605835e-01,-5.600963905453681946e-02,-1.129212006926536560e-01,-1.101316660642623901e-01,6.122231110930442810e-02,-8.335833996534347534e-02,-1.454195529222488403e-01,3.226944804191589355e-02,-1.266313791275024414e-01
3.407888859510421753e-02,8.027376979589462280e-02,5.130367726087570190e-02,-3.929147869348526001e-02,1.307640969753265381e-02,5.729955621063709259e-03,-7.473884150385856628e-03,7.630757242441177368e-02,3.252971544861793518e-02,-1.762403547763824463e-02,7.833153754472732544e-02,7.134835422039031982e-02,5.738367140293121338e-02,7.931400090456008911e-03,-7.751688361167907715e-02,5.856963247060775757e-02,1.306968927383422852e-01,3.530951216816902161e-02,-1.681631505489349365e-01,-8.664527535438537598e-02,7.145842164754867554e-02,-1.360108405351638794e-01,-2.706833556294441223e-02,1.529012620449066162e-02,4.580522701144218445e-02,3.789784014225006104e-02,8.884638547897338867e-02,1.017157658934593201e-01,-6.246159970760345459e-02,-8.285366743803024292e-02,-2.967804670333862305e-02,4.392720013856887817e-02,7.046446204185485840e-02,5.815180018544197083e-02,7.116246223449707031e-02,7.482980191707611084e-02,1.006488874554634094e-01,-7.822426408529281616e-02,-1.597299128770828247e-01,3.350167348980903625e-02,5.052208155393600464e-02,-9.630592912435531616e-02,1.772557385265827179e-02,4.712236113846302032e-05,-1.063185185194015503e-02,7.711603492498397827e-02,-8.308708667755126953e-02,1.226142421364784241e-01,-1.415862590074539185e-01,-1.540286280214786530e-02,3.184720873832702637e-02,1.220768131315708160e-02,-2.686157822608947754e-04,9.635315835475921631e-02,1.736096143722534180e-01,-1.632073707878589630e-02,-3.642002865672111511e-02,-5.284510925412178040e-02,4.549728706479072571e-02,-3.898374736309051514e-02,5.233127623796463013e-03,1.578080281615257263e-02,6.854860484600067139e-02,-7.206616550683975220e-02,-1.085213571786880493e-01,-5.092125385999679565e-03,-1.211388111114501953e-01,3.971446678042411804e-02,1.499026641249656677e-02,6.395268440246582031e-02,8.203388750553131104e-02,-9.579361975193023682e-02,-9.390328824520111084e-02,-7.445763051509857178e-02,-2.109464444220066071e-02,1.013563722372055054e-01,-6.297141313552856445e-02,1.611096784472465515e-03,2.931588515639305115e-02,4.223088547587394714e-02,2.080176770687103271e-02,6.392609328031539917e-02,7.979541271924972534e-02,1.668902486562728882e-02,-3.441051766276359558e-02,-1.971291936933994293e-02,-9.560374915599822998e-02,6.504664197564125061e-03,-6.939633190631866455e-02,7.047697901725769043e-03,1.189254503697156906e-02,-5.014319717884063721e-02,5.014009773731231689e-02,-6.562082469463348389e-02,7.397211343050003052e-02,4.470473527908325195e-02,-4.062968492507934570e-02,-4.336214810609817505e-02,1.623702421784400940e-02,-2.083659544587135315e-02,-1.094898302108049393e-02,2.419673278927803040e-02,-3.113793209195137024e-02,-5.962029099464416504e-03,1.234772130846977234e-01,1.282200496643781662e-02,9.276785701513290405e-02,-1.309922933578491211e-01,4.023629054427146912e-02,-1.254384964704513550e-02,3.078403882682323456e-02,-1.056693047285079956e-01,-4.219202697277069092e-02,-1.174889877438545227e-02,7.972839474678039551e-02,-5.241103842854499817e-02,4.385233670473098755e-02,-1.751815155148506165e-02,-4.549685120582580566e-02,-6.134784966707229614e-02,-9.682670934125781059e-04,-3.407287597656250000e-02,-2.095488831400871277e-02,-2.968645654618740082e-02,-5.536505207419395447e-02,-1.750803552567958832e-03,-3.984590619802474976e-02,-6.001414358615875244e-02,-3.753749281167984009e-02,-3.106163814663887024e-03,-7.337421923875808716e-02,-1.382749080657958984e-01,-6.034835427999496460e-02,1.048074662685394287e-01,-3.584143146872520447e-02,-5.074453353881835938e-02,4.304691776633262634e-02,1.455237865447998047e-01,5.519152432680130005e-02,-2.663191780447959900e-02,1.272158920764923096e-01,-1.143958419561386108e-02,1.697629839181900024e-01,5.921943485736846924e-02,8.087422698736190796e-03,-1.856578886508941650e-01,-9.143316745758056641e-02,-4.423058405518531799e-02,-2.894730865955352783e-02,6.545861810445785522e-02,-2.684506401419639587e-02,1.470937766134738922e-02,5.191528052091598511e-02,-2.087065428495407104e-01,1.284856945276260376e-01,5.441686511039733887e-02,6.073777750134468079e-02,9.787608683109283447e-02,-1.109646037220954895e-01,-1.828133687376976013e-02,2.730494551360607147e-02,8.494122326374053955e-02,-4.026591777801513672e-02,-2.466942928731441498e-02,-6.818584352731704712e-02,6.516368687152862549e-02,1.171464249491691589e-01,-8.011984825134277344e-02,2.790647000074386597e-02,-4.491603374481201172e-02,-7.851765304803848267e-02,-5.561776924878358841e-05,6.850855052471160889e-02,6.612393260002136230e-02,9.231431409716606140e-03,-5.313108861446380615e-02,9.482304006814956665e-02,-5.519266426563262939e-02,-5.725068598985671997e-02,8.164960145950317383e-02,2.754300087690353394e-02,-1.364023089408874512e-01,1.025201231241226196e-01,4.401586204767227173e-02,1.199235245585441589e-01,1.385658793151378632e-02,-6.993725150823593140e-02,1.587711274623870850e-02,7.585650682449340820e-02,-1.393822021782398224e-02,1.847479492425918579e-03,1.626206748187541962e-02,-8.062818646430969238e-02,-4.354899004101753235e-02,1.358744651079177856e-01,7.167631760239601135e-03,1.117673218250274658e-01,-7.121280580759048462e-02,4.544210154563188553e-03,-1.896002143621444702e-02
2.068224176764488220e-02,6.710491329431533813e-02,-3.995185252279043198e-03,9.492246434092521667e-03,1.651752740144729614e-02,-1.916514150798320770e-02,-1.042451411485671997e-01,-1.368181109428405762e-01,2.506944350898265839e-02,-3.600373119115829468e-02,-9.096806496381759644e-02,-1.815891712903976440e-01,1.145002432167530060e-02,5.299838725477457047e-03,-5.737742781639099121e-02,-7.515817135572433472e-02,-8.279912173748016357e-02,6.415982544422149658e-02,2.976960875093936920e-02,-2.083066105842590332e-02,-7.493502646684646606e-02,2.307364903390407562e-02,-4.707026109099388123e-02,-7.772193755954504013e-03,-1.254003942012786865e-01,-2.490029297769069672e-02,-8.048252016305923462e-02,-4.209298174828290939e-03,1.265133172273635864e-02,1.017234921455383301e-01,1.532548815011978149e-01,-7.491116970777511597e-02,-2.886217087507247925e-02,-7.608172297477722168e-02,2.709306962788105011e-02,-1.432821005582809448e-01,-1.046677306294441223e-01,-3.923720493912696838e-02,-2.609741315245628357e-02,2.308613434433937073e-02,-1.026768237352371216e-01,3.839545388473197818e-05,2.512900531291961670e-02,9.339629113674163818e-02,-4.080455750226974487e-02,3.729181364178657532e-02,1.830715537071228027e-01,7.833018898963928223e-02,-6.182916089892387390e-02,8.922435343265533447e-02,-2.756184712052345276e-02,-1.259385049343109131e-01,-2.079591602087020874e-01,-5.007518082857131958e-02,3.416588529944419861e-02,2.449135668575763702e-02,8.683001622557640076e-03,-3.830631077289581299e-02,-5.178460106253623962e-02,-3.946401411667466164e-04,7.766623795032501221e-02,-5.628207325935363770e-02,-5.458804965019226074e-02,3.526887670159339905e-02,4.789713025093078613e-02,9.372181445360183716e-02,-7.525250315666198730e-03,-1.040149554610252380e-01,1.321010291576385498e-02,-1.014187484979629517e-01,-1.210208386182785034e-01,-1.418260484933853149e-01,1.629047095775604248e-01,-6.033556535840034485e-02,3.419373184442520142e-02,3.538542427122592926e-03,6.651680916547775269e-02,2.589680626988410950e-02,-1.306683123111724854e-01,-1.929387077689170837e-02,-1.421433091163635254e-01,-4.248620942234992981e-02,1.559577435255050659e-01,5.417377129197120667e-02,1.544479839503765106e-02,-4.364438727498054504e-02,2.113759331405162811e-02,-1.049102395772933960e-01,2.282238379120826721e-02,3.801867365837097168e-02,1.152183860540390015e-02,7.116726040840148926e-02,1.748872920870780945e-03,1.353840231895446777e-01,-2.668486908078193665e-02,6.773988157510757446e-02,4.929414018988609314e-02,4.263966158032417297e-02,2.906102314591407776e-02,-5.884203687310218811e-02,3.711159527301788330e-02,1.087866798043251038e-01,-1.186046376824378967e-01,1.194545924663543701e-01,6.536307185888290405e-02,9.199342690408229828e-03,-2.250796929001808167e-02,-2.659534476697444916e-02,2.200605906546115875e-02,3.904996439814567566e-02,-2.456449717283248901e-02,-9.778939932584762573e-02,-4.199604690074920654e-02,-2.718284539878368378e-02,1.534517947584390640e-02,-1.085046753287315369e-01,-2.861453965306282043e-02,-2.098557502031326294e-01,4.609382897615432739e-02,3.039558650925755501e-04,-6.387517601251602173e-02,-5.149908736348152161e-02,-2.396609075367450714e-02,3.876850707456469536e-03,1.416220888495445251e-02,9.079990535974502563e-02,-1.206153258681297302e-01,-4.085832089185714722e-02,-9.387946873903274536e-02,-1.008468940854072571e-01,2.289896644651889801e-02,-1.760308593511581421e-01,-6.410727649927139282e-02,-1.560092624276876450e-02,5.444918945431709290e-02,5.038253962993621826e-03,-4.215977713465690613e-02,3.855081275105476379e-03,-1.147436946630477905e-01,5.490224808454513550e-02,5.104317888617515564e-02,-9.238851815462112427e-02,-1.526355594396591187e-01,1.681561581790447235e-02,4.792257212102413177e-03,4.718980938196182251e-02,1.024470701813697815e-01,-2.093789866194128990e-03,5.169644951820373535e-02,-7.683394849300384521e-02,7.316089421510696411e-02,5.111157149076461792e-02,1.488088667392730713e-01,-1.394528299570083618e-01,-6.761950999498367310e-02,1.266995072364807129e-01,3.949756920337677002e-02,-2.788148261606693268e-02,-3.333236649632453918e-02,5.428889766335487366e-02,1.100471429526805878e-02,1.031979639083147049e-02,-2.670101262629032135e-02,-9.048868715763092041e-02,-8.533516526222229004e-02,-1.569651253521442413e-02,6.896352022886276245e-02,-5.519048776477575302e-03,8.815106749534606934e-02,-9.573021531105041504e-02,8.370555192232131958e-02,1.120458170771598816e-01,1.110573261976242065e-01,1.808127760887145996e-02,5.115272849798202515e-02,1.037144735455513000e-01,1.090525649487972260e-02,-5.220303311944007874e-02,3.312467411160469055e-02,1.970470882952213287e-02,-4.955365881323814392e-02,-7.158378511667251587e-02,1.852137595415115356e-02,9.187322854995727539e-02,1.383703798055648804e-01,6.966415047645568848e-02,-1.406366080045700073e-01,-7.708728313446044922e-02,3.032189980149269104e-02,-2.866342291235923767e-02,-1.894181035459041595e-02,2.113665267825126648e-02,-7.874151319265365601e-02,9.459639340639114380e-02,-1.251640021800994873e-01,-2.720614895224571228e-02,2.009149491786956787e-01,4.119189456105232239e-02,-8.130421489477157593e-02,7.823649048805236816e-02
