Layer 1 Weights:
-5.569445341825485229e-02,-9.094948321580886841e-02,-9.477032721042633057e-02,-1.734219491481781006e-02,-2.444409430027008057e-01,-1.548480242490768433e-01,-2.973848581314086914e-01,-3.911131992936134338e-02,-5.485701933503150940e-02,-1.307350546121597290e-01,1.243178267031908035e-02,-6.595490127801895142e-02,4.454085975885391235e-02,-3.395242244005203247e-02,5.033533275127410889e-02,-4.815425723791122437e-02,4.304951727390289307e-01,1.685951650142669678e-01,-1.161903366446495056e-01,1.662631034851074219e-01,-1.682505756616592407e-01,1.256473362445831299e-01,7.469688057899475098e-01,2.673234045505523682e-02,-1.817019581794738770e-01,8.878017961978912354e-02,-6.362631916999816895e-02,-3.751630708575248718e-02,1.882799416780471802e-01,1.168447881937026978e-01,2.345781177282333374e-01,1.956280171871185303e-01,-1.214967370033264160e-01,-1.488647013902664185e-01,-6.421527266502380371e-02,3.511007502675056458e-02,-1.434802860021591187e-01,-7.285079360008239746e-02,-1.466985791921615601e-01,-4.794088006019592285e-02,9.663986414670944214e-02,4.230378195643424988e-02,2.544837594032287598e-01,-7.296527922153472900e-02,4.236178100109100342e-01,6.286557763814926147e-02,1.557473838329315186e-01,-4.526803791522979736e-01,2.208254784345626831e-01,-9.335436671972274780e-02,-2.683835923671722412e-01,-4.152994602918624878e-02,2.859333343803882599e-02,9.347549080848693848e-02,-3.981896340847015381e-01,4.325230419635772705e-02,-2.028717398643493652e-01,-6.823176145553588867e-02,8.241593092679977417e-02,-2.558860778808593750e-01,-1.000987663865089417e-01,-9.446422010660171509e-02,8.985535055398941040e-02,1.357522755861282349e-01,-2.047724723815917969e-01,1.993074081838130951e-02,1.752186417579650879e-01,8.446496725082397461e-02,-1.299299299716949463e-01,7.684032618999481201e-02,-1.161102112382650375e-02,-7.260060310363769531e-02,-1.317245602607727051e+00,-7.554952055215835571e-02,-1.684589385986328125e-01,7.153820246458053589e-02,-1.568759083747863770e-01,-4.173484165221452713e-03,6.000967696309089661e-02,6.235421448945999146e-02,-1.076294854283332825e-01,-7.240518182516098022e-02,-1.538674086332321167e-01,6.061453744769096375e-02,-4.067885689437389374e-03,7.435858249664306641e-02,1.687571406364440918e-01,-1.599426567554473877e-02,-8.530054241418838501e-02,7.399929314851760864e-02,8.678870648145675659e-02,-7.517904043197631836e-01,1.007131412625312805e-01,6.802536547183990479e-02,5.890869721770286560e-02,4.349623247981071472e-02,1.059801355004310608e-01,-7.745311856269836426e-01,2.569799497723579407e-02,-4.741111025214195251e-02,2.125445157289505005e-01,2.261479571461677551e-02,-1.504689753055572510e-01,-1.620350480079650879e-01,-3.931610286235809326e-01,1.267855167388916016e-01,2.507950365543365479e-01,5.810261145234107971e-02,-1.321100294589996338e-01,3.872633278369903564e-01,-5.502534285187721252e-02,-1.441276520490646362e-01,2.988927960395812988e-01,-3.168792650103569031e-02,-2.995285205543041229e-02,3.327551111578941345e-02,4.445689320564270020e-01,-4.121484979987144470e-02,2.661327123641967773e-01,-4.313287138938903809e-02,-1.169960722327232361e-01,1.266358345746994019e-01,-3.958027064800262451e-01,-5.417150259017944336e-02,-5.772249773144721985e-02,3.712886199355125427e-02,-8.137129247188568115e-02,1.578843742609024048e-01,1.785226613283157349e-01,6.174917891621589661e-02,4.133425056934356689e-01,2.255030721426010132e-01,2.088085711002349854e-01,-1.303755398839712143e-02,2.472688555717468262e-01,-1.670505702495574951e-01,-3.494377806782722473e-02,-3.372670710086822510e-02,5.498725920915603638e-02,5.793415009975433350e-02,1.324720382690429688e-01,-5.847632884979248047e-01,2.890679240226745605e-01,-1.882641203701496124e-02,4.700808227062225342e-01,-1.584688425064086914e-01,1.623893827199935913e-01,-3.097363710403442383e-01,1.843184977769851685e-01,3.303390741348266602e-02,3.148764967918395996e-01,1.371989101171493530e-01,-6.941514462232589722e-02,5.351352691650390625e-02,-2.911290526390075684e-01,-9.860887192189693451e-03,-1.145557165145874023e-01,8.934234827756881714e-02,1.048828959465026855e-01,-1.370280683040618896e-01,3.160201758146286011e-02,-6.043484061956405640e-02,2.605459690093994141e-01,-1.263934224843978882e-01,7.513962686061859131e-02,-1.105081140995025635e-01,4.560711383819580078e-01,1.048569753766059875e-01,-1.329578906297683716e-01,-7.088056206703186035e-02,-8.898307569324970245e-03,-5.352116748690605164e-02,1.257881373167037964e-01,-1.144978106021881104e-01,-7.570869754999876022e-03,-1.118704229593276978e-01,-5.246456712484359741e-02,-1.918306201696395874e-01,2.356961518526077271e-01,-1.476510018110275269e-01,2.286200672388076782e-01,2.668569087982177734e-01,5.972930416464805603e-02,1.669225245714187622e-01,5.272419750690460205e-02,1.189570650458335876e-01,1.384944617748260498e-01,-1.588114723563194275e-02,-7.077781111001968384e-02,1.477470844984054565e-01,2.314831614494323730e-01,-2.544351518154144287e-01,3.042356967926025391e-01,-9.781944006681442261e-02,5.475807189941406250e-01,-1.483708024024963379e-01,4.482335224747657776e-02,-6.602814197540283203e-01,-5.718478560447692871e-02,-6.145074218511581421e-02

Layer 2 Weights:
-3.386949002742767334e-02,-3.328081592917442322e-02,1.019774377346038818e-01,-3.243603184819221497e-02,1.559469196945428848e-02,-1.073620747774839401e-02,-8.936186879873275757e-02,3.342223912477493286e-02,4.365928843617439270e-02,-1.199655532836914062e-01,8.940709754824638367e-03,-8.308519609272480011e-03,-3.800656413659453392e-03,5.383361503481864929e-02,-1.045712977647781372e-01,-4.217948019504547119e-02,-3.628402203321456909e-02,-1.412248611450195312e-01,1.373167037963867188e-01,-7.915056496858596802e-02,6.688081473112106323e-02,-3.764254227280616760e-02,2.860432267189025879e-01,7.691463455557823181e-03,-8.830374479293823242e-02,5.255484953522682190e-02,-4.635707661509513855e-02,-3.511885926127433777e-02,3.388316556811332703e-02,-1.290221959352493286e-01,-3.459832817316055298e-02,-5.395152047276496887e-02,-7.660007476806640625e-02,-1.801575720310211182e-02,4.750039801001548767e-02,1.348898652940988541e-02,-7.190543413162231445e-02,-1.039337590336799622e-01,-5.403527989983558655e-02,3.723456338047981262e-02,2.485542930662631989e-02,8.645402640104293823e-02,-1.512334309518337250e-02,-2.073058113455772400e-02,4.486913327127695084e-03,-9.160092473030090332e-02,-2.223488874733448029e-02,1.715833507478237152e-02,9.620017558336257935e-02,-7.249886542558670044e-02,-8.247560262680053711e-02,1.040842086076736450e-01,-1.902501471340656281e-02,-3.398497030138969421e-02,-6.120814755558967590e-02,-1.652053594589233398e-01,-1.469019502401351929e-01,-6.885559856891632080e-02,2.795430831611156464e-02,-8.567551523447036743e-02,1.329950802028179169e-02,-3.066974459215998650e-03,2.977971918880939484e-02,8.161953836679458618e-02,-1.071947515010833740e-01,-1.117632016539573669e-01,-5.819860473275184631e-02,5.313362926244735718e-02,-5.293685477226972580e-03,6.033292412757873535e-02,1.016560643911361694e-01,-1.084488555788993835e-01,-7.508179545402526855e-02,-1.618116348981857300e-02,4.156186804175376892e-02,-3.329781815409660339e-02,-3.316544368863105774e-02,-6.823555380105972290e-02,-9.178413450717926025e-02,-1.036151424050331116e-01,-5.926633626222610474e-02,-1.778826564550399780e-01,-1.714926213026046753e-01,-2.614275738596916199e-02,-1.164145469665527344e-01,4.472143203020095825e-02,9.620217233896255493e-02,3.990231826901435852e-02,-4.141551256179809570e-02,-8.268845081329345703e-02,-1.280152518302202225e-02,-1.165117993950843811e-01,-1.017780825495719910e-01,-9.169641882181167603e-02,-1.566504538059234619e-01,-4.672519862651824951e-02,-1.773936748504638672e-01,7.267598807811737061e-02,-6.304273754358291626e-02,-1.976739615201950073e-01,-2.922559976577758789e-01,-1.692629903554916382e-01,-4.268052801489830017e-02,-3.325529024004936218e-02,9.492294490337371826e-02,-1.654008328914642334e-01,-4.537896439433097839e-02,-8.134777098894119263e-02,5.287728086113929749e-02,-2.048681080341339111e-01,1.545656379312276840e-02,-7.840298116207122803e-02,1.229214072227478027e-01,1.612190157175064087e-02,7.368850708007812500e-02,8.466049283742904663e-02,9.833539836108684540e-03,6.319515407085418701e-02,-1.628147810697555542e-01,-3.273034468293190002e-02,5.004373937845230103e-02,2.714279852807521820e-02,9.567657113075256348e-02,9.141357732005417347e-04,1.199988946318626404e-01,-1.767825335264205933e-02,-8.163212984800338745e-02,-2.412531226873397827e-01,2.134383248630911112e-04,-6.971643120050430298e-02,3.583685681223869324e-02,-1.522603034973144531e-01,-1.170553714036941528e-01,-5.436092615127563477e-02,1.706578768789768219e-02,1.157564204186201096e-02,8.220922946929931641e-02,1.430295556783676147e-01,-8.317431062459945679e-02,-5.332821235060691833e-02,1.275170221924781799e-02,2.558935582637786865e-01,-2.696808800101280212e-02,-1.494995802640914917e-01,-3.377796411514282227e-01,2.412638068199157715e-02,-3.610315173864364624e-02,3.690705075860023499e-02,-1.289586126804351807e-01,-6.039774417877197266e-02,1.027109697461128235e-01,1.479870080947875977e-01,3.361101448535919189e-02,-1.776952743530273438e-01,4.393316432833671570e-02,-8.484521508216857910e-02,-8.093933016061782837e-02,2.001489698886871338e-02,4.184213653206825256e-02,-2.056788280606269836e-02,6.112532690167427063e-02,6.579215079545974731e-02,-6.734007596969604492e-02,9.198912978172302246e-02,4.133092239499092102e-03,3.403582051396369934e-02,-3.753859549760818481e-02,1.245313584804534912e-01,2.305080881342291832e-03,6.197956949472427368e-02,1.173989325761795044e-01,5.672739073634147644e-02,2.059654146432876587e-01,-2.647554967552423477e-03,-8.032856881618499756e-02,-1.559428870677947998e-01,4.057166725397109985e-02,-7.239440083503723145e-02,-1.317173838615417480e-01,-1.905961632728576660e-01,2.601178130134940147e-03,-1.009970456361770630e-01,-8.993194252252578735e-02,-7.863434148021042347e-04,2.517990954220294952e-02,-1.734096184372901917e-02,-1.588181592524051666e-02,-4.527407884597778320e-02,9.094456210732460022e-03,2.893461612984538078e-03,-6.252156198024749756e-02,-1.258734520524740219e-02,8.899378031492233276e-02,-1.301110684871673584e-01,8.283799141645431519e-02,-1.276415884494781494e-01,-1.588671468198299408e-02,-3.218393400311470032e-02,-1.091617196798324585e-01,3.675157949328422546e-02
-5.599039420485496521e-02,1.548961549997329712e-01,1.039565056562423706e-01,5.967198405414819717e-03,-5.797616019845008850e-02,-6.532463012263178825e-04,-4.212915152311325073e-02,-7.799682766199111938e-02,-2.384146302938461304e-02,7.127353549003601074e-02,-5.194448400288820267e-03,6.886316835880279541e-02,1.148326694965362549e-02,-5.556172505021095276e-02,1.684481464326381683e-02,-5.883590877056121826e-02,1.071111038327217102e-01,-7.807242870330810547e-02,-2.805688232183456421e-02,4.419829696416854858e-02,3.030674904584884644e-02,9.695100784301757812e-02,2.798761613667011261e-02,-1.074624061584472656e-01,-9.783898293972015381e-02,-1.896221004426479340e-02,8.697536773979663849e-03,-2.692897804081439972e-02,-4.610739275813102722e-02,9.717089124023914337e-03,-1.190367862582206726e-01,3.890880942344665527e-02,-1.255051046609878540e-02,6.708666682243347168e-02,-5.892647802829742432e-02,8.513647317886352539e-02,9.432437270879745483e-02,7.553727179765701294e-02,9.840150922536849976e-02,-6.090564653277397156e-02,-5.871208850294351578e-04,-4.000370204448699951e-02,-1.127472594380378723e-01,-2.314146049320697784e-02,1.598152145743370056e-02,-8.902630209922790527e-02,3.927598893642425537e-02,1.897949539124965668e-02,-1.094668917357921600e-02,1.476342678070068359e-01,4.015891626477241516e-02,1.411933004856109619e-01,3.999946266412734985e-02,-6.666060537099838257e-02,-4.685061052441596985e-02,-6.991348229348659515e-03,-9.888464212417602539e-02,-4.602864757180213928e-02,-1.619855314493179321e-02,1.559648066759109497e-01,4.611494019627571106e-02,1.331835687160491943e-01,-8.052435517311096191e-02,-1.575525291264057159e-02,1.922406069934368134e-02,3.591716289520263672e-02,-1.098159700632095337e-01,-1.217497605830430984e-02,-3.565918281674385071e-02,-2.637034095823764801e-02,6.880606058984994888e-03,-9.770286828279495239e-02,4.402412846684455872e-02,-1.207452546805143356e-02,5.050856620073318481e-02,9.122950956225395203e-03,-9.183795750141143799e-02,9.490884840488433838e-02,6.877307780086994171e-03,1.199470274150371552e-02,6.646723300218582153e-02,-8.798035979270935059e-02,-5.547364056110382080e-02,1.268180273473262787e-02,3.660254180431365967e-02,-1.132164523005485535e-01,-5.564098246395587921e-04,3.698575124144554138e-02,3.546912595629692078e-02,-9.252613782882690430e-02,-1.208116337656974792e-01,3.450855985283851624e-02,-3.067266754806041718e-02,-9.324187785387039185e-02,-3.353928774595260620e-02,-1.845330744981765747e-02,-4.796577990055084229e-02,-1.195058152079582214e-01,-1.423673778772354126e-01,-8.910821378231048584e-02,-5.841158702969551086e-02,-5.633927881717681885e-02,3.206466510891914368e-02,8.108262903988361359e-03,-6.304720044136047363e-02,-8.096837997436523438e-02,-1.823758929967880249e-01,3.279126062989234924e-02,-1.685586757957935333e-02,-2.090774476528167725e-03,9.671969711780548096e-02,5.601873155683279037e-03,7.055917382240295410e-02,7.594064623117446899e-02,2.318930067121982574e-02,-4.163749143481254578e-02,-1.330500096082687378e-01,9.831910580396652222e-02,6.416004151105880737e-02,-8.039805293083190918e-02,-1.750314682722091675e-01,7.021252065896987915e-02,9.751482307910919189e-02,-1.335841417312622070e-02,-1.393308937549591064e-01,-7.318873703479766846e-02,-9.228830039501190186e-02,1.311894953250885010e-01,-7.618228346109390259e-02,-1.009885296225547791e-01,-3.875143453478813171e-02,-6.031615287065505981e-02,5.827154219150543213e-02,6.786979734897613525e-02,5.578995868563652039e-02,5.282251536846160889e-02,1.508137211203575134e-03,6.439305841922760010e-02,1.098758205771446228e-01,-7.169791031628847122e-03,-7.089728862047195435e-02,4.556278511881828308e-02,-8.653283119201660156e-02,5.711039155721664429e-02,2.939729951322078705e-02,-1.104621067643165588e-01,8.972870558500289917e-02,9.991867840290069580e-02,9.407567232847213745e-02,5.557848140597343445e-02,-9.119610488414764404e-02,-1.774380728602409363e-02,-8.696127682924270630e-02,5.411549657583236694e-02,-3.910926356911659241e-02,-3.667715936899185181e-03,-3.749440237879753113e-02,-4.249286651611328125e-02,-3.505519777536392212e-02,1.041876971721649170e-01,-1.190297454595565796e-01,-9.070812165737152100e-02,-4.447242245078086853e-02,1.087432876229286194e-01,-4.557825997471809387e-02,1.295062527060508728e-02,-3.128265589475631714e-02,-2.766464371234178543e-03,1.003796327859163284e-02,7.976242154836654663e-02,-1.998538151383399963e-02,-2.426906721666455269e-03,-1.292623579502105713e-01,-2.744771540164947510e-02,9.497047401964664459e-03,-5.952652543783187866e-02,-1.477024108171463013e-01,3.820115327835083008e-02,2.447357960045337677e-02,3.174934536218643188e-02,-3.973300755023956299e-02,1.644055917859077454e-02,-4.825528338551521301e-02,1.302475184202194214e-01,1.394754275679588318e-03,-5.883001908659934998e-02,-4.445847123861312866e-02,-2.649218402802944183e-02,7.691596448421478271e-02,-2.624202333390712738e-02,-4.860477894544601440e-02,8.933516591787338257e-02,-4.365589469671249390e-02,6.071671843528747559e-02,2.023392356932163239e-02,-2.747534029185771942e-02,1.175276860594749451e-01,-2.991847135126590729e-02,6.640105973929166794e-03,9.825316071510314941e-02
-9.591958671808242798e-02,-1.840790733695030212e-02,-2.449792437255382538e-02,1.109579764306545258e-02,-5.540917441248893738e-02,2.596989274024963379e-02,2.273235470056533813e-02,1.463942229747772217e-01,3.992243856191635132e-02,9.923678636550903320e-02,6.084826588630676270e-02,-6.776439398527145386e-02,-2.839643880724906921e-02,-1.241974011063575745e-01,-7.631027698516845703e-02,-8.922109752893447876e-02,-4.635446891188621521e-02,1.087668016552925110e-01,4.189103096723556519e-02,-2.276741154491901398e-02,-3.396719112060964108e-04,9.137464314699172974e-02,-1.479994803667068481e-01,5.228991433978080750e-02,6.907049566507339478e-03,4.858217388391494751e-02,5.622296780347824097e-02,9.329587221145629883e-02,-9.097190946340560913e-02,-8.730188943445682526e-03,-3.544894605875015259e-02,-3.172826394438743591e-02,1.230709701776504517e-01,4.704700410366058350e-02,-5.018856003880500793e-02,-5.882893130183219910e-02,1.769913733005523682e-02,4.973867535591125488e-02,4.247042536735534668e-02,-6.099985912442207336e-02,-3.674161434173583984e-02,-1.883999817073345184e-02,-1.506691426038742065e-01,6.829180568456649780e-02,-5.627333000302314758e-02,4.994895681738853455e-02,-4.012445360422134399e-02,1.089404523372650146e-01,-3.344694152474403381e-02,8.661049604415893555e-02,8.244238793849945068e-02,1.032942980527877808e-01,-5.552194640040397644e-02,-4.374060779809951782e-03,3.523871302604675293e-02,-2.086211740970611572e-02,2.159040793776512146e-02,1.243351493030786514e-03,-1.725205918774008751e-03,4.306657239794731140e-02,8.586781099438667297e-03,-1.608198881149291992e-02,-1.974325068295001984e-02,-3.471792861819267273e-02,5.672433972358703613e-02,8.893989771604537964e-02,-3.142988681793212891e-02,1.248018816113471985e-05,2.086733654141426086e-02,7.946115732192993164e-02,-1.794166304171085358e-02,-2.344648167490959167e-02,-9.731953963637351990e-03,3.375480324029922485e-02,-2.563267350196838379e-01,2.312750741839408875e-02,2.034119516611099243e-02,-1.532851904630661011e-02,-5.769683048129081726e-03,-1.538692265748977661e-01,-2.495858818292617798e-02,3.234607353806495667e-02,1.089207455515861511e-02,-3.391077741980552673e-02,3.014072589576244354e-02,2.930040657520294189e-02,-4.158499091863632202e-02,-1.093285977840423584e-01,2.006896734237670898e-01,8.055067062377929688e-02,4.495669156312942505e-03,5.540822446346282959e-02,2.110652625560760498e-02,2.009396627545356750e-02,1.313869953155517578e-01,3.953517007175832987e-04,-1.938960887491703033e-02,3.877764567732810974e-02,-6.911360472440719604e-02,-4.979611374437808990e-03,-9.330791234970092773e-02,-1.503096334636211395e-02,-8.174077607691287994e-03,-7.759437710046768188e-02,1.075590252876281738e-01,7.117613404989242554e-02,5.447266623377799988e-02,-4.183423146605491638e-02,3.048514202237129211e-02,-7.103255391120910645e-02,9.132333099842071533e-03,-6.965881586074829102e-02,-4.919463396072387695e-02,9.393791109323501587e-02,3.140058368444442749e-02,-2.882215753197669983e-02,3.371723368763923645e-02,-6.282258778810501099e-02,2.963797422125935555e-03,-7.229895889759063721e-02,1.263541053049266338e-03,4.291578382253646851e-02,-1.146025955677032471e-01,-2.386757917702198029e-02,-8.527518808841705322e-02,-9.402068331837654114e-03,-7.271946407854557037e-03,4.523749276995658875e-02,5.141317844390869141e-02,2.242364734411239624e-01,5.184450745582580566e-02,-7.888249307870864868e-02,-9.812868200242519379e-03,-4.141329228878021240e-02,1.331971734762191772e-01,8.865913748741149902e-02,-8.782319724559783936e-02,4.658699780702590942e-02,-1.020297259092330933e-01,7.021917402744293213e-02,-1.831616647541522980e-02,6.551754474639892578e-02,-1.457571890205144882e-02,-1.132719069719314575e-01,-5.522875115275382996e-02,-9.141121804714202881e-02,7.184667140245437622e-02,-2.151649445295333862e-02,-7.793773710727691650e-02,5.578414350748062134e-02,-3.255912160966545343e-04,-5.136366188526153564e-02,-1.294547468423843384e-01,8.058752864599227905e-04,-3.283509984612464905e-03,-1.257248371839523315e-01,1.720186471939086914e-01,-6.272359937429428101e-02,1.799072325229644775e-02,-8.341554552316665649e-02,5.413934960961341858e-02,9.060940891504287720e-02,-2.960168197751045227e-02,6.779009848833084106e-02,-6.529984623193740845e-02,-9.003568440675735474e-02,-1.244921684265136719e-01,-9.145031124353408813e-02,1.108333542943000793e-01,-4.670739173889160156e-02,3.167697414755821228e-02,-4.916821420192718506e-02,-1.231087967753410339e-01,-3.862114250659942627e-02,8.059334009885787964e-03,-9.093567728996276855e-03,-1.204513199627399445e-02,-1.141352020204067230e-02,-4.456093907356262207e-02,-6.527663767337799072e-02,8.555214852094650269e-03,-3.516112640500068665e-02,-6.530062109231948853e-02,5.266792699694633484e-02,-6.588288396596908569e-02,1.820694655179977417e-03,2.901577018201351166e-02,-1.264412254095077515e-01,7.121992856264114380e-02,1.124066710472106934e-01,1.184207275509834290e-01,-1.266886144876480103e-01,1.692366972565650940e-02,1.297373976558446884e-02,5.997795984148979187e-02,5.988843739032745361e-02,-3.564321249723434448e-02,6.885962933301925659e-02,-6.545038521289825439e-02,-1.853986829519271851e-02
2.925559505820274353e-02,-5.598878860473632812e-02,-3.748604655265808105e-02,-8.354520797729492188e-02,1.188118569552898407e-02,-2.912071347236633301e-02,-1.422631293535232544e-01,1.184751391410827637e-01,-1.182355955243110657e-01,1.130430102348327637e-01,-4.994229972362518311e-02,1.643056869506835938e-01,2.834060043096542358e-02,-3.410908207297325134e-02,-7.112089544534683228e-02,9.433417581021785736e-03,2.609153650701045990e-02,-7.246994972229003906e-02,-5.766004323959350586e-04,6.493616104125976562e-02,-7.005926221609115601e-02,7.447750866413116455e-02,3.666651621460914612e-02,2.207652665674686432e-02,4.936539009213447571e-02,2.054588869214057922e-03,-5.339986830949783325e-02,-7.190517336130142212e-02,5.033740028738975525e-02,-9.208038449287414551e-03,3.657598420977592468e-02,2.006410509347915649e-01,-7.866889983415603638e-02,-6.049277260899543762e-02,-2.535627596080303192e-02,-5.261227115988731384e-02,1.642746105790138245e-02,3.228920744732022285e-03,3.669123724102973938e-02,1.086486317217350006e-02,1.019386649131774902e-01,-1.206413190811872482e-02,-5.869905650615692139e-02,-6.683390587568283081e-02,1.026937738060951233e-02,-8.093101903796195984e-03,1.329596899449825287e-02,1.219942793250083923e-01,-2.075491100549697876e-02,2.813478372991085052e-02,8.182901889085769653e-02,-7.680072635412216187e-02,-7.562950253486633301e-02,-1.336804032325744629e-01,1.098619308322668076e-02,-2.249024249613285065e-02,-1.213247142732143402e-02,-1.023197919130325317e-02,3.713409882038831711e-03,-1.020781993865966797e-01,1.347604580223560333e-02,-1.422985550016164780e-02,6.863244622945785522e-02,-4.779857769608497620e-02,-5.933845788240432739e-02,-9.589598327875137329e-02,-7.410981506109237671e-02,-2.728985436260700226e-02,2.689770609140396118e-02,-6.544437259435653687e-03,1.455385386943817139e-01,-2.012528292834758759e-02,-4.100887104868888855e-02,-9.427332878112792969e-02,-2.443268895149230957e-03,3.023342974483966827e-02,-1.253533661365509033e-01,5.012176185846328735e-02,1.631922274827957153e-01,4.155014455318450928e-02,3.480826690793037415e-02,-5.262314528226852417e-02,-4.189990833401679993e-02,-5.706814303994178772e-02,-4.132485017180442810e-02,1.381807178258895874e-01,-4.823671281337738037e-02,-4.869675636291503906e-02,1.962931081652641296e-02,6.320632994174957275e-02,1.277558803558349609e-01,6.474047154188156128e-02,1.759645156562328339e-02,-5.450298637151718140e-02,-7.450378686189651489e-02,-4.013039171695709229e-02,2.154881134629249573e-02,-3.517122566699981689e-02,7.236239314079284668e-02,-1.733348891139030457e-02,-9.413478523492813110e-02,1.149289682507514954e-02,5.642368644475936890e-02,1.511075533926486969e-02,-9.489975869655609131e-02,1.005674712359905243e-04,1.077922657132148743e-01,-1.329383701086044312e-01,-1.261267364025115967e-01,3.687398880720138550e-02,-3.180074691772460938e-02,-9.818561375141143799e-02,1.737081259489059448e-02,9.493377059698104858e-03,-1.467286050319671631e-02,-4.147732257843017578e-02,-5.456649884581565857e-02,-1.031940151005983353e-02,5.105566978454589844e-02,2.596262469887733459e-02,1.046498194336891174e-01,-4.365000873804092407e-02,1.988693326711654663e-02,-2.311238553375005722e-03,-3.865928621962666512e-03,2.095791697502136230e-02,-1.708284392952919006e-02,1.095040291547775269e-01,2.270154282450675964e-02,-5.785960704088211060e-03,8.654448203742504120e-03,6.515538552775979042e-04,4.894258826971054077e-02,5.792135372757911682e-03,-6.216196343302726746e-03,-7.304922491312026978e-02,5.079366266727447510e-02,-3.408279269933700562e-02,-3.698220942169427872e-03,-1.445723231881856918e-02,-1.533163785934448242e-01,-1.092604473233222961e-01,1.866231299936771393e-02,-1.762029677629470825e-01,9.501471370458602905e-02,-1.310555487871170044e-01,-1.542115816846489906e-03,-3.806208446621894836e-02,-1.145999729633331299e-01,-7.191237807273864746e-02,-1.272334344685077667e-02,-1.696690917015075684e-01,-2.931151166558265686e-02,7.480546832084655762e-02,-4.578527063131332397e-02,-1.435249857604503632e-02,3.016214445233345032e-02,3.535503521561622620e-02,-2.817581966519355774e-02,7.966216653585433960e-02,-6.261840462684631348e-02,-5.912454426288604736e-02,1.190187260508537292e-01,-1.708526313304901123e-01,1.451684087514877319e-01,-4.671336710453033447e-02,5.540158227086067200e-02,8.672644942998886108e-02,-1.792219094932079315e-02,-1.463964302092790604e-02,-2.504188567399978638e-02,-9.625803679227828979e-02,1.324268709868192673e-02,4.556632135063409805e-03,-9.867083281278610229e-02,-9.590583294630050659e-02,3.670684620738029480e-02,7.682525087147951126e-03,-2.312215790152549744e-02,-1.136246696114540100e-01,-1.497559342533349991e-02,-7.008508592844009399e-02,-4.424711689352989197e-02,5.843950062990188599e-02,-6.544458121061325073e-02,-7.365670800209045410e-02,2.202759087085723877e-01,-8.531410247087478638e-02,-1.215848885476589203e-02,-2.066405676305294037e-02,-1.597969420254230499e-02,1.240492332726716995e-02,-1.388430595397949219e-01,-9.441447444260120392e-03,2.904707193374633789e-02,9.209766238927841187e-02,1.575294882059097290e-02,4.190050996840000153e-03,-8.240047097206115723e-02,5.805512517690658569e-02
-1.144171878695487976e-01,1.565421000123023987e-02,-6.901586428284645081e-03,9.544438868761062622e-02,1.183355748653411865e-01,-7.365863025188446045e-02,5.810814350843429565e-02,-4.848491773009300232e-02,1.466690748929977417e-01,-8.880272507667541504e-03,1.211358085274696350e-01,1.782250106334686279e-01,-5.364492069929838181e-03,-2.807897143065929413e-02,9.373865276575088501e-02,5.688327830284833908e-03,-6.154452636837959290e-02,-5.384636670351028442e-02,-2.289425954222679138e-02,1.607983708381652832e-01,-3.944909572601318359e-02,4.346955195069313049e-02,1.452173739671707153e-01,1.731089781969785690e-03,3.116563335061073303e-02,-8.089540153741836548e-02,-8.785831741988658905e-04,7.554441690444946289e-02,-3.273717314004898071e-02,-6.407409161329269409e-02,8.813901245594024658e-02,-5.031669884920120239e-02,-1.268391031771898270e-03,-1.681311056017875671e-02,-1.385039743036031723e-02,-7.544815540313720703e-02,-3.405153052881360054e-03,1.100235208868980408e-01,-9.634307026863098145e-02,-9.148579835891723633e-02,-1.544260233640670776e-01,1.300562322139739990e-01,2.083279788494110107e-01,7.353879511356353760e-02,-7.792786508798599243e-02,1.964131146669387817e-01,1.250240653753280640e-01,9.968987107276916504e-02,8.319662511348724365e-02,-5.434672161936759949e-02,-5.300476215779781342e-03,-1.066731512546539307e-01,1.066446527838706970e-01,1.098145823925733566e-02,3.723210841417312622e-02,-1.549000144004821777e-01,5.036052316427230835e-04,-7.724886387586593628e-02,-7.032749708741903305e-03,-1.391350328922271729e-01,-9.259126335382461548e-02,6.270629912614822388e-02,-5.847454443573951721e-02,1.428061164915561676e-02,-1.113543957471847534e-01,-1.528262794017791748e-01,-6.281153182499110699e-04,-1.568162254989147186e-02,-2.474676258862018585e-02,-2.298091650009155273e-01,-8.003199845552444458e-02,-4.235433042049407959e-02,-7.972317188978195190e-02,2.773866243660449982e-02,-1.604260504245758057e-02,1.210853531956672668e-01,7.712095975875854492e-02,-7.875562459230422974e-02,-4.597986862063407898e-02,2.211200445890426636e-02,-3.575897589325904846e-02,-2.928994968533515930e-02,1.077250018715858459e-01,8.247458754340186715e-05,-4.875466600060462952e-02,-4.756980389356613159e-02,5.651492252945899963e-02,-4.476479813456535339e-02,2.128502912819385529e-02,-1.174435839056968689e-01,1.154377683997154236e-02,9.106111526489257812e-02,9.545350447297096252e-03,-1.043335534632205963e-02,-1.131573691964149475e-01,1.837224215269088745e-01,-9.094619750976562500e-02,-6.550618261098861694e-02,1.322614997625350952e-01,-9.864507615566253662e-02,-1.667388714849948883e-02,1.033139298669993877e-03,-4.684446752071380615e-02,-7.573778927326202393e-02,-3.793259561061859131e-01,-2.793309390544891357e-01,2.686410844326019287e-01,3.483645617961883545e-02,-4.322990030050277710e-02,-2.073939591646194458e-01,1.790440827608108521e-02,4.354622215032577515e-02,-1.132372301071882248e-02,-4.763605445623397827e-02,-1.157210990786552429e-01,6.252209097146987915e-02,-5.058619752526283264e-02,6.955529004335403442e-02,-7.896746695041656494e-02,-2.654989995062351227e-02,-8.365832269191741943e-03,1.822623014450073242e-01,-1.964558362960815430e-01,-5.561107769608497620e-02,-6.638248916715383530e-03,-1.762592941522598267e-01,-1.336220204830169678e-01,-1.741959005594253540e-01,7.975455373525619507e-02,-2.394999414682388306e-01,3.938085436820983887e-01,8.860210329294204712e-02,2.068038582801818848e-01,8.641849271953105927e-03,1.531142145395278931e-01,1.556256669573485851e-03,1.171798072755336761e-02,-1.570136547088623047e-01,-8.350227773189544678e-02,-5.849968641996383667e-02,-4.207116365432739258e-02,1.822261512279510498e-01,3.369548916816711426e-01,-1.053648814558982849e-01,-3.617855012416839600e-01,-1.225309073925018311e-02,7.819409668445587158e-02,-2.021266818046569824e-01,7.941276580095291138e-02,4.947657883167266846e-02,-4.455237835645675659e-02,-5.633229855448007584e-03,-1.381487548351287842e-01,-5.103116482496261597e-02,7.975853234529495239e-02,-2.500367164611816406e-01,1.631656140089035034e-01,-3.944006189703941345e-02,5.230261012911796570e-02,-2.257712036371231079e-01,-7.419124990701675415e-02,-6.554421782493591309e-02,-1.517611742019653320e-01,-3.145007789134979248e-02,8.845588564872741699e-02,-4.848781600594520569e-02,1.061026100069284439e-02,6.798136979341506958e-02,-1.521804183721542358e-01,-1.829697638750076294e-01,8.105786889791488647e-02,7.475873827934265137e-02,2.296192944049835205e-01,-1.764103397727012634e-02,6.747285835444927216e-03,-7.748986780643463135e-02,-3.387964796274900436e-03,-1.335099041461944580e-01,-9.418606013059616089e-02,-1.910864748060703278e-02,8.030012249946594238e-02,-7.561070472002029419e-02,1.204648762941360474e-01,-2.127936854958534241e-02,-6.669592112302780151e-02,3.054728033021092415e-03,-5.460870917886495590e-03,-4.715065285563468933e-02,9.405032545328140259e-02,2.700285799801349640e-02,-1.831460557878017426e-02,1.978876143693923950e-01,1.608180254697799683e-01,1.565514057874679565e-01,-1.484186798334121704e-01,8.873661607503890991e-02,-6.242940202355384827e-02,1.168911084532737732e-01,-3.624720126390457153e-02,-3.097789362072944641e-02
6.594400852918624878e-02,-2.594123594462871552e-02,-6.768439710140228271e-02,-5.420356988906860352e-03,-6.990867853164672852e-02,-1.336052417755126953e-01,-5.358940735459327698e-02,1.568471081554889679e-02,3.860235214233398438e-02,-1.346573084592819214e-01,4.510707035660743713e-02,-2.895348472520709038e-03,-1.410383172333240509e-02,-9.471505880355834961e-02,-6.649634242057800293e-02,-3.464064002037048340e-02,9.722477197647094727e-02,3.451545163989067078e-02,-1.458772718906402588e-01,-2.396991103887557983e-02,-7.000380009412765503e-02,-1.133469194173812866e-01,4.900876879692077637e-01,3.989261016249656677e-02,-4.604817368090152740e-03,1.301817893981933594e-01,2.377878874540328979e-02,-1.172370091080665588e-01,1.078435219824314117e-02,-6.195041164755821228e-02,-1.535077095031738281e-01,-6.536827981472015381e-02,-6.238738074898719788e-02,4.686233773827552795e-02,-8.979915827512741089e-02,1.454851031303405762e-02,-4.390281159430742264e-03,-3.578829765319824219e-02,-1.031109467148780823e-01,-5.736035853624343872e-02,-7.189200073480606079e-02,-9.384628385305404663e-02,2.648868858814239502e-01,5.788726732134819031e-02,5.901717394590377808e-02,2.054996043443679810e-01,-9.421247243881225586e-02,1.813580095767974854e-01,-5.418652668595314026e-02,4.575474560260772705e-02,-1.598853617906570435e-01,3.554263617843389511e-03,-9.417974948883056641e-02,7.072555832564830780e-03,-7.921209186315536499e-02,-1.990744024515151978e-01,-5.472705885767936707e-02,2.004870027303695679e-02,8.518070727586746216e-02,-2.248118221759796143e-01,3.037169389426708221e-02,-3.303514048457145691e-02,-6.008587777614593506e-02,-3.837215900421142578e-02,-1.188757121562957764e-01,-1.038351878523826599e-01,-1.279170960187911987e-01,1.521828863769769669e-02,-1.065316200256347656e-01,1.061327978968620300e-01,-8.130162954330444336e-02,-7.705740630626678467e-02,-2.744933366775512695e-01,1.191924288868904114e-01,1.740939333103597164e-03,-1.657806336879730225e-01,2.521129138767719269e-02,-5.961567908525466919e-02,-1.101709604263305664e-01,-1.284822821617126465e-01,-1.005257368087768555e-01,-2.095489948987960815e-01,-1.692958176136016846e-01,2.523683942854404449e-02,-9.769762307405471802e-02,-9.751419723033905029e-02,-5.101995542645454407e-02,1.130544673651456833e-02,-5.475712567567825317e-02,-3.120139427483081818e-02,-1.860289573669433594e-01,-2.703053951263427734e-01,-1.265902519226074219e-01,-3.156074509024620056e-02,3.679310157895088196e-02,-6.008596718311309814e-02,-5.593429505825042725e-02,-1.798102073371410370e-02,-8.135502040386199951e-02,-1.327361762523651123e-01,-7.307925075292587280e-02,-4.141851514577865601e-02,1.128835305571556091e-01,-5.993688106536865234e-02,5.494942516088485718e-02,-2.343130707740783691e-01,4.310124740004539490e-02,5.619579181075096130e-02,8.068159222602844238e-02,-2.004467137157917023e-02,1.203519850969314575e-02,-3.270957851782441139e-03,1.727449521422386169e-02,-9.585714340209960938e-02,-1.859225705265998840e-02,-6.293822824954986572e-02,1.365356426686048508e-02,2.624867297708988190e-02,-1.880441606044769287e-01,3.657378628849983215e-02,9.567481279373168945e-02,-1.044649183750152588e-01,8.161205798387527466e-02,8.235879242420196533e-02,-1.101270169019699097e-01,-2.504943870007991791e-02,-1.895258948206901550e-02,-9.023544192314147949e-02,3.049477189779281616e-02,-9.361603111028671265e-02,-8.973663300275802612e-02,5.489071458578109741e-02,-6.022335495799779892e-03,-8.678331971168518066e-02,-8.433415740728378296e-02,1.357607245445251465e-01,2.444551140069961548e-02,-6.186848506331443787e-02,-5.656719207763671875e-02,1.215433608740568161e-02,-2.020343244075775146e-01,1.052014455199241638e-01,-1.503325700759887695e-01,-4.359038174152374268e-02,-6.182927265763282776e-02,2.377068158239126205e-03,-1.060542985796928406e-01,7.964836806058883667e-02,-1.526253819465637207e-01,-7.504612952470779419e-02,5.282958969473838806e-02,9.794178605079650879e-02,-9.271222352981567383e-02,-9.024707973003387451e-02,-2.949544973671436310e-02,4.955575242638587952e-02,-1.583278551697731018e-02,-6.608898192644119263e-02,-1.559055298566818237e-01,-2.645899653434753418e-01,-2.896340377628803253e-02,-3.070533275604248047e-02,2.861994318664073944e-02,7.173999398946762085e-02,3.321221843361854553e-02,-1.623163819313049316e-01,-4.032644629478454590e-02,3.516365960240364075e-02,-8.782795816659927368e-02,1.018910109996795654e-01,2.561924420297145844e-02,1.753167808055877686e-02,5.594562888145446777e-01,9.699846804141998291e-02,-7.664830237627029419e-02,-1.150569096207618713e-01,2.615668252110481262e-02,2.102112025022506714e-02,-1.867178827524185181e-02,-1.111763715744018555e-01,-1.925387531518936157e-01,-1.515240371227264404e-01,1.843427121639251709e-01,3.795628994703292847e-02,-5.258810147643089294e-02,3.577242791652679443e-02,-1.114728115499019623e-02,-6.459628045558929443e-02,8.660598844289779663e-02,-2.691173925995826721e-02,-9.766957908868789673e-02,5.932941660284996033e-02,1.271660327911376953e-01,4.032981768250465393e-02,2.002533972263336182e-01,4.288816358894109726e-03,-7.598925381898880005e-02,1.248335987329483032e-01,1.255006901919841766e-02,2.036598138511180878e-02
1.352793276309967041e-01,-7.391764223575592041e-02,2.342606149613857269e-02,6.054551154375076294e-02,1.362854987382888794e-01,8.958074450492858887e-02,6.638855487108230591e-02,-1.530963629484176636e-01,4.614676162600517273e-02,1.962655456736683846e-03,-1.959533058106899261e-02,-4.196470603346824646e-02,-8.418235927820205688e-02,-6.557755917310714722e-02,1.290555112063884735e-02,-2.148579247295856476e-02,-3.713842481374740601e-02,-7.637860625982284546e-02,-2.020620554685592651e-02,9.165127575397491455e-02,6.887776404619216919e-02,-7.185336202383041382e-02,1.062922459095716476e-02,-6.713324040174484253e-02,1.239247843623161316e-01,-1.874365843832492828e-02,6.359837949275970459e-02,-9.970752894878387451e-02,-1.382587254047393799e-01,4.402089491486549377e-02,-9.911308996379375458e-03,8.316298574209213257e-02,1.142066996544599533e-02,-6.075135245919227600e-02,1.176981814205646515e-02,-4.056262597441673279e-02,7.550296839326620102e-03,6.109427660703659058e-02,4.356460645794868469e-03,5.325310863554477692e-03,2.954825013875961304e-02,8.980240672826766968e-02,-1.026973500847816467e-01,-2.551665902137756348e-02,3.999926522374153137e-02,1.200305968523025513e-01,-3.337597101926803589e-02,-2.515763975679874420e-02,3.422318771481513977e-02,5.395503342151641846e-02,1.496714949607849121e-01,9.812156111001968384e-02,1.179141402244567871e-01,4.486959427595138550e-02,-3.876738622784614563e-02,7.377235591411590576e-02,-1.567351631820201874e-03,-3.794695017859339714e-03,3.858882561326026917e-02,2.952570281922817230e-02,3.046941757202148438e-02,-1.814998984336853027e-01,-4.631107300519943237e-02,6.254966557025909424e-02,-9.455072693526744843e-03,5.618795752525329590e-03,-2.382606714963912964e-01,-3.823642432689666748e-02,4.554135724902153015e-02,-1.538194157183170319e-02,6.698730587959289551e-02,1.094806939363479614e-01,-1.187663823366165161e-01,-5.770968645811080933e-02,2.187714911997318268e-02,2.715593017637729645e-02,3.720179200172424316e-03,-4.764287546277046204e-02,-1.387798041105270386e-01,1.910670101642608643e-02,-1.603361368179321289e-01,1.147673428058624268e-01,-1.197073161602020264e-01,1.554780453443527222e-01,-5.612964555621147156e-02,1.478807181119918823e-01,-1.102943159639835358e-02,1.823499053716659546e-02,-8.670172095298767090e-02,-1.380066573619842529e-01,9.791118651628494263e-02,-2.178422957658767700e-01,-2.598879337310791016e-01,-1.387822926044464111e-01,1.456567347049713135e-01,3.439306840300559998e-02,-6.844878196716308594e-02,2.784093655645847321e-02,-4.124081134796142578e-02,-1.929091811180114746e-01,-1.848587840795516968e-01,4.949815198779106140e-02,1.044586971402168274e-01,9.315672516822814941e-02,1.471529304981231689e-01,4.764466732740402222e-02,-4.126442372798919678e-01,-5.129540339112281799e-02,4.511287808418273926e-02,1.294716745615005493e-01,3.388620540499687195e-02,1.852255687117576599e-02,-1.466179490089416504e-01,6.503917276859283447e-02,1.972678676247596741e-02,2.744083758443593979e-03,-1.430794447660446167e-01,-7.932388782501220703e-02,-1.551783233880996704e-01,7.030772417783737183e-02,-3.647480159997940063e-03,-5.655036121606826782e-02,1.977332495152950287e-02,-3.847426176071166992e-02,-1.093904897570610046e-01,4.827288910746574402e-02,-3.294361010193824768e-02,7.422013580799102783e-02,-1.063344851136207581e-01,-4.055235162377357483e-02,-1.922389268875122070e-01,-6.511761993169784546e-02,-3.122428655624389648e-01,4.745286330580711365e-02,-1.085162907838821411e-01,4.968558996915817261e-02,-7.456173188984394073e-03,-2.760092914104461670e-02,-4.699054732918739319e-02,-2.400798909366130829e-02,-6.226092204451560974e-02,2.535695135593414307e-01,-2.413462698459625244e-01,4.083565250039100647e-02,1.640083454549312592e-02,-2.195905148983001709e-02,-5.267826840281486511e-02,2.422973662614822388e-01,1.201836392283439636e-01,-8.298473432660102844e-03,1.381733119487762451e-01,6.282850354909896851e-02,-5.813720822334289551e-02,3.215454146265983582e-02,2.714105881750583649e-02,2.047314792871475220e-01,-6.305512785911560059e-02,6.401091814041137695e-02,1.969161257147789001e-02,1.641456931829452515e-01,1.107524521648883820e-02,1.984576694667339325e-03,2.726415917277336121e-02,6.514879316091537476e-02,4.973698779940605164e-02,-3.219344839453697205e-02,5.531373992562294006e-02,8.675931021571159363e-03,1.706191748380661011e-01,9.398804977536201477e-03,-1.378699392080307007e-01,-8.198104798793792725e-02,6.719578057527542114e-02,6.118956208229064941e-02,3.347348049283027649e-02,1.347404439002275467e-02,6.293688714504241943e-02,-2.534957043826580048e-02,-6.239841133356094360e-02,-1.105432361364364624e-01,8.434791862964630127e-02,5.507418885827064514e-02,1.032555592246353626e-03,1.194207929074764252e-03,-7.956118881702423096e-02,-1.294605731964111328e-01,4.927202314138412476e-02,-3.482913225889205933e-02,-7.625390589237213135e-02,5.742289498448371887e-02,4.969431553035974503e-03,-1.667665243148803711e-01,-5.566223338246345520e-02,-6.737293303012847900e-02,1.791866421699523926e-01,-8.106508105993270874e-02,4.229560866951942444e-02,-5.326985567808151245e-02,-1.829676795750856400e-03,5.435055494308471680e-02
-3.216769546270370483e-02,-1.619618684053421021e-01,-6.564903259277343750e-02,3.824481368064880371e-02,4.492063447833061218e-02,-1.400358509272336960e-02,9.193142876029014587e-03,-1.278255283832550049e-01,-3.608908131718635559e-02,3.946314007043838501e-02,4.152232035994529724e-02,4.344277083873748779e-02,-3.805859014391899109e-02,-5.080275237560272217e-02,3.422866761684417725e-02,-9.222080558538436890e-02,1.634151861071586609e-02,-7.475060224533081055e-02,1.299558281898498535e-01,8.373764157295227051e-02,2.507279068231582642e-02,8.045656979084014893e-02,-3.550913929939270020e-02,6.701321154832839966e-02,-1.415072008967399597e-02,-5.425553768873214722e-02,-4.042670503258705139e-02,-1.036687567830085754e-01,2.073637442663311958e-03,-2.475794591009616852e-02,-1.195158138871192932e-01,4.727999493479728699e-02,-6.500822305679321289e-02,-6.150317937135696411e-02,3.096519969403743744e-02,4.536289721727371216e-02,6.358847767114639282e-02,-2.949833869934082031e-02,-5.154522508382797241e-02,2.888838015496730804e-02,-5.802248045802116394e-02,-3.756890445947647095e-02,6.310028955340385437e-03,1.556302309036254883e-01,8.102318644523620605e-02,-1.524851918220520020e-01,-5.635377485305070877e-03,1.081080660223960876e-01,-1.794445216655731201e-01,2.455362118780612946e-02,-4.737308714538812637e-03,6.294925510883331299e-02,1.144676208496093750e-01,-5.346626415848731995e-02,1.137325614690780640e-01,1.803977601230144501e-02,7.016333937644958496e-02,4.751866310834884644e-02,-1.299411207437515259e-01,-3.856481984257698059e-02,1.224481314420700073e-02,9.385150671005249023e-02,-1.212975159287452698e-01,1.088501513004302979e-01,-8.242867887020111084e-03,-8.642198890447616577e-02,2.681993320584297180e-02,9.469807893037796021e-02,2.223608084022998810e-03,-1.034885942935943604e-01,3.733284398913383484e-02,3.014913015067577362e-02,1.049828752875328064e-01,1.112057119607925415e-01,7.579630613327026367e-02,5.476821586489677429e-02,1.096697896718978882e-01,6.737844645977020264e-02,-2.050455426797270775e-03,6.317222863435745239e-02,5.436413735151290894e-02,2.805412979796528816e-03,-1.399296373128890991e-01,1.015205401927232742e-03,8.065918087959289551e-02,9.416611492633819580e-02,-2.541282400488853455e-02,-4.584731906652450562e-02,-6.210910528898239136e-02,1.105910316109657288e-01,7.185506075620651245e-02,3.380358591675758362e-02,-9.220203012228012085e-02,7.102788239717483521e-02,-2.272638678550720215e-02,-1.761514320969581604e-02,-3.476876765489578247e-02,-2.122760377824306488e-02,-1.970402710139751434e-02,5.699103325605392456e-02,6.809378415346145630e-02,-4.469786956906318665e-02,-2.753475680947303772e-02,4.630743712186813354e-02,2.976051717996597290e-02,-3.245147317647933960e-02,3.898880258202552795e-02,4.493353143334388733e-02,2.836067602038383484e-02,7.615212351083755493e-02,-5.584835074841976166e-03,-7.082106545567512512e-03,5.436006933450698853e-02,-5.857498385012149811e-03,6.775250192731618881e-03,3.286884352564811707e-02,3.159789368510246277e-02,4.598255082964897156e-02,-1.611883193254470825e-02,-1.095901653170585632e-01,3.081336617469787598e-03,1.116865947842597961e-01,-1.372923403978347778e-01,2.140809223055839539e-02,-5.716987699270248413e-02,1.533940806984901428e-02,-4.506264254450798035e-02,4.474022891372442245e-03,-1.288629621267318726e-01,1.402154266834259033e-01,-6.028259173035621643e-02,5.053262412548065186e-02,-5.796402320265769958e-02,1.251201182603836060e-01,-2.944111265242099762e-02,1.790610607713460922e-03,3.621504083275794983e-02,1.080794557929039001e-01,-5.897251889109611511e-02,-5.727984756231307983e-02,5.747241154313087463e-02,-9.996163658797740936e-03,-1.579073444008827209e-02,9.779435396194458008e-02,1.622698009014129639e-01,7.901600748300552368e-02,6.807024776935577393e-02,-1.516482234001159668e-01,2.185462601482868195e-02,2.007251419126987457e-02,1.273925155401229858e-01,-1.301552951335906982e-01,-1.187978461384773254e-01,5.557247623801231384e-02,-2.008068934082984924e-02,9.194752573966979980e-02,-6.000703573226928711e-02,-5.986990779638290405e-02,2.002830244600772858e-02,-5.926868319511413574e-02,5.324936285614967346e-02,1.137953996658325195e-01,6.802669912576675415e-02,-4.662277922034263611e-02,1.150318011641502380e-01,-8.188521116971969604e-02,6.481964886188507080e-02,-4.199169576168060303e-02,-7.860033214092254639e-02,1.557379215955734253e-01,-8.725621737539768219e-03,2.908648923039436340e-02,6.441433727741241455e-02,-9.998404234647750854e-02,-1.033653318881988525e-01,1.305142045021057129e-01,-8.739063516259193420e-03,4.703018814325332642e-02,-7.002142071723937988e-02,-4.987666383385658264e-02,8.967211470007896423e-03,-5.374922230839729309e-02,-8.458673208951950073e-02,4.913529008626937866e-02,2.259251661598682404e-02,7.727179676294326782e-02,-9.076770395040512085e-02,-1.763869822025299072e-02,5.426092445850372314e-02,1.370594799518585205e-01,3.076071850955486298e-03,1.707667857408523560e-02,4.862321540713310242e-02,3.869434446096420288e-02,5.044738063588738441e-04,-9.350007027387619019e-02,-1.585919857025146484e-01,9.934128262102603912e-03,-5.052647739648818970e-02,-2.300123311579227448e-02
-5.992378666996955872e-02,3.881435841321945190e-02,-8.293942362070083618e-02,-1.809706389904022217e-01,2.731123566627502441e-02,9.022878948599100113e-04,-8.959025144577026367e-02,-9.508277475833892822e-02,7.328966259956359863e-02,-1.427680402994155884e-01,9.577853977680206299e-02,-1.276232600212097168e-01,4.553162306547164917e-02,4.437656700611114502e-02,-9.389153565280139446e-04,-1.038964763283729553e-01,4.657823592424392700e-02,5.748016759753227234e-02,-3.027499280869960785e-02,-3.107480145990848541e-02,-3.561406955122947693e-02,6.097282841801643372e-02,1.087649613618850708e-01,-1.854182966053485870e-02,4.547233134508132935e-02,-3.728854469954967499e-03,7.931209355592727661e-02,1.451256778091192245e-02,-9.707249701023101807e-02,6.924962997436523438e-02,1.148401200771331787e-02,2.353356219828128815e-02,4.511121287941932678e-02,-5.839818343520164490e-02,-5.229689180850982666e-03,-1.867583394050598145e-02,3.158014267683029175e-02,5.524164810776710510e-02,8.696301840245723724e-03,2.877253480255603790e-02,4.717003554105758667e-03,-5.336770415306091309e-02,2.869437634944915771e-02,-4.679583385586738586e-02,-3.888691589236259460e-02,1.270431876182556152e-01,1.149906776845455170e-02,7.617613673210144043e-02,-6.751786451786756516e-03,9.254802763462066650e-02,2.354066222906112671e-01,-1.085981279611587524e-01,-1.749255210161209106e-01,-4.578257352113723755e-02,-5.164267960935831070e-03,4.702163487672805786e-02,-4.567173123359680176e-02,-5.150688439607620239e-02,-8.863317221403121948e-02,-6.378149986267089844e-02,2.012496814131736755e-02,1.617457866668701172e-01,7.827287912368774414e-02,-4.047942161560058594e-02,-1.315008699893951416e-01,9.105904400348663330e-02,-5.078887566924095154e-02,-1.238535065203905106e-02,6.820474565029144287e-02,7.704035937786102295e-02,6.944017484784126282e-03,3.386222943663597107e-02,5.594674125313758850e-02,-5.357255041599273682e-02,1.371989697217941284e-01,-8.365847170352935791e-02,-9.704621508717536926e-03,-2.796666324138641357e-02,2.354000881314277649e-02,1.623918563127517700e-01,1.143624782562255859e-01,8.438675850629806519e-02,3.008992969989776611e-02,-6.547385454177856445e-02,5.863734334707260132e-02,6.210179999470710754e-02,5.013339594006538391e-02,-6.630194373428821564e-03,-2.326939254999160767e-02,-7.442516833543777466e-02,-1.787026971578598022e-02,-3.407191112637519836e-02,3.210003674030303955e-02,-5.243223160505294800e-02,8.010467141866683960e-02,-2.718036808073520660e-02,-3.307386487722396851e-02,5.050811171531677246e-02,-4.777688533067703247e-02,8.702787756919860840e-02,7.535777986049652100e-02,-6.042341887950897217e-02,-7.003356516361236572e-02,-5.765374004840850830e-02,-6.328275054693222046e-02,5.631144717335700989e-02,4.933277517557144165e-02,1.238177716732025146e-01,1.162393316626548767e-01,-2.438785508275032043e-02,8.320842683315277100e-02,-4.312536120414733887e-02,-3.584035485982894897e-02,-2.472055703401565552e-02,-9.130548685789108276e-02,-1.008406728506088257e-01,-8.409793674945831299e-02,3.147277235984802246e-02,3.311928361654281616e-03,-7.755160331726074219e-03,4.211972281336784363e-02,-9.790496900677680969e-03,5.471902340650558472e-02,1.474277675151824951e-02,1.031684949994087219e-01,-7.589821238070726395e-03,-7.361288368701934814e-02,-6.399337667971849442e-03,-1.611897256225347519e-03,-4.226683080196380615e-02,1.320084929466247559e-01,7.302535325288772583e-02,5.479631945490837097e-02,7.102099061012268066e-02,9.378316253423690796e-02,-1.479931920766830444e-02,-1.442364752292633057e-01,4.031291976571083069e-02,4.660381376743316650e-02,5.793947353959083557e-02,-3.673635795712471008e-02,2.411469072103500366e-02,9.148295968770980835e-03,2.291702479124069214e-02,8.506894111633300781e-02,-3.069846332073211670e-02,-1.385018415749073029e-02,-6.935918331146240234e-02,3.377287648618221283e-03,-4.335014894604682922e-02,-1.124620158225297928e-02,-1.425260677933692932e-02,-5.881319940090179443e-02,-2.729879692196846008e-02,1.147237326949834824e-02,6.996259838342666626e-02,-8.046354353427886963e-02,-6.178288906812667847e-02,-1.243706867098808289e-01,-3.536658734083175659e-02,1.177867799997329712e-01,-1.647201948799192905e-03,3.507829084992408752e-02,3.223669156432151794e-02,2.397563308477401733e-03,1.133098825812339783e-01,7.563446462154388428e-02,1.350118666887283325e-01,2.747845463454723358e-02,-1.097250580787658691e-01,8.925604820251464844e-02,-7.903132587671279907e-02,-1.635770313441753387e-02,-4.330232739448547363e-02,2.678986266255378723e-02,6.275391578674316406e-02,1.095075234770774841e-01,-5.439286306500434875e-02,-9.725945442914962769e-02,-6.345323473215103149e-02,3.642472252249717712e-02,9.128370881080627441e-02,-6.092306226491928101e-02,9.540169686079025269e-02,1.510950829833745956e-02,2.122012712061405182e-02,-1.219297349452972412e-01,3.962880373001098633e-02,7.034347951412200928e-02,8.291724324226379395e-02,2.315446920692920685e-02,-1.227155700325965881e-01,1.795416139066219330e-02,2.065531350672245026e-02,-6.475931406021118164e-02,-8.907763659954071045e-02,5.074927583336830139e-03,5.222587659955024719e-02,-7.853015512228012085e-02,-8.802148699760437012e-02
-2.541886828839778900e-02,-1.111847907304763794e-01,5.380247533321380615e-02,-6.528391968458890915e-03,-3.170698881149291992e-02,-1.019374728202819824e-01,-1.437991559505462646e-01,-9.848065674304962158e-02,9.513974934816360474e-02,-2.232017964124679565e-01,-3.136099129915237427e-02,4.867159202694892883e-02,8.537378162145614624e-03,2.110998332500457764e-02,9.695419669151306152e-02,1.528691500425338745e-02,8.258051425218582153e-02,3.368155285716056824e-02,-2.328005433082580566e-01,-6.678696256130933762e-03,1.064047124236822128e-02,-3.652520850300788879e-02,4.631666839122772217e-01,4.999863356351852417e-02,-2.355115488171577454e-02,-8.454445004463195801e-02,6.237301602959632874e-02,-1.417752951383590698e-01,-1.108166426420211792e-01,-8.287194371223449707e-02,-1.349900960922241211e-01,-4.762214794754981995e-02,-4.468773957341909409e-03,-2.922678925096988678e-02,-1.474639624357223511e-01,-8.657843619585037231e-02,-1.041498184204101562e-01,-1.687700748443603516e-01,-4.490810632705688477e-02,1.241714358329772949e-01,-4.646378755569458008e-02,8.046570420265197754e-02,1.988016963005065918e-01,4.795815795660018921e-03,9.318701177835464478e-02,-1.352632790803909302e-01,-1.022505536675453186e-01,3.827269375324249268e-02,-1.640390306711196899e-01,-1.271152347326278687e-01,-6.838028877973556519e-02,8.904534392058849335e-03,4.082831740379333496e-02,7.066302746534347534e-02,-7.301680743694305420e-02,-1.827689409255981445e-01,-7.391033321619033813e-02,6.340507417917251587e-02,2.996658161282539368e-02,-3.972822129726409912e-01,5.457805469632148743e-02,-1.816067285835742950e-02,1.729000476188957691e-03,7.229933142662048340e-02,2.248789370059967041e-02,-1.423130626790225506e-03,-3.553952649235725403e-02,-5.326521396636962891e-02,-1.521702706813812256e-01,1.226514130830764771e-01,2.019865904003381729e-03,-4.465064778923988342e-02,-4.110294580459594727e-01,-2.150784283876419067e-01,2.511822618544101715e-02,-6.832162290811538696e-02,-1.240605041384696960e-01,-1.134495511651039124e-01,-1.340468525886535645e-01,-4.749090969562530518e-02,-1.690135598182678223e-01,-2.160765081644058228e-01,-1.965223401784896851e-01,-7.345990091562271118e-02,-1.068100556731224060e-01,-4.291948676109313965e-02,1.092881560325622559e-01,-1.485514082014560699e-02,-1.287633329629898071e-01,-3.539765626192092896e-02,-2.259877044707536697e-03,-1.598569750785827637e-02,-5.992028489708900452e-02,3.541368246078491211e-02,-1.300702989101409912e-01,4.940097033977508545e-02,-5.158146098256111145e-02,1.324073504656553268e-02,-4.170345515012741089e-02,-7.623608410358428955e-02,-6.740721315145492554e-02,1.159635931253433228e-01,1.432725936174392700e-01,-6.261870265007019043e-02,-1.643954217433929443e-02,-3.871863009408116341e-03,-1.252568364143371582e-01,6.071194540709257126e-03,-3.813946992158889771e-02,-4.894773960113525391e-01,-7.057788968086242676e-02,-1.284256279468536377e-01,-1.032744720578193665e-01,3.205934539437294006e-03,9.061458706855773926e-02,-2.136947810649871826e-01,1.697532483376562595e-03,3.854741901159286499e-02,-3.042760193347930908e-01,-8.619470149278640747e-02,4.924371838569641113e-02,4.863417707383632660e-03,1.727092415094375610e-01,2.555103972554206848e-02,-1.940159010700881481e-03,-7.709718495607376099e-02,-8.922581374645233154e-02,1.363405212759971619e-02,-1.226342841982841492e-01,-1.078747957944869995e-01,-1.975976526737213135e-01,-8.250387012958526611e-02,-8.586771786212921143e-02,-8.452599495649337769e-02,-1.909536421298980713e-01,9.622258692979812622e-02,-1.138454973697662354e-01,-9.033771231770515442e-03,6.677684187889099121e-02,-3.518499433994293213e-02,5.957849696278572083e-02,2.311478406190872192e-01,1.557244062423706055e-01,-1.140348240733146667e-01,-2.263319343328475952e-01,-4.750462248921394348e-02,-1.426890939474105835e-01,3.825932741165161133e-02,-6.623395532369613647e-02,7.305984944105148315e-02,-5.286504700779914856e-02,6.701868027448654175e-02,6.885641813278198242e-02,9.725552052259445190e-02,-1.391584277153015137e-01,-8.939727395772933960e-02,3.951663523912429810e-02,-4.691879823803901672e-02,-1.995353586971759796e-02,-2.602193653583526611e-01,5.649998784065246582e-02,-9.919776767492294312e-02,-1.452289670705795288e-01,-1.379395741969347000e-02,-3.476067213341593742e-03,6.190418079495429993e-02,1.064954847097396851e-01,-1.065673604607582092e-01,-2.356879226863384247e-02,9.382252581417560577e-03,2.370953746140003204e-02,-3.509460017085075378e-02,5.461452007293701172e-01,-2.859054692089557648e-02,-1.373703591525554657e-02,-7.084028422832489014e-02,2.137578651309013367e-02,-1.176562160253524780e-01,-5.505323782563209534e-02,-3.747593238949775696e-02,-8.938279747962951660e-02,-1.336828917264938354e-01,-1.336036175489425659e-01,1.230998151004314423e-02,-1.038513109087944031e-01,1.009492855519056320e-02,-3.159459680318832397e-02,-2.466191165149211884e-02,9.023784846067428589e-02,1.533868461847305298e-01,2.155221626162528992e-02,1.160517930984497070e-01,1.770808845758438110e-01,-1.085141971707344055e-01,9.400616586208343506e-02,1.141707748174667358e-01,-1.150101050734519958e-01,-2.477383241057395935e-02,1.277414411306381226e-01,-3.072315268218517303e-02
9.693730622529983521e-02,1.660540848970413208e-01,1.166997104883193970e-01,3.502473980188369751e-02,-4.825923591852188110e-02,6.444469094276428223e-02,6.460662931203842163e-02,2.167016267776489258e-03,-3.113601170480251312e-02,-4.972542822360992432e-02,-8.480167388916015625e-02,-2.294941060245037079e-02,4.251029342412948608e-02,-1.129135116934776306e-02,2.482929825782775879e-02,5.656653642654418945e-02,1.179279386997222900e-02,1.347467303276062012e-01,2.246225066483020782e-02,-1.094416528940200806e-02,2.242466807365417480e-02,-9.143194556236267090e-02,1.746980939060449600e-03,1.826241761445999146e-01,-1.269663721323013306e-01,6.730207800865173340e-02,-1.628710515797138214e-02,-2.761241421103477478e-02,1.075180172920227051e-01,1.537347882986068726e-01,5.544177256524562836e-03,9.873809292912483215e-03,3.038406744599342346e-02,6.010429561138153076e-02,4.204169288277626038e-02,4.766855388879776001e-02,-5.610962957143783569e-02,-1.051146350800991058e-02,4.372069239616394043e-02,3.567664697766304016e-02,4.654333367943763733e-02,2.412254177033901215e-02,-1.734381541609764099e-03,-1.419862546026706696e-02,5.041816085577011108e-02,3.217692021280527115e-03,5.714162439107894897e-02,-5.994345247745513916e-02,-3.060695715248584747e-02,-2.519183233380317688e-02,2.260651066899299622e-02,-4.437502101063728333e-02,1.807427406311035156e-01,6.943972408771514893e-02,1.273542493581771851e-01,9.509202837944030762e-02,-9.698869660496711731e-03,-2.110573798418045044e-01,4.298268258571624756e-02,1.495777070522308350e-01,-2.823282731696963310e-03,7.663094997406005859e-02,4.955744370818138123e-02,3.891279920935630798e-03,5.318806692957878113e-02,-5.343610420823097229e-02,-1.487186104059219360e-01,4.857988655567169189e-02,1.079832091927528381e-01,3.521711006760597229e-02,1.777476817369461060e-02,2.251168712973594666e-02,-4.805858805775642395e-02,3.874824568629264832e-02,1.306567788124084473e-01,-6.041043251752853394e-02,7.813189178705215454e-02,7.917551696300506592e-02,1.775536686182022095e-01,5.476273596286773682e-02,1.034626811742782593e-01,3.685458749532699585e-02,8.502490818500518799e-02,-1.699153184890747070e-01,7.229605689644813538e-03,-4.832723736763000488e-02,2.614577300846576691e-02,4.914410412311553955e-02,6.207549571990966797e-02,2.683591283857822418e-02,5.538864061236381531e-02,-8.570481836795806885e-02,-4.091563820838928223e-02,7.389587163925170898e-02,5.773260444402694702e-02,2.169020101428031921e-02,1.045260503888130188e-01,-4.885403066873550415e-02,4.114454612135887146e-02,5.279015749692916870e-04,-6.147914752364158630e-02,1.845470070838928223e-02,-6.521624326705932617e-02,1.880484819412231445e-02,4.400923103094100952e-02,-2.597706206142902374e-02,-7.784984260797500610e-02,-4.680298268795013428e-02,1.170357689261436462e-01,8.929809927940368652e-02,3.084357362240552902e-03,-5.650378018617630005e-02,-4.434592649340629578e-02,-2.070867083966732025e-02,3.907771408557891846e-02,-1.550620235502719879e-02,-6.571479886770248413e-02,5.363301560282707214e-02,-1.483044214546680450e-02,-2.534823305904865265e-02,1.129772588610649109e-01,4.824143648147583008e-02,-6.156377121806144714e-02,2.087133564054965973e-02,-5.500723421573638916e-02,8.789459825493395329e-04,-1.017606109380722046e-01,-5.313351377844810486e-02,3.886333107948303223e-02,1.148089617490768433e-01,4.168368130922317505e-02,6.478810310363769531e-02,5.365512799471616745e-03,-1.336990445852279663e-01,-1.898518414236605167e-03,8.848212659358978271e-03,-1.068349182605743408e-01,-3.677432611584663391e-02,2.304667048156261444e-02,-1.522047519683837891e-01,6.245264410972595215e-02,-2.774029038846492767e-02,7.610809803009033203e-02,-2.987417951226234436e-02,1.337830722332000732e-01,-4.092687368392944336e-02,3.421500325202941895e-02,-4.220457375049591064e-02,-3.585841506719589233e-02,2.235064841806888580e-02,-6.924252957105636597e-02,-7.012148946523666382e-02,-4.832335561513900757e-02,-8.711056411266326904e-02,-1.497828634455800056e-03,3.069388307631015778e-02,-1.902412041090428829e-03,-9.598859399557113647e-02,1.110860034823417664e-01,6.948333233594894409e-02,-8.168168365955352783e-03,3.707984462380409241e-03,-9.523538500070571899e-02,-2.510004490613937378e-02,-8.050591498613357544e-02,-1.142817735671997070e-01,-9.330445900559425354e-03,-5.478853359818458557e-03,1.167674064636230469e-01,1.764429807662963867e-01,4.654027521610260010e-03,-4.766741394996643066e-02,2.705728169530630112e-03,-2.450592815876007080e-03,-8.365434408187866211e-02,2.575491182506084442e-02,1.086485758423805237e-01,-7.418292760848999023e-02,-6.261454522609710693e-02,3.359267860651016235e-02,3.330674022436141968e-02,3.848954662680625916e-02,-6.125161796808242798e-02,-5.806773528456687927e-02,-1.992585696280002594e-02,-2.576875127851963043e-02,1.452168822288513184e-02,8.018261194229125977e-02,-8.171104639768600464e-02,-5.028680711984634399e-02,1.265652198344469070e-02,-5.760604888200759888e-02,-1.332878172397613525e-01,5.345806479454040527e-02,5.291815102100372314e-02,3.359016031026840210e-02,-2.474587596952915192e-02,-6.621256470680236816e-02,-6.894163787364959717e-02,1.478308811783790588e-02
7.256218045949935913e-02,7.102985680103302002e-02,1.070032566785812378e-01,-8.719436079263687134e-02,8.995218202471733093e-03,-4.812054336071014404e-02,1.080931127071380615e-01,9.280641376972198486e-02,2.554562985897064209e-01,-1.095782518386840820e-01,3.442019224166870117e-03,-2.249780483543872833e-02,4.208147153258323669e-02,-1.330225728452205658e-02,-1.113815605640411377e-01,5.640424042940139771e-02,2.098030224442481995e-02,-3.378695994615554810e-02,3.780050203204154968e-02,-5.704800412058830261e-02,-1.264749374240636826e-02,9.049845486879348755e-02,8.347536623477935791e-02,1.430098414421081543e-01,2.005249634385108948e-02,7.311031222343444824e-02,-3.903769701719284058e-02,-5.606415122747421265e-02,8.132027462124824524e-03,-6.989499926567077637e-02,6.778565235435962677e-03,3.868906758725643158e-03,2.717568166553974152e-02,1.279035657644271851e-01,-3.879278525710105896e-02,5.314893648028373718e-02,-7.309924066066741943e-02,2.094570733606815338e-02,-5.610340833663940430e-02,-1.680997759103775024e-02,7.757401466369628906e-02,-2.163845300674438477e-02,4.719923436641693115e-02,-8.518017083406448364e-02,2.253226935863494873e-01,9.426940232515335083e-02,9.074092656373977661e-02,2.126496471464633942e-02,-6.343757361173629761e-02,2.455411292612552643e-02,1.837771572172641754e-02,1.388729363679885864e-02,1.168986260890960693e-01,1.272593624889850616e-03,-4.176381602883338928e-02,-4.960168898105621338e-02,2.124428302049636841e-01,6.156273558735847473e-02,5.298786982893943787e-02,-2.822085749357938766e-03,5.280436202883720398e-02,4.457376897335052490e-02,9.035889990627765656e-03,2.944386564195156097e-02,-1.326006203889846802e-01,-5.436287447810173035e-02,2.867530286312103271e-02,4.763966798782348633e-02,4.698424413800239563e-02,4.271866381168365479e-02,1.926590688526630402e-02,-3.400019556283950806e-02,-4.785776883363723755e-02,-1.339404284954071045e-01,-7.531569898128509521e-02,1.919709146022796631e-02,1.355558261275291443e-02,5.890878289937973022e-02,-9.156686067581176758e-02,4.221057891845703125e-02,5.240572616457939148e-03,4.144236817955970764e-02,-1.173704639077186584e-01,2.144092135131359100e-02,-1.101998612284660339e-01,-2.730290405452251434e-02,-5.022207275032997131e-03,1.155821457505226135e-01,-3.869167715311050415e-02,4.657254368066787720e-02,1.042733564972877502e-01,5.185306444764137268e-02,-1.284152865409851074e-01,-6.798325479030609131e-02,-3.371185436844825745e-02,8.260420709848403931e-02,-6.471838802099227905e-02,-3.882770240306854248e-02,4.117298498749732971e-02,3.625345602631568909e-02,4.394433274865150452e-02,2.428858913481235504e-02,-1.155301630496978760e-01,-7.425226271152496338e-02,-4.056308045983314514e-02,-2.831119112670421600e-02,-1.806065067648887634e-02,-5.084016174077987671e-02,-3.449005307629704475e-03,-1.012748777866363525e-01,-1.513088196516036987e-01,-1.131742610596120358e-03,3.215387091040611267e-02,5.700903758406639099e-02,1.198133267462253571e-02,1.040649320930242538e-02,-1.211557090282440186e-01,-4.879660159349441528e-02,-5.326959490776062012e-02,-1.363488435745239258e-01,-4.192591086030006409e-02,-1.026167199015617371e-01,-8.462035655975341797e-02,-2.521018311381340027e-02,-3.256435692310333252e-02,-4.220138862729072571e-02,2.532541379332542419e-02,6.896452605724334717e-02,1.170443929731845856e-02,-1.181623525917530060e-02,3.836493566632270813e-02,1.098920851945877075e-01,2.511313371360301971e-02,9.002215415239334106e-02,1.246930286288261414e-01,-7.784175127744674683e-02,1.515413448214530945e-02,1.898397132754325867e-02,1.186916381120681763e-01,3.657222166657447815e-02,-2.983509330078959465e-03,-1.246564369648694992e-02,-1.644621938467025757e-01,-6.507523357868194580e-03,-2.593105193227529526e-03,-4.006396979093551636e-02,-3.700219467282295227e-02,-5.896741151809692383e-02,-3.533964604139328003e-02,8.652396500110626221e-03,1.377089172601699829e-01,-8.221891522407531738e-02,8.877637237310409546e-02,-1.381497830152511597e-02,-1.393505558371543884e-02,2.313856780529022217e-02,6.362605094909667969e-02,-6.321782618761062622e-02,3.276175260543823242e-02,-7.252009212970733643e-02,9.898500517010688782e-03,-7.820705883204936981e-03,-1.005988419055938721e-01,-1.174033153802156448e-02,3.170420974493026733e-02,1.896407571621239185e-03,-8.454065024852752686e-02,-1.466134786605834961e-01,-7.581014931201934814e-02,-6.642915308475494385e-03,3.802353516221046448e-02,2.048191055655479431e-02,7.539124228060245514e-03,-7.542353868484497070e-02,3.632335364818572998e-02,1.132070366293191910e-02,-1.257297582924365997e-02,-2.919531241059303284e-02,1.027372013777494431e-02,6.398656871169805527e-03,6.579790264368057251e-02,5.420129280537366867e-03,1.485318243503570557e-01,5.218540132045745850e-02,-1.337242312729358673e-03,-1.056396141648292542e-01,3.739684820175170898e-03,5.084000900387763977e-02,8.887691050767898560e-02,1.916412636637687683e-02,6.827341765165328979e-02,5.048558488488197327e-02,-5.995528027415275574e-02,-7.570148445665836334e-03,-3.230633214116096497e-02,2.699916437268257141e-02,1.273109018802642822e-01,-3.907812293618917465e-03,9.362003207206726074e-02,-1.114015653729438782e-01
-7.579521834850311279e-02,3.295222297310829163e-02,4.003886505961418152e-02,1.035345047712326050e-01,-4.211876913905143738e-02,-9.642327576875686646e-02,-1.628393530845642090e-01,-5.297038704156875610e-02,4.938376694917678833e-02,-2.681550085544586182e-01,9.622500278055667877e-03,-4.937849938869476318e-02,-1.100019663572311401e-01,-4.747542552649974823e-03,3.571169823408126831e-02,1.675985637120902538e-03,8.403562009334564209e-03,-8.830385655164718628e-02,-1.888364106416702271e-01,-6.429849565029144287e-02,-3.940239548683166504e-02,9.036079794168472290e-02,4.843327701091766357e-01,-6.292901933193206787e-02,-6.427187472581863403e-02,3.608843311667442322e-02,-8.646339178085327148e-03,-2.196113318204879761e-01,1.093179266899824142e-02,-3.811090812087059021e-02,-4.819264262914657593e-02,-1.647772192955017090e-01,-1.528689563274383545e-01,-1.647812277078628540e-01,-4.893082380294799805e-02,9.346596151590347290e-02,2.180282585322856903e-02,8.296060562133789062e-02,-1.196961551904678345e-01,5.381505191326141357e-02,9.609206463210284710e-04,3.715092241764068604e-01,1.123198959976434708e-02,5.725556984543800354e-02,2.876230776309967041e-01,1.816226355731487274e-02,-6.427474319934844971e-02,1.051203534007072449e-01,-9.785224683582782745e-03,6.275992095470428467e-02,-6.921695917844772339e-02,-2.229204587638378143e-02,-4.376853629946708679e-02,1.765697076916694641e-02,-9.298753738403320312e-02,-1.526184976100921631e-01,-1.398749351501464844e-01,-7.107497006654739380e-02,-7.655163854360580444e-02,-4.405130147933959961e-01,-6.150496751070022583e-02,1.023260727524757385e-01,6.123699247837066650e-02,-5.314483866095542908e-02,-1.380987763404846191e-01,9.283979423344135284e-03,2.044643834233283997e-02,1.019471585750579834e-01,-1.432285159826278687e-01,7.922579348087310791e-02,-5.833175498992204666e-03,-1.216503530740737915e-01,-4.173531234264373779e-01,3.755930066108703613e-02,-6.232535466551780701e-02,-5.089926719665527344e-02,-6.807814538478851318e-02,-9.683701395988464355e-02,-7.654602825641632080e-02,-1.104031279683113098e-01,-5.502373725175857544e-02,-1.694289296865463257e-01,-1.444980204105377197e-01,-4.399465024471282959e-02,-1.615329235792160034e-01,6.214684993028640747e-02,-4.578295629471540451e-03,-3.618764132261276245e-02,-1.171466484665870667e-01,-9.929317235946655273e-02,2.179024182260036469e-02,5.994915589690208435e-02,-2.073634713888168335e-01,2.282011322677135468e-02,1.013675406575202942e-01,-1.584795676171779633e-02,-9.287977963685989380e-02,-6.189342588186264038e-02,1.641119644045829773e-02,6.211503595113754272e-02,-7.122448831796646118e-02,-5.711286514997482300e-02,2.036326006054878235e-02,2.626896649599075317e-02,3.276551887392997742e-02,1.305142417550086975e-02,1.904576085507869720e-03,-1.729630231857299805e-01,-8.876522630453109741e-02,-9.140247851610183716e-02,-7.947504520416259766e-02,1.845090463757514954e-02,-2.025351226329803467e-01,-5.065752193331718445e-02,3.334181383252143860e-02,-4.668436478823423386e-03,-3.892007842659950256e-02,-1.224685758352279663e-01,-2.224411815404891968e-02,1.191092357039451599e-01,-6.112078670412302017e-03,-1.229732260107994080e-01,7.462632656097412109e-02,-8.696382865309715271e-03,-4.609318450093269348e-02,-9.764362871646881104e-02,2.882666327059268951e-02,2.219886332750320435e-02,-1.489917188882827759e-01,-3.469174262136220932e-03,-7.795952260494232178e-02,-3.101646341383457184e-02,-1.136071979999542236e-01,-4.439258016645908356e-03,-1.395015865564346313e-01,1.090101711452007294e-02,-3.148387745022773743e-02,-2.360283397138118744e-02,3.299947455525398254e-02,6.506559252738952637e-02,-1.313936263322830200e-01,2.064097821712493896e-01,-5.727760493755340576e-02,-7.466390728950500488e-02,-1.358448062092065811e-02,1.232190281152725220e-01,2.500739693641662598e-02,2.909829318523406982e-01,-7.739667594432830811e-02,5.067843478173017502e-03,-4.564958810806274414e-02,3.422868251800537109e-02,1.399761252105236053e-02,3.722899034619331360e-02,-9.278076887130737305e-02,-1.171042099595069885e-01,-1.153578460216522217e-01,2.726588584482669830e-02,1.509408950805664062e-01,-2.946300208568572998e-01,-8.234675228595733643e-02,-1.059080287814140320e-01,-2.008848041296005249e-01,8.468095213174819946e-02,-1.643287390470504761e-01,-6.231561675667762756e-02,1.237212046980857849e-01,2.645032107830047607e-02,-1.540123671293258667e-01,3.773487359285354614e-02,-5.225922539830207825e-02,9.850330650806427002e-02,1.558917313814163208e-01,8.311665058135986328e-02,-7.762911915779113770e-02,-2.160612680017948151e-02,-2.675636298954486847e-02,-1.812162101268768311e-01,-7.948970794677734375e-02,-8.125145733356475830e-02,-1.214188560843467712e-01,-4.887689277529716492e-02,-1.582244038581848145e-01,-7.603275775909423828e-02,-1.554491072893142700e-01,9.286984056234359741e-02,-6.246775016188621521e-02,1.794763654470443726e-02,3.421489149332046509e-02,-9.442369639873504639e-02,1.462242603302001953e-01,1.441336274147033691e-01,6.956136226654052734e-02,3.029827773571014404e-02,9.985280036926269531e-02,-7.902939617633819580e-02,-1.296378821134567261e-01,6.338407099246978760e-02,1.017430871725082397e-01,7.110788021236658096e-03
-6.107000261545181274e-02,-6.269369274377822876e-02,-1.723199486732482910e-01,-3.351677581667900085e-02,-1.189542934298515320e-02,-1.520651951432228088e-02,-4.497596994042396545e-02,6.273493170738220215e-02,-6.313252449035644531e-02,9.599713236093521118e-02,-1.071785762906074524e-01,-2.681703772395849228e-04,-5.752606689929962158e-02,-1.342830657958984375e-01,2.901192940771579742e-02,-7.590132951736450195e-02,-3.555288165807723999e-02,1.092591285705566406e-01,7.954084128141403198e-02,-6.973427534103393555e-02,-7.916324585676193237e-02,-4.953346401453018188e-02,3.007817268371582031e-02,-8.096890151500701904e-02,-1.006927564740180969e-01,5.937588587403297424e-02,-4.388373345136642456e-02,-5.054444074630737305e-03,4.344958346337080002e-03,1.573563218116760254e-01,7.393581420183181763e-02,-6.976011395454406738e-02,8.880691230297088623e-02,6.939905136823654175e-02,-9.036853164434432983e-02,-9.925083070993423462e-02,4.413802921772003174e-02,3.441587090492248535e-02,-1.589609980583190918e-01,8.907037787139415741e-03,1.531668473035097122e-02,4.796392843127250671e-02,1.154794450849294662e-02,3.866981342434883118e-02,9.465188533067703247e-02,-5.541600286960601807e-02,-5.014925450086593628e-02,-3.019982948899269104e-02,-4.462935775518417358e-02,1.068864762783050537e-01,-3.691441193222999573e-02,2.158438786864280701e-02,7.504126988351345062e-03,2.296501100063323975e-01,-1.428638547658920288e-01,4.450399801135063171e-02,4.840471222996711731e-02,-6.540010124444961548e-02,2.080087363719940186e-02,-9.377810359001159668e-02,-1.206327602267265320e-02,3.599425777792930603e-02,1.017980277538299561e-02,-1.613649510545656085e-04,5.851418524980545044e-02,-8.296639658510684967e-03,-7.650336250662803650e-03,9.243497252464294434e-02,8.155374228954315186e-02,2.312166616320610046e-02,-4.285122826695442200e-02,6.984130293130874634e-02,5.743870884180068970e-02,-1.419736351817846298e-02,-1.445309370756149292e-01,-5.176227074116468430e-03,-2.749053761363029480e-02,2.795838564634323120e-02,3.321630880236625671e-02,8.097738958895206451e-03,-5.744810774922370911e-02,-1.231668866239488125e-03,-4.536682739853858948e-02,-1.043414324522018433e-02,2.285208180546760559e-02,-1.503814607858657837e-01,-4.631001036614179611e-03,-4.776666313409805298e-02,-3.457638993859291077e-02,2.605343237519264221e-02,1.190708652138710022e-01,1.367277000099420547e-03,-1.712841540575027466e-01,-1.579015515744686127e-02,-4.676409810781478882e-02,-4.286561906337738037e-02,2.350666746497154236e-02,6.698925048112869263e-02,1.783352717757225037e-02,-4.058732837438583374e-02,3.768320381641387939e-02,7.153730094432830811e-02,1.824449002742767334e-02,2.426035702228546143e-03,-1.880064606666564941e-02,-8.830419392324984074e-04,-6.831996887922286987e-02,-1.552937030792236328e-01,1.328218132257461548e-01,1.593374088406562805e-02,1.988849043846130371e-02,1.781016401946544647e-02,2.188106775283813477e-01,-5.321379005908966064e-02,-4.293460026383399963e-02,-1.247016713023185730e-01,5.145283788442611694e-02,-9.145843237638473511e-02,6.161470711231231689e-02,-4.256650805473327637e-02,-6.541579961776733398e-02,-4.929238557815551758e-02,1.350896507501602173e-01,-9.417386353015899658e-02,-1.202573627233505249e-02,-5.266870558261871338e-02,8.767618983983993530e-02,-3.589731082320213318e-02,-1.280935704708099365e-01,-5.631754547357559204e-02,1.382781714200973511e-01,-2.504995651543140411e-02,-5.242217332124710083e-03,6.671288609504699707e-02,-8.472326211631298065e-03,-1.408852338790893555e-01,-8.807023614645004272e-02,3.326936811208724976e-02,1.545017585158348083e-02,-3.978621214628219604e-02,4.832716286182403564e-02,4.839752241969108582e-02,-8.112379908561706543e-02,-3.281151503324508667e-02,9.398909285664558411e-03,1.427785959094762802e-02,2.607487142086029053e-02,-3.876399248838424683e-02,9.748736768960952759e-02,3.034332953393459320e-02,-9.926716238260269165e-02,1.020157560706138611e-01,-4.835050553083419800e-02,-5.042370408773422241e-02,1.053506229072809219e-02,-2.311968617141246796e-02,-4.679260775446891785e-02,-5.419421941041946411e-04,-5.921072512865066528e-02,2.155913971364498138e-02,1.369339823722839355e-01,-4.354881495237350464e-02,1.005596369504928589e-01,-5.525303632020950317e-02,2.956024371087551117e-02,1.887906529009342194e-02,4.659240692853927612e-02,3.058408387005329132e-02,-2.221458964049816132e-02,9.065940976142883301e-02,-5.554728955030441284e-02,5.611808598041534424e-02,4.573583602905273438e-02,-2.798949554562568665e-02,-6.960529834032058716e-02,-1.241233795881271362e-01,2.298224717378616333e-02,1.364102512598037720e-01,-1.662256121635437012e-01,-5.837164819240570068e-03,3.191821649670600891e-02,3.458853065967559814e-02,6.465730071067810059e-02,-4.351536557078361511e-02,-2.251273952424526215e-02,-1.640841364860534668e-04,5.127281323075294495e-02,6.106279045343399048e-02,-2.328067831695079803e-02,4.892967268824577332e-02,-4.480523616075515747e-02,2.009871043264865875e-02,-2.169340290129184723e-02,6.277294456958770752e-02,-2.841062843799591064e-03,-1.339888013899326324e-02,7.737071067094802856e-02,8.768124878406524658e-02,-6.591929495334625244e-02,3.383119031786918640e-02
6.677205115556716919e-02,6.126575917005538940e-02,-8.359880000352859497e-02,3.339757025241851807e-02,6.140154600143432617e-02,-8.273939788341522217e-02,-3.105769492685794830e-02,-9.560872614383697510e-02,-7.010857760906219482e-02,-5.207646638154983521e-02,-1.123248487710952759e-01,-3.027442656457424164e-02,-7.612038403749465942e-02,6.720007210969924927e-02,-5.492119863629341125e-02,3.177832439541816711e-02,4.009561985731124878e-02,-4.169685393571853638e-02,8.774927258491516113e-02,-2.488699182868003845e-02,-1.926672607660293579e-01,1.091679930686950684e-01,8.416727930307388306e-02,1.081575080752372742e-01,8.052290976047515869e-02,1.380357705056667328e-02,-5.647393688559532166e-02,5.860333517193794250e-02,-3.445914387702941895e-02,1.383573375642299652e-02,-3.511019423604011536e-02,1.376690119504928589e-01,-7.606426626443862915e-02,-5.974422767758369446e-02,-1.319808661937713623e-01,-9.692093729972839355e-02,-2.469206415116786957e-02,-6.627568975090980530e-03,-1.481240689754486084e-01,-9.728008881211280823e-03,2.484650351107120514e-02,8.188463747501373291e-02,1.829813607037067413e-02,1.129560992121696472e-01,1.114239823073148727e-02,-1.198038551956415176e-02,1.301892846822738647e-02,1.190322861075401306e-01,4.421764612197875977e-02,-5.622924864292144775e-02,1.340050157159566879e-02,2.345526963472366333e-02,4.378611966967582703e-02,5.686653777956962585e-03,6.810155510902404785e-02,-1.910547167062759399e-02,1.479332298040390015e-01,-7.034574635326862335e-03,3.123808652162551880e-02,3.556074202060699463e-02,-1.171382144093513489e-01,8.096403628587722778e-02,-4.433065280318260193e-02,1.328958757221698761e-02,-5.355169251561164856e-02,-7.197788357734680176e-02,-1.243073269724845886e-01,3.295391798019409180e-02,-1.495725512504577637e-01,-1.259656623005867004e-02,9.666839987039566040e-02,3.319797664880752563e-02,-1.370232552289962769e-01,-2.369798719882965088e-02,-1.111426427960395813e-01,3.081780858337879181e-02,-3.747191280126571655e-02,-5.551313236355781555e-02,4.622904583811759949e-02,-4.037968814373016357e-02,8.300228416919708252e-02,1.650229394435882568e-01,-8.125458844006061554e-03,-8.874730207026004791e-03,9.749311953783035278e-02,-3.163851425051689148e-02,-3.757641837000846863e-02,4.531374573707580566e-02,-6.220080703496932983e-02,-1.292851120233535767e-01,-2.402518503367900848e-02,-1.672629080712795258e-02,1.050982549786567688e-01,1.019483357667922974e-01,-4.852954298257827759e-02,1.506216078996658325e-02,1.860343478620052338e-02,1.184375211596488953e-01,-2.295911498367786407e-02,5.685219541192054749e-02,1.632765382528305054e-01,-4.700605198740959167e-02,1.112283300608396530e-02,-4.292404279112815857e-02,9.529119729995727539e-02,-1.170161142945289612e-01,-1.041082292795181274e-01,-2.270479500293731689e-02,5.916696973145008087e-03,4.763547703623771667e-02,3.838191926479339600e-02,2.859218278899788857e-03,-9.199918061494827271e-02,1.996749546378850937e-03,-1.246696058660745621e-02,-3.240442276000976562e-02,3.254650533199310303e-02,-1.079685837030410767e-01,-4.206378012895584106e-02,-1.248504407703876495e-02,-1.062571629881858826e-02,8.445160090923309326e-02,-2.635025605559349060e-02,-5.466846376657485962e-02,-6.459454447031021118e-02,-1.250772178173065186e-01,-4.516171663999557495e-02,5.217496305704116821e-02,5.671299621462821960e-02,-7.051605731248855591e-02,3.256210312247276306e-02,5.021433159708976746e-02,3.403386846184730530e-02,1.188802421092987061e-01,9.577496349811553955e-02,-5.501528829336166382e-02,-1.024983599781990051e-01,-4.011921584606170654e-02,-8.258055895566940308e-02,8.308444917201995850e-02,-1.144019793719053268e-02,6.704895198345184326e-02,6.374425441026687622e-02,1.180864647030830383e-01,-1.210774034261703491e-01,4.666507989168167114e-02,-1.007605642080307007e-01,8.574278652667999268e-02,-1.290015727281570435e-01,2.966667525470256805e-03,-2.012127451598644257e-02,-4.342917725443840027e-02,5.913634970784187317e-02,-1.707409322261810303e-01,2.250364273786544800e-01,-4.597994685173034668e-02,7.918283343315124512e-02,-9.501012414693832397e-02,-8.121971040964126587e-03,-1.132604926824569702e-01,-2.956380136311054230e-02,-3.857818618416786194e-02,5.070873349905014038e-02,-2.006256394088268280e-02,-1.697855256497859955e-02,1.443947404623031616e-01,1.402845419943332672e-02,-5.408303067088127136e-02,3.717076405882835388e-02,5.397716164588928223e-02,-2.417169511318206787e-02,6.778649520128965378e-03,1.109185516834259033e-01,4.419302195310592651e-02,4.067343845963478088e-02,-1.067387685179710388e-01,-3.592003881931304932e-02,-6.409889901988208294e-04,8.458755165338516235e-02,4.375503584742546082e-02,9.936976246535778046e-03,4.107509180903434753e-02,6.053943932056427002e-02,2.581972070038318634e-02,4.436372220516204834e-02,3.392318263649940491e-03,2.538610249757766724e-02,-8.791103959083557129e-02,-6.810780614614486694e-02,-9.349983185529708862e-02,-8.204544335603713989e-02,-3.142395615577697754e-02,4.529804736375808716e-02,2.639807946979999542e-02,6.886477023363113403e-02,-1.442232280969619751e-01,1.205863356590270996e-01,2.547766640782356262e-02,2.053536009043455124e-03,5.407669767737388611e-02
4.220544174313545227e-02,2.236599102616310120e-02,4.493257775902748108e-02,-1.035671234130859375e-01,1.777270734310150146e-01,-1.928959935903549194e-01,-1.222593523561954498e-02,-2.083685807883739471e-02,-8.246408402919769287e-02,-2.245976775884628296e-02,-6.468765437602996826e-02,1.354248970746994019e-01,-9.085341542959213257e-02,-2.005312778055667877e-02,-1.598814576864242554e-01,-1.425172295421361923e-02,-7.954066386446356773e-04,5.685976892709732056e-02,-3.394567593932151794e-02,-1.567722298204898834e-03,-5.117736756801605225e-02,7.545302063226699829e-02,1.735899001359939575e-01,5.299078673124313354e-02,-8.907486498355865479e-02,7.992894202470779419e-02,-7.710818946361541748e-02,-2.181049808859825134e-02,4.254480451345443726e-02,-1.177768111228942871e-01,3.010502085089683533e-03,-1.184820756316184998e-01,-7.257039658725261688e-03,1.082119420170783997e-01,8.285769820213317871e-02,-2.124980837106704712e-02,2.236797846853733063e-02,1.910289004445075989e-02,-4.766716063022613525e-02,-7.096096128225326538e-02,-8.321425877511501312e-03,5.019856989383697510e-02,1.078860387206077576e-01,1.056799441576004028e-01,3.471532091498374939e-02,6.931547820568084717e-02,1.415800005197525024e-01,7.326291501522064209e-02,-3.427764773368835449e-02,4.771708510816097260e-03,-6.001384183764457703e-02,-2.375167049467563629e-02,-1.737926341593265533e-02,-5.749259889125823975e-02,8.276612311601638794e-02,-4.617798328399658203e-02,-1.777556985616683960e-01,-2.416778821498155594e-03,6.990075111389160156e-02,2.135384362190961838e-03,9.039569646120071411e-02,2.408508583903312683e-02,-4.504188522696495056e-02,1.297895163297653198e-01,-2.568910643458366394e-02,-4.337614402174949646e-02,5.045060534030199051e-03,-1.375479251146316528e-01,-1.179335340857505798e-01,-2.985317446291446686e-02,-3.512766584753990173e-02,2.321293763816356659e-02,-1.582019031047821045e-01,7.231475412845611572e-02,6.287267804145812988e-02,6.444778293371200562e-02,-1.408884860575199127e-02,-2.280576154589653015e-03,-4.997713863849639893e-02,7.883519865572452545e-03,-1.154986768960952759e-01,-7.960119098424911499e-02,-6.550182402133941650e-02,-2.719169482588768005e-02,4.881628602743148804e-02,6.537593156099319458e-02,6.259208172559738159e-02,7.560218125581741333e-02,1.392167061567306519e-01,7.884705811738967896e-02,3.188361227512359619e-02,-7.382778078317642212e-02,-7.714749127626419067e-02,8.105877041816711426e-02,-1.195198670029640198e-02,4.886644333600997925e-02,3.174345567822456360e-02,3.639005823060870171e-03,-1.032552123069763184e-01,-3.205823525786399841e-02,-2.291793189942836761e-02,7.770883291959762573e-02,9.641575813293457031e-02,4.112716019153594971e-02,-6.267005950212478638e-02,2.439491823315620422e-02,-7.982268184423446655e-02,3.433254733681678772e-02,3.290421143174171448e-02,1.705706305801868439e-02,3.699510544538497925e-02,1.213635876774787903e-01,-2.561970241367816925e-02,1.981838233768939972e-02,-4.270749166607856750e-03,-1.408178359270095825e-01,3.956734389066696167e-02,-7.548484951257705688e-02,-8.909565210342407227e-02,-7.651805132627487183e-02,3.570528328418731689e-02,2.262230403721332550e-02,6.670464575290679932e-02,1.018905639648437500e-01,-6.102848798036575317e-02,5.157962813973426819e-02,7.051792740821838379e-02,-5.241507664322853088e-02,-3.662707656621932983e-02,-1.100772991776466370e-01,-1.581375114619731903e-02,-6.903467327356338501e-02,-1.182177215814590454e-01,-3.181185573339462280e-02,9.922239929437637329e-02,2.328560687601566315e-02,1.212001312524080276e-02,-4.410332813858985901e-02,-1.762229204177856445e-01,1.289308220148086548e-01,1.833165436983108521e-02,-1.713756844401359558e-02,-7.491490989923477173e-02,6.372835487127304077e-02,-1.581012159585952759e-01,-3.717486560344696045e-02,-8.380728960037231445e-02,2.808049879968166351e-02,-2.551874518394470215e-02,-8.440243452787399292e-02,-3.297953307628631592e-02,8.504103124141693115e-02,-1.297844350337982178e-01,-1.274179816246032715e-01,1.428305208683013916e-01,-5.924127623438835144e-02,3.481859713792800903e-02,5.397570133209228516e-02,3.486207500100135803e-02,1.925158053636550903e-01,2.390193194150924683e-02,-9.582326561212539673e-02,-4.206687957048416138e-02,3.094867244362831116e-02,-7.835774123668670654e-02,6.837919354438781738e-02,1.371863037347793579e-01,1.689037680625915527e-02,-5.241258069872856140e-02,-7.667967677116394043e-02,-1.028858050704002380e-01,6.478933244943618774e-02,2.286008559167385101e-02,-1.692051887512207031e-01,-7.652997225522994995e-02,1.403857022523880005e-01,1.411586403846740723e-01,-3.327582031488418579e-02,-1.361314803361892700e-01,-4.018422216176986694e-02,2.169680036604404449e-02,5.846622399985790253e-03,2.994618006050586700e-02,8.782923966646194458e-02,3.755739703774452209e-02,-4.592606052756309509e-02,5.369455739855766296e-02,4.464227706193923950e-02,-1.407842710614204407e-02,7.231217622756958008e-02,1.478026341646909714e-02,3.658273816108703613e-02,1.091850772500038147e-01,7.830533199012279510e-03,-1.271424740552902222e-01,3.240603581070899963e-02,-3.813152760267257690e-02,6.698334473185241222e-04,2.705993130803108215e-02,7.404269278049468994e-02
-6.718909740447998047e-02,-5.744499340653419495e-02,1.185687165707349777e-02,-1.087620109319686890e-01,-2.694520056247711182e-01,-6.186748668551445007e-02,-1.650054156780242920e-01,-3.582082688808441162e-02,-6.443011760711669922e-02,-3.946117758750915527e-01,-2.408552356064319611e-02,1.150565408170223236e-02,-1.493991464376449585e-01,-1.204976961016654968e-01,-3.108357079327106476e-02,1.456240564584732056e-01,3.036424331367015839e-02,6.549882888793945312e-02,-7.036310434341430664e-02,-8.949552476406097412e-02,8.591494709253311157e-02,-6.610510172322392464e-05,3.336493670940399170e-01,-3.059794194996356964e-02,-1.100040301680564880e-01,-7.828368805348873138e-03,6.849852204322814941e-02,-2.409521490335464478e-01,-5.211274698376655579e-02,-9.042062610387802124e-02,8.234090358018875122e-02,1.842993125319480896e-02,-3.161293640732765198e-02,-9.460566937923431396e-02,-3.400473296642303467e-01,-9.307237714529037476e-02,1.365733593702316284e-01,-5.579784885048866272e-02,9.566076099872589111e-02,-5.612018331885337830e-02,1.291930973529815674e-01,2.448135018348693848e-01,9.430623799562454224e-02,-5.783490464091300964e-02,1.755564361810684204e-01,6.806465238332748413e-02,-8.935199677944183350e-02,-2.110265195369720459e-01,-4.175645858049392700e-02,1.141157671809196472e-01,-1.167390421032905579e-01,-6.661026179790496826e-02,-9.057885967195034027e-03,-3.764507174491882324e-02,-7.924627512693405151e-02,-1.446147412061691284e-01,-1.766828298568725586e-01,3.397885942831635475e-03,1.690899282693862915e-01,-4.690172076225280762e-01,1.212249789386987686e-02,-3.430110588669776917e-02,-1.176322251558303833e-01,5.585913360118865967e-02,9.378788620233535767e-02,-9.492669999599456787e-02,-3.320375084877014160e-02,1.051803082227706909e-01,-2.302264720201492310e-01,-9.961912781000137329e-02,-6.851638853549957275e-02,-3.414725512266159058e-02,-5.270434617996215820e-01,-4.812213778495788574e-02,9.548985958099365234e-02,-9.911207109689712524e-02,6.166766211390495300e-02,-8.895672857761383057e-02,-8.176042139530181885e-02,-5.679845809936523438e-02,-6.907861679792404175e-02,-1.135147735476493835e-01,-2.182357758283615112e-01,-6.368709355592727661e-02,-2.538496851921081543e-01,6.068789958953857422e-02,6.062746420502662659e-02,-3.256277740001678467e-02,2.885118359699845314e-03,1.649885252118110657e-02,-9.187778085470199585e-02,-4.442063346505165100e-02,-1.494536548852920532e-01,-1.539543922990560532e-02,1.424132585525512695e-01,-2.850584685802459717e-02,-2.185051888227462769e-01,-2.681835889816284180e-01,-2.062048763036727905e-02,-4.762702807784080505e-02,-7.102605700492858887e-02,-7.073213160037994385e-02,-3.811931237578392029e-02,-6.037109065800905228e-03,1.448297798633575439e-01,-3.788014501333236694e-02,-1.405653953552246094e-01,5.996109684929251671e-04,2.214814350008964539e-02,-1.736892759799957275e-01,-1.122079789638519287e-01,7.963760197162628174e-02,-8.484215289354324341e-02,-9.148859232664108276e-02,1.783763803541660309e-02,3.061694465577602386e-02,-2.786533161997795105e-02,-1.910524815320968628e-02,4.224411770701408386e-02,-4.092346876859664917e-02,-1.008968129754066467e-01,7.326914370059967041e-02,1.903913170099258423e-01,3.409430757164955139e-02,1.228754669427871704e-01,-1.203879192471504211e-01,3.755354136228561401e-02,-5.729913339018821716e-02,-1.502685099840164185e-01,-2.272243611514568329e-02,8.985289931297302246e-02,-1.088689491152763367e-01,-1.209437400102615356e-01,1.143474970012903214e-02,-1.120662018656730652e-01,2.840232476592063904e-02,-1.620577095309272408e-04,-7.891359180212020874e-02,-5.409372970461845398e-02,2.530407626181840897e-03,-1.505047380924224854e-01,2.434393912553787231e-01,-5.539643391966819763e-02,-4.534264653921127319e-02,-7.297146134078502655e-03,3.434054553508758545e-02,-1.094340607523918152e-01,7.355356216430664062e-02,-1.334468424320220947e-01,-8.878938853740692139e-02,2.720289863646030426e-02,-4.869498312473297119e-02,3.347758203744888306e-02,8.242143690586090088e-02,-2.330904603004455566e-01,-1.681146621704101562e-01,-2.021139115095138550e-01,5.924232304096221924e-02,3.826176375150680542e-02,-5.928806066513061523e-01,7.451299577951431274e-02,4.155392944812774658e-02,-1.891446858644485474e-02,1.051587536931037903e-01,-3.122861124575138092e-02,3.048630617558956146e-02,1.511444449424743652e-01,-8.951810002326965332e-02,-1.459563821554183960e-01,-6.877968460321426392e-02,1.103476211428642273e-01,3.904153127223253250e-03,2.095511704683303833e-01,-7.024896144866943359e-02,7.645702362060546875e-02,-5.623311735689640045e-04,4.979618266224861145e-02,-1.662919223308563232e-01,7.072778791189193726e-02,-5.462068691849708557e-02,-2.208593487739562988e-02,-2.453434281051158905e-02,-8.448459208011627197e-02,2.208501845598220825e-02,-2.538727223873138428e-01,-8.583515882492065430e-02,-2.960359677672386169e-02,3.985698521137237549e-02,-1.488557904958724976e-01,-4.657245054841041565e-02,-1.381679624319076538e-01,3.102729916572570801e-01,9.124134480953216553e-02,-3.027346916496753693e-02,2.477558851242065430e-01,-2.340458892285823822e-02,-8.610460162162780762e-02,-1.775784492492675781e-01,5.647150054574012756e-02,6.024462357163429260e-02
7.849111407995223999e-02,-9.719447791576385498e-02,7.227706909179687500e-02,-6.431426852941513062e-02,-6.409482657909393311e-02,9.315844625234603882e-02,-4.244839400053024292e-02,3.714612498879432678e-02,3.493320941925048828e-02,-3.934020921587944031e-02,5.741540342569351196e-02,1.230811886489391327e-02,-1.832947507500648499e-02,-9.311220794916152954e-02,-1.409269720315933228e-01,1.112910136580467224e-01,-3.762240288779139519e-03,8.060514926910400391e-02,-1.707827486097812653e-02,1.246853247284889221e-01,-2.716969698667526245e-02,-6.701000034809112549e-02,5.071792379021644592e-02,-4.887833073735237122e-02,-4.308412462705746293e-05,4.511737823486328125e-02,5.757195502519607544e-02,-4.772065952420234680e-02,-4.424500837922096252e-02,-4.905481636524200439e-02,-7.916687428951263428e-02,2.718787174671888351e-03,-4.845486581325531006e-02,4.908066242933273315e-02,-6.464035063982009888e-02,1.486999541521072388e-02,-3.269499167799949646e-03,5.162712186574935913e-03,-9.660673141479492188e-02,-4.143423959612846375e-02,-2.548920921981334686e-02,8.279236406087875366e-02,2.127443253993988037e-02,6.711826473474502563e-02,-5.858032032847404480e-02,-3.347055613994598389e-02,5.255982745438814163e-03,4.922886192798614502e-02,2.360010519623756409e-02,1.008973941206932068e-01,-1.090403646230697632e-01,-6.432729959487915039e-02,3.257733955979347229e-02,5.640699714422225952e-02,-2.067505270242691040e-01,1.144044008105993271e-02,-5.253838375210762024e-02,2.623510733246803284e-02,-4.706922918558120728e-04,-7.435582112520933151e-03,4.382289573550224304e-02,5.870577692985534668e-02,-1.490490436553955078e-01,-1.252200081944465637e-02,-1.460401061922311783e-02,-3.609760105609893799e-02,-3.320042788982391357e-02,7.118321489542722702e-03,-2.631447464227676392e-02,3.423695266246795654e-02,8.925437927246093750e-02,4.525748267769813538e-02,6.489448249340057373e-02,-1.220497675240039825e-02,2.519364282488822937e-02,7.163167465478181839e-03,4.164456948637962341e-02,5.962743237614631653e-02,-9.879228472709655762e-02,1.881323009729385376e-02,-7.644722703844308853e-03,1.565020345151424408e-02,1.113699078559875488e-01,-1.076934561133384705e-01,-6.758895516395568848e-02,1.513221710920333862e-01,4.687199741601943970e-02,3.311927616596221924e-02,-1.009619832038879395e-01,-3.154032304883003235e-02,4.300904273986816406e-02,-4.126479104161262512e-02,3.417250141501426697e-02,2.129047363996505737e-02,-3.637165203690528870e-02,-4.569092392921447754e-02,-1.639494597911834717e-01,2.433262579143047333e-02,-6.885755062103271484e-02,8.485113829374313354e-02,-3.627069666981697083e-02,-5.859127268195152283e-02,-1.077143475413322449e-01,1.127302348613739014e-01,-5.523931607604026794e-02,7.215169072151184082e-02,-5.084220319986343384e-02,-1.278245896100997925e-01,-7.633036933839321136e-03,7.549291476607322693e-03,8.388943038880825043e-03,3.230979293584823608e-02,-9.137631952762603760e-02,-1.358910799026489258e-01,9.201069362461566925e-03,-1.588879376649856567e-01,-4.823822528123855591e-03,-1.349267810583114624e-01,-1.170526258647441864e-02,1.800730973482131958e-01,-4.104914888739585876e-02,-1.777059584856033325e-02,3.109918534755706787e-02,-1.268484890460968018e-01,-1.475856900215148926e-01,-3.600241988897323608e-02,-1.915353164076805115e-02,6.218799576163291931e-02,8.669167757034301758e-02,1.907035335898399353e-02,-3.281066194176673889e-02,-1.510272501036524773e-03,7.708521187305450439e-02,3.178086131811141968e-03,-2.603782154619693756e-02,1.299257576465606689e-01,5.274794250726699829e-02,6.711842119693756104e-02,-2.132946252822875977e-02,-1.619375050067901611e-01,-6.618834286928176880e-02,-1.535536721348762512e-04,8.948841132223606110e-03,-5.836736410856246948e-02,4.330715909600257874e-02,-1.534992456436157227e-01,-3.809801861643791199e-02,-8.647774904966354370e-02,-1.786272227764129639e-02,2.857599174603819847e-03,-6.587323546409606934e-02,5.674314498901367188e-02,2.157778665423393250e-02,-1.210861187428236008e-02,-3.125208988785743713e-02,-1.372341364622116089e-01,2.152114175260066986e-03,3.486598655581474304e-02,6.590568274259567261e-02,-2.574930666014552116e-03,-4.097364842891693115e-03,5.843155086040496826e-02,-4.590325430035591125e-02,-1.012052409350872040e-02,-8.496443927288055420e-02,9.077886492013931274e-02,6.336631625890731812e-02,-9.526693075895309448e-02,-8.387211710214614868e-02,-6.108311936259269714e-02,3.592345118522644043e-02,1.039769425988197327e-01,1.137490794062614441e-01,-3.073565661907196045e-02,4.931541159749031067e-02,8.842335641384124756e-02,-1.171984747052192688e-01,-2.843690663576126099e-02,-4.057502746582031250e-02,4.482553526759147644e-02,-3.262946754693984985e-02,-9.388750046491622925e-02,-9.254380315542221069e-02,-6.885716319084167480e-02,7.764086872339248657e-02,-1.130885854363441467e-01,-1.472604125738143921e-01,-2.649503387510776520e-02,-5.658486485481262207e-02,-1.057063322514295578e-02,-5.694909393787384033e-02,-1.740881204605102539e-01,-4.448097571730613708e-02,4.383131116628646851e-02,-2.311799302697181702e-02,3.403189033269882202e-02,-7.488601654767990112e-02,-5.018391832709312439e-02,-4.826156795024871826e-02,-2.115333080291748047e-02
